sent_0 -0.099003 0.019200 -0.014516 0.019426 0.074861 -0.096729 0.092362 -0.071761 -0.104214 -0.057555 -0.122943 0.209392 -0.061168 -0.145174 0.017179 0.222272 -0.071826 0.037196 0.122677 0.023740 -0.025691 0.030889 0.023200 0.073780 0.123719 0.010193 -0.075267 0.141181 0.017910 0.136801 -0.138153 0.130703 0.073341 -0.050470 -0.007172 -0.014539 -0.049109 0.061770 -0.024667 0.024984 -0.098474 -0.013922 0.082116 0.048989 0.001761 0.134784 -0.101532 0.062619 0.024577 0.219323 0.071456 0.088019 -0.027627 -0.061204 -0.016621 0.068318 0.148741 -0.009119 0.089647 -0.011664 0.094477 0.007390 -0.068406 -0.002368 0.116323 -0.067325 -0.078023 -0.119920 0.094512 0.035404 -0.009782 -0.019958 -0.091951 -0.080072 0.102987 0.029556 0.165644 -0.000765 -0.105096 -0.060079 -0.025724 -0.081025 -0.075198 -0.006753 0.109638 0.069275 -0.078879 -0.036162 -0.143936 0.245922 -0.009229 0.156278 -0.031967 0.023849 -0.154452 0.039549 -0.040193 0.061809 -0.167314 -0.043571
sent_1 -0.070781 0.066514 -0.088483 -0.011120 -0.030136 0.115017 0.022939 0.131246 -0.070921 -0.027313 -0.048640 -0.010964 0.071087 -0.104886 -0.000171 0.137770 0.125170 0.166827 -0.102698 0.041717 0.067370 0.059677 -0.158643 0.056212 0.002606 0.033214 -0.026879 -0.073513 -0.060493 0.038751 -0.008081 0.021255 -0.043625 0.039414 -0.095615 -0.067547 0.056996 -0.110587 0.067498 -0.048635 -0.101307 0.009665 -0.021520 0.019439 -0.119108 0.115215 0.105403 0.165387 -0.010125 -0.059952 -0.092213 0.065397 0.002895 -0.005146 -0.203783 0.021465 0.035320 -0.151546 0.091638 0.061108 0.035786 0.076014 -0.011645 0.136875 -0.001844 -0.111430 -0.065478 -0.012549 -0.045778 0.063237 -0.084342 0.056396 -0.011495 0.037731 0.051184 -0.093270 0.098044 0.020292 -0.035276 0.102243 -0.145107 -0.177856 0.021499 -0.042905 0.144350 0.129936 0.018372 -0.048788 -0.031906 0.060886 0.073172 0.046151 -0.096631 0.064884 -0.261024 -0.019980 0.079263 0.114919 0.002902 0.073676
sent_2 -0.038210 -0.055015 0.199138 0.042578 0.044576 0.090048 0.059082 -0.133780 0.172509 0.143983 -0.016020 -0.024422 -0.096438 0.012389 -0.209272 -0.014210 -0.002801 0.012774 -0.115413 -0.019786 0.067035 -0.069160 0.135031 -0.104899 -0.135973 0.018614 -0.078969 0.075411 -0.051583 -0.068665 0.118673 -0.097063 0.005980 -0.025162 -0.084044 0.117586 -0.072810 -0.039435 -0.005706 0.075834 -0.070680 0.085270 -0.028918 -0.037348 0.047114 0.031452 0.024929 0.040570 0.116262 0.083366 0.176799 -0.011021 0.205349 0.018908 -0.057933 0.068445 -0.028567 0.071442 0.000377 0.032645 0.174162 -0.062729 -0.084817 0.045902 0.024490 -0.185780 -0.043175 -0.203204 0.041173 0.061952 0.073425 -0.049073 -0.015288 0.019536 0.027436 -0.021101 -0.031207 -0.123913 0.001491 -0.082044 0.102224 -0.120499 -0.032439 -0.047538 -0.004217 0.036617 -0.002908 0.038802 0.058167 0.195883 -0.022529 0.210272 -0.037578 -0.139655 0.014978 -0.146832 -0.047379 -0.020599 -0.180426 0.052636
sent_3 -0.111443 0.010477 -0.008007 0.044725 -0.064359 -0.004001 0.091391 0.000186 0.165451 0.020477 0.036535 -0.049921 0.183357 -0.085632 0.024402 -0.164162 -0.148905 0.020743 -0.119505 0.073618 0.004953 -0.083526 0.019393 0.060879 -0.000538 -0.153742 0.116297 -0.173914 0.198090 0.052755 0.005006 0.046127 0.020989 0.152812 0.058845 0.022162 -0.116098 -0.180474 0.022126 0.125455 -0.025306 -0.034707 -0.037414 0.052883 -0.014869 -0.145587 -0.143852 -0.017696 -0.122784 0.083281 0.041954 0.053740 0.095730 0.088644 -0.073037 -0.005075 -0.021189 0.010085 -0.034970 0.004155 0.083069 -0.082490 -0.047297 -0.093014 -0.086286 -0.133736 0.002185 0.003378 -0.017479 0.009808 0.082429 -0.063947 0.027463 -0.019809 0.009012 0.083238 -0.123134 0.151001 -0.044975 0.035488 0.077332 -0.046362 0.007531 -0.080345 0.102873 -0.067699 0.019524 0.024601 0.075105 0.075049 -0.136083 -0.084185 0.019853 -0.079799 -0.009669 0.063690 0.008674 0.176278 0.046837 -0.066725
sent_4 -0.197926 0.062412 -0.038910 -0.017010 -0.077879 0.200481 0.111028 0.151493 0.136687 -0.027524 0.135809 0.014631 0.080697 -0.104654 -0.125275 -0.084827 -0.081840 -0.022878 -0.111653 0.077215 0.018514 -0.188669 0.009090 -0.125351 0.166724 -0.102724 0.022881 -0.139013 0.219768 -0.165115 0.053844 -0.010058 0.013772 0.079092 0.045381 -0.118086 -0.166719 -0.105589 -0.006681 0.041182 -0.059520 0.020796 -0.030713 -0.098393 -0.054053 -0.132118 -0.207244 0.034756 -0.044570 0.041445 0.108597 -0.100371 0.109503 -0.027446 -0.175777 0.123525 0.088304 -0.103305 0.046629 0.057280 0.008441 0.004097 -0.067364 -0.033404 -0.236699 -0.298632 -0.258108 -0.012762 -0.059187 -0.154008 0.247044 0.051960 0.076925 0.011434 -0.015191 0.048993 -0.003612 -0.082774 -0.096537 0.097194 0.089656 0.019206 -0.082801 0.027494 -0.056610 -0.262288 -0.038196 -0.132701 -0.032427 0.012114 -0.179628 -0.085435 0.129179 -0.127720 -0.057585 0.085037 0.128190 -0.098895 -0.011639 -0.086216
sent_5 0.033648 0.078627 -0.183759 0.049455 -0.056783 -0.104198 0.065834 -0.023965 0.114424 -0.113829 -0.104074 0.087725 -0.003330 -0.000108 0.003947 -0.070823 0.216902 0.123581 -0.003803 -0.056108 0.016596 0.148491 -0.148263 0.048437 -0.225100 0.020449 -0.071782 -0.034817 -0.098489 -0.027176 -0.126139 0.014183 0.015619 -0.096917 -0.118603 0.145648 -0.048712 0.055338 -0.108031 -0.104369 -0.012085 0.142175 0.048432 0.007507 -0.180750 0.064430 0.056438 0.109931 0.043007 -0.040876 -0.060215 -0.034787 -0.237844 -0.035999 -0.091941 0.081374 -0.103879 -0.118892 -0.024530 -0.082030 0.058427 -0.002666 0.054921 0.098359 0.073533 -0.012287 0.087360 -0.005944 0.072779 0.085309 0.137248 -0.021764 -0.086984 0.078715 -0.074434 0.087327 0.040488 0.215512 -0.076523 -0.030918 -0.153748 -0.019833 0.181643 -0.040457 0.166377 0.220434 0.065371 -0.055320 0.001429 0.199518 0.132941 0.050769 0.014928 0.063338 -0.041044 0.143659 0.003575 0.206039 0.004844 -0.016392
sent_6 -0.109051 0.041216 0.084499 -0.165586 -0.042355 0.041194 0.062150 0.100258 0.090715 0.015715 -0.084190 -0.046459 -0.154996 0.010023 -0.069709 0.049271 -0.035933 0.042523 -0.057866 -0.018582 0.127071 0.077701 0.063068 -0.021666 0.008508 -0.059670 -0.122148 -0.003440 0.023867 -0.129050 -0.018603 0.131774 0.027383 -0.087028 0.084281 0.008663 -0.139505 -0.059292 -0.023709 -0.012700 0.012538 0.064411 0.047687 0.049646 -0.124085 -0.002097 0.001898 0.012878 0.052850 0.023459 0.051264 -0.009310 0.152047 -0.148489 -0.206927 0.072841 -0.045154 -0.062278 0.056751 0.067929 0.070415 0.025495 0.057200 0.000442 -0.073068 -0.150560 0.013518 -0.111025 -0.033590 0.069113 0.105500 -0.116135 -0.026261 0.036362 0.044014 0.045421 0.056349 0.003729 0.039806 0.083925 0.035347 -0.034234 -0.015687 0.079337 -0.048691 -0.107064 -0.079442 -0.070677 -0.114749 0.111837 -0.071447 0.065286 -0.047224 0.039970 0.028999 0.042783 -0.095112 -0.047524 -0.140691 -0.137341
sent_7 -0.043330 -0.023643 0.000095 -0.034992 -0.003567 0.138333 0.053827 -0.006555 0.016161 0.008684 -0.076495 -0.001012 0.023893 -0.047230 -0.043880 0.019953 0.064573 0.084185 0.005375 -0.042680 0.004785 -0.068886 0.007240 -0.026199 -0.009937 -0.065807 0.071835 -0.123440 -0.030394 0.031012 0.060579 0.019344 0.002200 0.036665 0.002757 -0.036371 0.038280 -0.084602 -0.064234 0.002162 0.051470 0.028353 -0.044360 0.007067 -0.071348 0.029368 -0.000061 0.053659 0.017348 -0.037681 0.006845 -0.007929 -0.025657 0.052355 -0.015558 0.008243 -0.040384 -0.071052 0.076204 0.025428 0.015519 0.001671 -0.058364 0.095649 0.010990 0.003812 -0.098653 -0.063475 0.008593 -0.038316 -0.006577 0.002873 -0.065291 0.002381 0.026694 -0.003937 0.006368 -0.032295 0.056409 0.008133 -0.041558 -0.056514 -0.004392 -0.021995 0.016762 -0.034629 0.050991 0.038234 0.069721 0.050756 0.045730 0.011242 -0.000651 -0.065150 0.017415 -0.072692 0.033308 -0.003313 -0.023355 0.052422
sent_8 0.112529 -0.091760 -0.078150 0.038221 -0.081901 -0.186465 0.009244 -0.180868 -0.009508 0.031341 0.049013 0.056264 -0.092357 0.142116 0.034368 -0.113265 -0.243514 -0.194006 0.017870 0.206304 -0.155935 -0.089248 0.019651 0.164973 -0.115565 -0.109968 0.103606 0.136817 -0.036763 0.017143 -0.142410 0.136329 0.060413 -0.180770 -0.126560 -0.045384 -0.001047 -0.029433 0.003778 0.114498 0.134186 -0.105045 -0.071532 -0.074750 0.020859 0.004767 -0.255891 -0.122705 0.039889 0.178882 -0.056702 -0.113273 -0.041093 0.017843 -0.096799 -0.121249 0.048146 -0.048069 0.112250 -0.113574 0.062070 -0.100742 0.073077 0.001196 -0.061858 -0.109146 0.027220 -0.026936 0.126884 0.132874 0.189379 -0.042854 0.156263 -0.095897 -0.032986 -0.139927 0.214682 0.130619 -0.003463 0.135604 0.097870 -0.090368 0.055641 0.315501 -0.233598 0.022822 0.159881 0.030695 -0.092454 0.048911 0.315306 0.071598 0.022081 0.121108 0.087245 0.008876 -0.255808 -0.020205 0.072774 0.093487
sent_9 0.041920 -0.007736 -0.067208 0.022454 0.010765 0.008009 -0.021177 0.013707 -0.036612 -0.023623 -0.001417 0.020864 0.018343 0.057210 -0.018149 0.033071 0.019910 0.040108 -0.016338 0.011360 0.014962 0.004906 -0.042975 0.028755 -0.008366 0.030724 -0.047789 0.054857 0.031384 0.035944 -0.018979 -0.007797 0.032551 -0.020066 -0.007873 -0.036422 0.028855 0.011675 0.028939 -0.014093 -0.046793 -0.030551 -0.042684 -0.030610 -0.024248 0.077180 0.018447 0.002684 0.022580 -0.023043 -0.011398 -0.013396 -0.016395 -0.046933 0.006056 -0.017086 0.033717 0.000090 -0.017207 0.001263 0.023463 0.005776 0.053395 0.062394 -0.053027 0.046029 -0.004907 -0.015615 0.054993 0.030284 0.002304 -0.023398 -0.021552 0.024529 -0.014587 -0.065792 0.038009 0.035454 -0.020849 0.029497 0.047916 0.008950 0.000225 0.047127 0.047134 0.052147 -0.019918 0.008126 0.003779 0.020903 0.039779 0.022563 0.000821 0.047910 0.030380 0.027553 -0.067665 -0.018543 -0.021098 -0.001274
sent_10 -0.121740 -0.073803 0.098928 -0.048721 -0.114900 0.011899 0.047462 -0.001243 -0.031819 -0.029084 -0.044413 -0.052188 -0.003841 -0.036098 0.002963 -0.178737 -0.065851 -0.076898 0.034141 0.013801 0.014485 -0.009404 -0.013955 -0.036655 0.096644 -0.070294 0.158179 -0.106938 0.123513 0.077661 0.062488 0.038642 -0.056169 0.101783 -0.036910 0.092578 -0.201286 -0.178393 -0.044817 0.197684 -0.048608 0.094839 0.052485 -0.037839 -0.077438 -0.158554 -0.071770 0.023986 -0.049897 0.021019 0.039743 -0.027918 0.047267 -0.003141 0.022344 0.001895 0.051331 0.027782 -0.112807 -0.008702 -0.051303 0.014823 -0.046832 -0.123234 -0.091976 0.001222 0.054036 0.150035 -0.024985 -0.094193 -0.031090 -0.056054 0.148942 0.082308 0.139869 0.123483 -0.173332 0.060629 0.176065 0.065597 0.018512 0.054784 0.070180 0.111241 0.084844 -0.089204 -0.126005 0.023025 -0.036038 0.113781 -0.097929 -0.143440 0.125657 0.036096 -0.007745 0.078074 -0.056810 0.037491 0.031607 -0.154966
sent_11 0.000297 0.047707 -0.102458 0.004039 0.029020 0.055504 0.038918 0.041993 -0.022973 -0.042330 -0.057025 0.068733 -0.038835 0.043877 -0.028628 0.047115 0.083459 0.037981 -0.030460 -0.023990 0.102277 -0.049525 -0.085421 -0.005331 -0.106490 -0.105267 -0.019426 0.030922 -0.059091 0.014964 0.030352 0.068234 0.088240 -0.050559 -0.027258 -0.012362 0.038187 0.006667 0.013460 -0.075003 0.127886 0.063201 0.036320 0.008045 -0.063563 0.029246 0.054698 0.018322 0.079576 -0.055928 0.031854 -0.069049 -0.057675 0.071563 -0.034285 0.019576 -0.061814 -0.036777 0.064520 0.046058 0.043158 -0.103075 0.077832 0.151711 0.045586 -0.106945 0.031982 -0.019917 0.085019 0.014617 0.022172 -0.021722 -0.097816 0.008030 0.093774 0.047825 0.064212 0.056924 0.069486 0.017271 -0.026643 -0.018867 -0.019581 0.062974 -0.060005 0.017933 -0.035549 0.055298 0.021330 0.120355 0.074517 0.076072 -0.008538 -0.036327 -0.029474 0.016726 -0.049294 0.004059 -0.012687 -0.020313
sent_12 -0.003166 -0.003542 0.126555 0.018031 0.061332 -0.098866 0.003093 0.016796 0.000013 0.135505 -0.104004 0.073311 -0.122436 -0.031414 0.025873 0.127784 0.002740 -0.011694 0.093614 -0.107002 0.171706 0.014489 0.032338 0.011237 0.018827 0.026553 -0.107860 0.127148 -0.038220 0.098269 -0.004346 0.058692 0.011160 -0.058973 -0.022642 -0.004771 -0.040819 0.006848 0.078797 -0.021553 -0.006782 0.084463 0.008574 0.037869 -0.010001 0.061445 0.033557 -0.003337 0.077684 0.084620 0.041100 0.097698 0.074280 -0.028732 0.029951 0.048532 0.050101 0.009687 -0.006193 0.025694 0.055470 -0.001846 -0.059004 0.087115 0.072455 -0.026847 0.084798 -0.045504 0.066248 0.098854 -0.000384 0.020811 -0.047696 -0.095810 -0.007748 -0.027319 0.037917 -0.028648 0.012274 0.088395 0.031851 -0.107527 -0.015121 -0.048818 -0.030709 0.089080 0.023619 -0.028610 0.057054 0.105058 -0.073927 0.174687 -0.074673 0.041254 -0.017152 0.051150 -0.061331 -0.027063 -0.127005 -0.001245
sent_13 0.061482 0.019458 -0.079330 0.029150 -0.022702 0.028410 0.008903 -0.034096 -0.012258 0.024849 -0.051333 0.013844 -0.011753 0.052365 -0.034310 0.012182 0.052818 0.009372 -0.056377 -0.029183 0.024102 0.022078 -0.039874 0.015304 -0.030525 0.018676 -0.018861 -0.018230 -0.012427 0.032611 -0.005203 0.012300 0.033186 -0.053386 -0.011678 -0.057758 0.014392 -0.001564 0.016167 -0.038190 -0.058430 0.031798 -0.047563 -0.032239 -0.031794 0.019669 0.017314 0.068992 -0.000474 -0.076300 -0.043205 0.008791 -0.008187 -0.026060 -0.037577 -0.016126 0.020056 -0.043928 0.034792 0.030926 0.012502 -0.004168 0.057126 0.076876 -0.038265 0.028521 -0.000533 -0.035764 0.030794 0.058049 0.006153 -0.039618 -0.004826 0.036986 -0.040607 -0.062628 0.010439 0.048595 0.000867 0.088622 -0.010808 -0.064841 0.068459 0.017234 0.015020 0.087112 -0.023786 -0.032762 0.000621 -0.011742 0.058778 0.007259 -0.016084 0.016591 -0.032193 0.049485 -0.016968 -0.053037 -0.014250 0.003694
sent_14 0.017540 -0.015326 0.023285 0.009910 0.064549 0.048747 0.031468 0.035378 -0.003104 0.015562 0.025984 0.004346 -0.038312 -0.050934 -0.017785 0.107839 0.020911 0.056187 0.045844 -0.010324 -0.043009 -0.033155 0.022898 0.018496 -0.051767 -0.002043 0.002233 -0.000424 -0.083310 -0.002578 -0.079346 0.023826 -0.001523 -0.069236 -0.131448 -0.019671 0.024814 0.016828 -0.042235 0.040970 0.003705 0.033941 0.081886 0.057223 -0.040963 0.022417 0.036089 0.002026 0.061045 0.059987 0.060393 -0.045626 -0.043476 0.021697 -0.014252 -0.012896 0.010544 -0.034106 0.076861 -0.013346 0.083620 0.018364 -0.046655 -0.022523 -0.027530 -0.061375 -0.017789 -0.017735 0.018043 -0.026078 -0.033557 0.001985 -0.052571 0.004362 -0.028256 -0.008513 0.020036 -0.040834 0.001324 0.012014 -0.074073 -0.032242 -0.019113 0.005984 0.010804 0.029656 -0.035069 0.013971 -0.026673 0.036775 0.003139 0.141513 -0.005961 -0.046850 -0.016610 0.005475 -0.054692 0.023857 -0.064493 -0.004259
sent_15 0.031095 -0.034871 -0.151696 -0.013075 -0.067134 0.039141 0.042732 -0.016485 0.088698 0.030509 -0.108604 0.165827 -0.054049 0.101347 -0.085112 0.019979 0.067019 0.102199 -0.159200 0.061100 0.113479 -0.133687 -0.082855 -0.071528 -0.187311 -0.173679 0.099589 -0.060541 0.012689 0.113651 0.018477 0.212952 0.042954 -0.074668 -0.207188 0.098451 -0.193723 0.034079 0.084112 -0.016693 -0.128301 0.079027 -0.052387 -0.089401 -0.008525 0.036156 -0.116829 -0.007161 0.081910 0.016740 0.050063 0.059057 0.036245 0.055790 -0.302227 -0.056298 0.079355 -0.082284 -0.022587 0.062058 0.199419 -0.212597 0.049103 0.096060 -0.118279 -0.153912 -0.007044 -0.159361 0.189408 0.107420 0.077314 -0.086580 -0.047708 0.038277 0.190122 -0.007729 -0.023443 0.167233 -0.002680 0.108243 -0.036937 -0.151297 0.079546 0.235999 0.033003 0.176399 -0.167525 0.036988 0.033768 0.190941 -0.006943 0.116779 0.035701 -0.001701 -0.097298 0.086561 -0.041292 0.006063 -0.080533 -0.106374
sent_16 -0.006572 0.008840 0.022896 -0.001582 -0.037759 0.001633 0.010622 0.009443 0.007137 -0.005636 0.022522 0.001694 -0.000867 0.007185 0.016112 -0.014687 -0.028911 -0.037236 0.011684 -0.007713 -0.002871 0.020970 0.028970 0.031990 0.009545 -0.008830 0.023205 0.000246 0.021324 0.010687 -0.017587 -0.011725 -0.004404 0.007439 0.014813 0.024832 -0.036029 -0.011524 -0.001122 0.021835 0.005911 -0.012130 0.024478 0.002525 0.015548 -0.009372 0.014613 -0.013916 -0.028659 -0.000644 -0.009524 0.001400 -0.046197 -0.023471 0.019788 0.025492 0.005804 0.014768 0.000216 -0.011599 0.019598 0.027432 0.004771 -0.024206 -0.004893 0.024617 0.022530 0.009995 -0.020940 0.013919 0.002316 0.011081 0.021225 0.011205 -0.002599 0.011438 0.009404 0.020389 0.013198 -0.002643 0.005381 0.002758 0.030110 0.007402 0.023065 0.001380 0.010235 0.004863 0.009701 -0.003291 0.015269 0.000108 0.005698 0.002530 0.027193 -0.014698 -0.010384 0.000382 0.003915 -0.008995
sent_17 0.092249 -0.019092 -0.191049 0.066188 -0.008338 0.076486 0.042214 -0.054285 -0.020473 0.006147 -0.029673 0.078727 -0.107118 0.055198 -0.042323 0.046283 0.063235 -0.040521 0.005562 -0.134037 0.081263 0.031720 -0.041076 0.085552 -0.158992 0.034350 0.013560 0.031029 0.012476 -0.000200 0.040544 -0.013315 0.183208 -0.079860 0.057562 0.051849 0.068063 0.026714 0.116965 -0.126312 0.068361 0.063904 -0.085530 -0.068362 -0.022861 0.062700 0.092982 -0.012982 0.122299 -0.017334 -0.002549 0.015087 -0.051483 -0.033690 -0.002372 0.080575 0.017249 -0.038762 0.040805 0.077440 0.036977 -0.062528 0.034265 0.264093 -0.025311 -0.069990 0.074671 -0.098777 0.088621 0.124531 0.080144 -0.105170 -0.025951 0.069450 -0.141302 -0.148900 0.052474 -0.010744 -0.038255 0.150964 0.031884 -0.012347 0.056868 -0.077195 -0.158680 0.089901 -0.002716 -0.121699 -0.024922 0.019526 0.125437 0.111215 -0.009325 0.025582 0.069449 0.149221 -0.071023 -0.108166 -0.089854 0.021361
sent_18 0.068200 0.031432 -0.101958 0.052422 0.027165 0.027577 0.104974 -0.074606 0.067561 0.065787 0.000472 0.040637 -0.098316 0.014551 -0.068974 -0.035591 0.055235 -0.049840 0.064959 -0.107710 -0.010195 0.035492 0.024912 -0.002562 -0.189351 -0.048401 -0.026438 0.040090 0.010291 -0.009039 0.002627 0.034461 0.181107 -0.103486 0.043227 0.096379 0.096946 0.016732 0.031979 -0.138925 0.144726 0.066264 -0.073534 -0.013660 0.018032 0.022444 0.049969 -0.083365 0.186984 -0.008811 0.012935 -0.012642 -0.079063 -0.061783 0.019328 0.140371 0.044279 -0.073652 0.021887 0.012864 0.041614 -0.026300 0.050303 0.172434 0.013599 -0.036392 0.069485 -0.102123 0.069875 0.116414 0.113038 -0.048772 0.008997 0.016567 -0.081837 -0.105745 0.087004 -0.067903 0.004522 0.102959 0.060683 -0.059369 0.057560 0.019979 -0.233039 0.023903 0.007110 -0.083347 -0.102944 0.010085 0.143520 0.096101 0.023130 -0.014975 0.130911 0.114609 -0.112788 -0.097366 -0.091635 0.074336
sent_19 0.113902 -0.160444 -0.104428 0.025653 -0.033653 -0.048021 0.098799 0.022351 0.159589 -0.136541 -0.077190 0.014889 -0.081785 0.333618 0.136883 0.023405 -0.023890 0.087828 -0.146682 -0.015931 0.231815 0.011099 -0.127994 0.282733 -0.085124 0.055185 -0.137705 0.134468 -0.023797 0.081082 -0.048115 0.072338 0.144426 -0.090057 -0.027880 -0.030541 -0.089567 -0.052789 0.128863 -0.085148 0.041105 -0.026956 -0.146410 -0.172676 -0.072366 0.166513 0.086326 0.043497 0.025627 0.009583 -0.071869 -0.066525 0.056646 -0.067044 -0.237785 -0.158617 -0.009118 -0.132419 0.010376 -0.068945 0.064031 -0.108009 0.168644 0.220086 -0.161704 -0.112857 0.137246 -0.092291 0.159266 0.257754 0.145897 -0.076822 0.107458 -0.073225 -0.129113 -0.330335 0.214834 0.199267 -0.053806 0.288651 0.074945 -0.152056 0.096596 0.150572 -0.057860 0.107304 -0.017933 -0.152964 0.067542 -0.133046 0.112135 0.124729 -0.056196 0.171607 -0.101474 0.125923 -0.157690 -0.021081 -0.091245 0.033471
sent_20 -0.048027 0.017091 -0.038699 -0.013035 -0.081577 0.084175 -0.043461 0.068719 0.037315 -0.090393 0.037360 -0.106825 0.074481 0.150797 -0.016870 -0.032760 0.019260 0.096612 -0.048570 0.061522 -0.000822 -0.089150 -0.062514 0.108552 0.006025 0.022090 0.091991 -0.043491 0.047573 0.067055 0.157698 -0.015928 -0.023998 0.030845 -0.005885 -0.095650 -0.046564 0.080814 0.112441 -0.024621 -0.222371 -0.127719 -0.293576 -0.192932 -0.003487 0.026467 0.020445 -0.019833 -0.020490 -0.039100 -0.011468 0.048911 0.096496 -0.018035 -0.198904 -0.257425 0.035177 -0.079404 0.015661 0.011968 -0.029147 -0.074030 -0.016001 0.000735 -0.205799 -0.135945 -0.207964 -0.127045 0.027091 -0.092753 -0.023546 -0.058544 0.008134 0.057845 -0.160995 0.002097 -0.006251 -0.035780 -0.153663 0.012960 0.024812 0.020873 0.105726 0.095136 0.051695 -0.093788 -0.125458 0.074543 0.087171 -0.133137 -0.008216 -0.108063 0.001024 0.031238 0.024082 0.090339 0.093719 -0.052587 0.066738 -0.148121
sent_21 -0.018278 0.001629 0.019920 0.001881 0.011710 -0.015749 0.009652 0.009496 -0.000094 -0.006129 0.005467 0.006038 -0.001455 -0.037756 0.005943 0.016062 0.004298 -0.000171 0.018653 0.001347 -0.004962 -0.002862 0.015399 -0.004215 0.000606 0.007589 0.004787 0.010095 0.006200 0.002451 -0.005870 0.011047 -0.019794 0.005206 -0.008148 0.011408 -0.014719 0.006223 -0.006423 0.004949 -0.012375 0.002048 0.020985 0.015023 -0.001376 0.010334 -0.011453 -0.008557 0.006162 0.021889 0.012437 0.012591 0.012521 -0.004156 0.003651 -0.010236 -0.000300 0.000011 0.000272 0.002697 -0.005312 0.005817 -0.033622 -0.012180 0.006569 -0.003059 -0.005854 -0.001783 0.003945 -0.001868 -0.001547 0.009120 -0.007013 -0.017596 0.010959 0.015622 -0.010982 -0.008848 -0.010226 -0.007390 -0.014425 -0.004403 -0.018959 0.002944 0.014966 -0.003839 0.007209 0.003669 -0.007768 0.015952 -0.024679 0.009577 -0.005892 0.009982 -0.011055 -0.008259 -0.000462 0.007942 -0.019990 -0.001071
sent_22 0.144907 0.017884 -0.124248 0.056141 -0.021949 0.085211 0.062680 -0.106955 -0.050410 -0.066644 0.029334 0.042581 0.028437 0.096876 -0.208715 -0.095838 0.157883 -0.107469 -0.086897 0.018100 -0.115167 -0.054058 0.129478 0.068452 0.077360 0.039551 -0.086921 0.148039 0.007623 0.084205 -0.007608 -0.229075 0.005350 0.079517 0.203871 -0.141769 0.065539 0.036737 -0.160268 -0.022909 0.021737 -0.081795 -0.018577 -0.153723 -0.001851 0.142128 -0.052968 0.010938 0.070735 -0.140636 0.020284 -0.134840 -0.170858 -0.113226 0.091730 -0.069690 0.126158 -0.057077 0.062123 -0.074994 -0.088652 0.029214 0.066445 0.179541 -0.104699 0.051944 -0.172776 -0.100979 0.078211 0.039057 0.034786 0.127229 0.133192 -0.060266 0.004393 -0.070493 0.106150 -0.039302 -0.062235 -0.143517 0.029976 -0.009228 0.054913 0.056971 0.045882 -0.033947 0.099268 -0.070497 0.086804 -0.050759 0.106864 0.003139 0.066111 0.042754 0.088760 -0.085860 -0.051396 -0.146862 0.070331 0.216482
sent_23 0.029253 -0.090863 -0.030552 0.027470 0.075008 0.154846 0.096214 -0.094287 0.103841 -0.022055 -0.106211 0.032540 0.219114 0.024020 -0.056821 -0.113146 0.089389 0.017363 -0.161623 0.091772 -0.177111 -0.166915 -0.144058 0.121980 -0.035359 -0.066468 0.020657 -0.117843 0.001219 0.056953 0.000468 -0.006812 -0.044514 -0.029464 0.072032 -0.124899 0.128422 -0.172593 -0.033637 -0.082426 0.140680 -0.031945 -0.173128 -0.049715 -0.010717 -0.036558 -0.072809 0.028940 0.009382 -0.163124 -0.029912 -0.127114 -0.070846 0.136963 -0.053783 0.023903 -0.107894 -0.092691 0.086767 0.083807 -0.091367 -0.136004 0.154068 0.117943 -0.064142 -0.056784 -0.231965 -0.173857 0.034048 0.022254 0.059735 -0.000348 0.002843 0.022358 0.137436 -0.002173 0.019218 0.071452 0.123988 0.016949 -0.088087 -0.101244 0.087340 -0.037691 -0.042993 -0.189509 0.066430 0.052110 0.034759 -0.059870 0.095260 -0.132104 -0.065032 -0.106576 -0.075826 -0.122114 0.050694 0.057194 0.150461 0.084329
sent_24 -0.020267 -0.049590 -0.024613 0.081629 0.017618 -0.054627 0.016881 -0.054593 -0.053052 -0.069173 -0.126723 0.080793 0.001891 -0.029116 0.034703 0.028447 0.004472 -0.027183 0.056140 0.057090 -0.045898 0.030609 -0.027524 0.090977 0.001584 0.054643 0.008218 0.097793 -0.010118 0.065190 0.031756 -0.005719 0.006499 -0.030002 0.011330 0.000758 0.050925 0.077980 0.071778 -0.009076 -0.038210 -0.099809 0.015365 -0.032878 0.040599 0.103839 -0.029177 0.070080 0.025721 -0.039230 -0.077389 0.014346 -0.061895 0.010025 0.053004 -0.038922 0.065012 0.001038 0.048709 -0.012551 0.006535 0.048673 0.025907 0.095612 0.054996 0.025808 0.022269 -0.056972 0.087107 0.045402 -0.013473 -0.080309 -0.053893 0.006513 0.023843 -0.027967 0.112600 -0.013900 -0.003740 -0.020297 -0.049929 0.024679 -0.051797 0.032967 0.029208 0.041532 -0.018070 0.015878 -0.073310 0.013609 0.125789 0.023297 -0.024049 0.101533 -0.050142 0.007256 -0.011052 -0.033438 -0.026925 -0.038538
sent_25 0.084855 -0.104682 0.114558 0.144088 0.090011 0.025324 -0.030408 -0.093591 0.039495 0.133180 0.003335 0.056570 -0.034815 -0.014809 -0.095903 0.086805 -0.052915 -0.043536 0.024814 0.012378 -0.063609 -0.081505 0.116092 0.043331 -0.048468 -0.046138 -0.023700 0.026172 -0.140939 -0.064351 -0.073321 -0.041013 -0.037820 -0.077305 -0.081595 -0.065415 0.058419 0.030281 -0.020885 0.011156 0.082431 0.032799 0.043179 0.042277 -0.047562 0.064158 -0.032066 -0.005110 -0.009391 0.093490 0.054952 0.030105 0.016180 0.040762 0.020746 0.008287 0.007454 0.109092 0.185107 -0.000774 0.127107 -0.054105 -0.107668 0.062707 -0.003259 0.002643 -0.018889 -0.139201 0.055041 0.038624 0.011545 -0.055156 -0.104318 -0.000701 -0.039744 0.059303 0.019134 0.039590 0.006644 0.009062 0.010355 -0.017414 -0.041563 -0.127562 -0.165153 0.056199 0.016182 0.028513 0.019004 0.139846 -0.001013 0.199677 -0.058942 -0.127897 0.061572 -0.060063 -0.110324 -0.128677 -0.083013 0.010766
sent_26 -0.211086 -0.041531 0.225389 -0.023220 -0.021456 -0.017704 -0.044644 0.059954 0.034214 -0.024551 -0.040581 -0.068249 0.078561 0.082253 0.055284 0.238544 -0.108991 -0.029330 -0.082204 0.229747 -0.056399 -0.019520 0.052568 0.134694 0.064399 0.146332 -0.005986 0.065856 0.072530 -0.019712 0.020472 0.078822 -0.142203 -0.061036 0.011507 -0.024504 -0.124798 0.021178 0.189943 -0.090351 -0.173237 -0.149597 -0.091710 -0.104012 0.000620 0.080938 -0.128768 0.046708 -0.090756 0.125566 0.082069 0.049605 0.421750 -0.098868 -0.120296 -0.216524 -0.036563 -0.123123 0.147692 -0.033281 -0.075441 -0.089191 -0.104592 -0.104365 -0.190872 -0.062146 -0.216234 -0.043222 0.031303 -0.177341 0.001897 -0.104127 -0.010173 -0.073698 -0.005754 0.111234 0.087319 0.093287 -0.026067 -0.031436 -0.037646 0.047929 -0.153921 0.124144 -0.049500 -0.145794 -0.094581 0.169837 0.002895 0.042529 -0.207357 -0.028149 -0.094545 0.124456 -0.071598 -0.151567 -0.038883 -0.089671 -0.100480 -0.243130
sent_27 -0.055482 -0.044661 0.170125 0.081863 0.181497 0.074743 0.038151 0.057269 -0.115139 0.158329 -0.098370 0.081782 -0.405721 -0.022329 -0.169008 0.333248 -0.037666 0.077538 0.135226 -0.126012 0.187392 -0.041751 0.098214 -0.170678 0.112034 0.003761 -0.232360 0.142115 -0.145769 -0.069789 0.007601 0.173970 0.008466 -0.116341 -0.230210 0.012283 -0.029955 -0.095454 0.117953 0.011840 -0.111419 0.209402 0.057456 -0.063508 -0.033351 0.058857 -0.031355 0.168702 0.123895 0.338703 0.076300 -0.022111 0.206344 -0.118289 -0.055094 0.002669 0.274224 0.029516 0.082984 -0.046311 0.215201 -0.054822 -0.252160 -0.030406 0.038596 -0.045460 -0.029819 -0.193697 0.074419 0.020662 -0.088324 -0.149875 -0.136292 0.103018 0.194921 -0.057082 0.100050 -0.239845 0.046580 0.052029 -0.047627 -0.148748 -0.167588 0.168624 -0.086127 0.118979 -0.140048 -0.050449 -0.019957 0.335097 -0.074031 0.373603 0.051909 0.027390 -0.041414 -0.008991 -0.213373 -0.107594 -0.390058 -0.123063
sent_28 0.018594 0.017261 -0.050689 0.017691 0.111347 -0.007658 0.051036 0.094588 0.088523 0.042538 -0.023877 0.070162 -0.007392 -0.021214 -0.008007 0.026698 0.029683 0.144589 0.049689 -0.036189 0.038414 -0.016583 -0.041776 0.004885 -0.107801 -0.045268 -0.134861 0.051244 -0.019406 0.039673 0.018001 0.031900 0.102601 0.005428 -0.004142 0.008558 0.018059 -0.012166 0.020134 -0.050017 0.017126 0.043956 -0.065231 -0.001159 -0.007620 0.017736 0.125523 -0.054336 0.100879 0.055414 0.111033 0.037845 -0.034947 -0.032765 0.048361 0.088380 0.036619 -0.028648 -0.068305 -0.000360 0.141919 -0.064930 -0.019162 0.097821 0.011047 -0.102303 -0.019795 -0.055614 0.053308 0.052526 -0.012680 0.022303 -0.117085 0.013378 0.009599 -0.029427 0.015556 -0.003149 -0.097435 -0.007684 0.081313 0.005405 -0.015796 -0.057048 0.032246 0.085858 -0.098289 0.074606 0.020661 0.079681 -0.037944 0.193684 0.011000 -0.019126 0.081120 0.167721 -0.075672 0.034929 -0.026393 0.031376
sent_29 -0.004071 -0.013976 0.000216 0.003095 -0.037066 0.057182 -0.034884 0.047225 -0.014226 -0.004086 -0.017477 -0.026028 0.013595 0.018483 0.033783 0.071722 -0.027851 -0.013965 -0.000837 0.033002 0.027750 -0.036045 -0.010385 0.066555 -0.021808 -0.069329 0.086956 -0.026220 0.012188 0.011361 0.084086 0.031546 0.033013 -0.025537 -0.032868 -0.008287 0.055789 0.029867 0.110766 -0.012758 0.016771 -0.027556 -0.043761 -0.068090 0.022225 -0.003410 0.009186 0.023594 0.055027 -0.026481 0.016189 -0.005340 -0.012600 0.083372 -0.044799 -0.082125 0.010641 -0.064247 0.061556 -0.000942 0.014427 -0.019948 -0.000064 0.073773 -0.076362 -0.109204 0.009063 -0.048590 0.055099 -0.062490 0.007794 -0.069153 -0.051108 -0.003118 -0.030263 -0.016194 0.002441 -0.032305 0.022074 0.013426 -0.025159 0.043572 -0.020903 0.063008 -0.084814 -0.042363 -0.013317 0.034560 0.027723 -0.023249 0.057907 -0.007326 -0.022641 -0.050670 -0.028174 -0.007437 -0.028031 -0.053420 -0.031958 -0.102572
sent_30 0.001881 0.004231 0.017265 -0.001731 -0.024623 -0.008196 0.007574 0.007495 0.014620 0.001952 0.018248 -0.001951 -0.004644 0.019562 0.013514 -0.004303 -0.031616 -0.030582 0.008520 -0.010430 0.001714 0.023170 0.029535 0.021253 0.011420 -0.018077 0.022474 0.000019 0.024397 0.015238 -0.007257 -0.004621 0.006548 0.009035 0.017544 0.021133 -0.029349 -0.018695 0.001148 0.015750 0.002855 -0.001995 0.019009 -0.005952 0.013437 -0.019319 0.013479 -0.017258 -0.016727 -0.005738 -0.005361 0.004304 -0.035544 -0.021844 0.016563 0.023140 0.012082 0.015430 -0.010583 -0.010655 0.019774 0.026043 0.007589 -0.016553 -0.002831 0.024278 0.028253 0.012091 -0.017924 0.012747 -0.002059 0.004506 0.024686 0.019210 -0.003464 0.012348 0.008468 0.015454 0.008842 -0.003282 0.018429 0.004469 0.027221 0.019071 0.029692 0.004160 0.008778 0.009283 0.003355 -0.002506 0.008802 -0.009090 0.012185 0.008298 0.029305 -0.011313 -0.019420 -0.006763 0.003362 -0.016786
sent_31 0.071049 -0.019161 -0.183088 0.037564 -0.003076 0.084896 0.049299 -0.036774 -0.011179 -0.003259 -0.004055 0.074508 -0.126001 0.050670 -0.038941 0.053152 0.069301 -0.051914 0.036710 -0.142227 0.083310 0.035946 -0.021282 0.074330 -0.181776 0.029392 0.039691 0.026543 0.024853 -0.016054 0.067632 -0.016090 0.182010 -0.066664 0.065888 0.080986 0.075371 0.027367 0.117069 -0.136681 0.079204 0.044604 -0.083515 -0.058942 -0.031015 0.066575 0.109970 -0.045598 0.142595 -0.008146 0.020497 0.009711 -0.046093 -0.028806 0.011596 0.075852 0.007171 -0.028902 0.031955 0.085250 0.032743 -0.064561 0.031402 0.261237 -0.006985 -0.079449 0.080791 -0.095545 0.094596 0.105975 0.089688 -0.106933 -0.025006 0.068456 -0.169712 -0.139922 0.037918 -0.042614 -0.030122 0.135227 0.033632 -0.004520 0.031360 -0.064944 -0.174295 0.058080 0.001770 -0.110051 -0.036314 0.016311 0.112669 0.110511 -0.000986 0.021169 0.078743 0.138004 -0.073729 -0.113115 -0.098753 0.020105
sent_32 0.030848 0.008359 -0.009445 0.010247 -0.029356 0.028128 0.021248 0.015832 0.028614 0.017341 -0.021086 0.008130 0.003870 0.011686 -0.015739 -0.005289 0.035944 0.001662 -0.037193 -0.043426 0.006098 -0.004315 -0.019898 -0.017961 -0.017284 0.006048 -0.038718 -0.024503 -0.018479 -0.003702 0.006394 -0.014855 0.018669 -0.009906 -0.012750 -0.002113 0.001775 -0.022469 -0.028877 -0.028073 0.008994 0.067817 -0.024648 -0.002287 -0.016984 -0.004395 0.032228 0.022861 0.004603 -0.012278 -0.007431 0.006934 -0.009719 -0.018320 -0.023456 0.031784 0.034969 -0.036587 0.032534 -0.004385 0.016684 -0.005101 -0.001053 0.048982 -0.043585 -0.000741 0.014293 -0.020216 0.001621 0.019215 -0.001355 0.003064 -0.003866 0.000109 -0.002784 -0.007280 -0.007036 0.031584 0.019582 0.053642 -0.024511 -0.022993 0.057950 0.000272 -0.021768 0.051280 -0.010654 -0.025847 0.022181 -0.001723 0.035268 0.024327 0.021082 -0.025995 -0.002225 0.036453 -0.033005 -0.021370 -0.007674 0.020296
sent_33 -0.139432 0.037729 0.077260 -0.012949 -0.075630 -0.085693 0.023107 -0.050520 -0.017962 -0.081269 -0.032615 -0.043798 0.121106 -0.111305 0.022819 0.067275 -0.092698 -0.035135 0.042489 0.085788 -0.087156 0.003955 0.118713 0.075891 0.112259 0.055531 0.111329 -0.091995 0.070631 0.051961 -0.042700 0.068772 -0.031944 0.049150 0.110392 -0.054490 -0.069778 0.051276 -0.067045 0.031826 -0.145346 -0.125050 0.001412 0.073413 -0.045767 -0.010429 -0.159948 0.098106 -0.104534 0.024203 -0.068976 0.106695 0.154639 -0.010117 -0.063969 -0.175321 -0.066362 -0.094387 0.142622 0.020344 -0.050835 0.080936 -0.070337 -0.148162 -0.023562 0.040892 -0.128308 -0.077237 -0.035421 -0.046466 -0.025722 -0.037251 0.022524 -0.035634 -0.063417 0.087679 0.008621 0.091191 -0.001500 -0.029808 -0.114884 -0.034971 0.035561 -0.039517 0.105960 -0.074815 0.057263 -0.006263 -0.028241 -0.038357 -0.044589 -0.155429 -0.078045 0.138008 -0.051932 -0.112609 0.063180 -0.024304 -0.065816 -0.115257
sent_34 0.066777 -0.103040 -0.058427 -0.093218 -0.047504 0.022046 0.051545 -0.056226 0.036963 -0.031777 0.095020 0.028430 -0.080174 0.107562 -0.092338 0.051576 -0.129310 -0.030724 -0.205197 -0.030887 0.039242 -0.002215 0.100498 0.015099 0.108267 0.009678 -0.023794 -0.048040 0.041728 -0.075094 0.018270 0.046800 0.046711 0.053562 0.090265 -0.006061 -0.126152 -0.165307 -0.066652 0.028229 -0.033042 0.054447 -0.083153 -0.033836 -0.045057 -0.028320 0.003590 -0.007652 -0.092096 0.098775 0.075045 -0.050352 0.076270 -0.007339 -0.165694 0.051707 0.073282 0.019011 0.004476 0.052783 0.019268 -0.150157 -0.019898 -0.066064 -0.084416 -0.065229 -0.036944 -0.085883 0.031102 0.154302 0.045351 0.029471 0.190492 -0.093629 0.030787 -0.026254 -0.051241 0.062684 -0.005226 0.133264 0.077238 -0.132481 -0.003369 0.053678 -0.046225 -0.057334 0.020440 -0.151468 0.006617 -0.080681 0.007618 0.048054 0.014141 -0.008170 -0.017012 -0.025348 -0.003406 0.034332 -0.022283 0.061366
sent_35 -0.026959 0.009597 -0.013047 -0.038677 0.072038 0.048286 0.148669 0.047162 0.102511 -0.041723 -0.007981 0.055200 0.017576 -0.017162 0.016439 0.112040 -0.002252 0.109229 -0.081631 -0.014344 0.021194 -0.022381 0.013778 0.026203 -0.015333 0.000091 0.007390 0.005680 0.080320 0.074710 0.000187 0.131737 0.034516 0.025750 -0.010624 0.062829 -0.061469 -0.074419 -0.093949 -0.021712 -0.005925 -0.000239 0.017447 -0.021717 -0.040888 0.072220 0.055626 0.051679 0.035000 -0.006353 0.128089 -0.092585 0.067983 -0.051536 -0.086740 -0.012613 0.005200 -0.096990 0.030295 -0.003898 0.031418 -0.024117 -0.048715 -0.028281 -0.068484 -0.106244 -0.067853 -0.060563 0.035561 0.004150 -0.015535 -0.007069 -0.025402 -0.076177 0.091582 0.048968 0.048709 0.035860 0.003818 0.028338 0.043508 -0.056197 -0.075158 0.113094 0.150717 -0.039856 -0.112812 0.071139 0.005719 0.094076 -0.013511 0.135518 0.002757 0.022680 -0.065134 0.009400 -0.044678 0.100384 -0.088697 -0.010279
sent_36 -0.043246 0.036739 -0.020932 0.007235 -0.000487 0.036335 0.038740 0.015482 0.011749 0.002889 0.011498 -0.046056 0.028036 -0.047730 -0.014311 0.043178 0.021107 0.061239 -0.037847 0.000243 -0.003686 0.034450 -0.017455 0.013172 0.003359 0.003362 0.036311 -0.059153 -0.040948 -0.003515 -0.038738 -0.006247 -0.027829 0.039060 -0.013177 -0.007159 -0.003683 -0.023390 -0.040213 -0.013456 0.016561 -0.022228 0.021482 0.052531 -0.034738 0.005253 0.031801 0.058348 -0.030355 -0.023570 -0.013707 0.010815 0.031078 -0.016396 -0.075062 0.039669 -0.016867 -0.053925 0.024871 -0.009649 0.017513 0.031876 -0.050994 -0.046849 -0.038444 -0.024841 -0.038886 0.021523 -0.050577 0.004267 -0.049511 0.009038 0.009250 0.001470 0.006372 0.010554 0.032915 0.020161 -0.031250 0.007834 -0.077481 -0.027897 0.011140 -0.055561 0.054996 -0.024275 -0.004384 -0.016155 -0.021245 -0.030577 -0.019693 -0.001523 -0.006631 0.022767 -0.048898 -0.000757 0.025927 0.037727 0.002629 0.012083
sent_37 0.047398 0.043744 0.085663 0.004226 -0.028919 0.054446 0.067718 0.120659 0.095988 -0.005001 0.007318 -0.011316 -0.109239 0.131193 0.014440 0.128882 -0.026859 0.042119 0.025506 0.009699 0.084852 -0.055747 0.071879 0.166561 -0.040774 -0.131240 0.063010 0.081099 -0.091354 0.149989 0.024018 0.036242 -0.025921 -0.134401 -0.006148 0.021413 0.056570 0.129408 0.025213 -0.035602 0.212455 -0.004383 0.017768 -0.100478 -0.052956 0.097336 0.108294 -0.042956 0.099086 -0.185756 0.089908 -0.096001 -0.145479 0.018984 -0.120861 -0.072572 0.030532 -0.085776 0.093106 -0.050029 0.083734 -0.018041 0.075977 0.085952 -0.147761 -0.260799 -0.004390 -0.105456 0.117912 -0.040702 0.042612 -0.055624 -0.041200 -0.066700 0.033341 0.072502 0.120954 -0.043181 0.019582 0.016244 -0.038374 0.011164 -0.024094 0.110061 -0.069800 -0.063619 -0.123528 -0.039744 0.028240 -0.055988 0.114655 0.110725 -0.053707 -0.095147 0.014316 0.058364 -0.092735 0.006672 -0.062106 -0.070440
sent_38 0.020969 0.073245 0.005350 0.048612 0.034638 0.057488 -0.037057 0.066935 -0.036111 0.058720 0.017033 -0.050092 -0.033949 0.023480 -0.042938 0.033359 0.016292 0.075942 -0.012390 -0.035307 0.003972 0.011775 -0.019692 -0.075812 0.007165 -0.025995 -0.078553 0.006489 -0.044224 -0.029494 0.015345 0.002312 -0.062458 0.000805 0.022844 -0.076902 0.085783 -0.022441 0.045919 -0.080771 0.062275 0.058415 -0.030482 -0.045004 -0.033880 0.051441 0.051001 0.000326 -0.036108 -0.052864 -0.034710 -0.026000 -0.030541 0.024621 0.049213 -0.010494 0.034480 0.003788 0.042132 -0.026891 -0.010797 -0.005300 -0.032932 0.025290 0.007478 0.031997 -0.052531 -0.004236 -0.027047 -0.010281 -0.055306 -0.022901 -0.076994 0.017703 0.074789 0.074039 0.020748 -0.064813 -0.056041 0.022644 -0.021865 -0.027636 -0.056982 -0.005664 -0.023812 -0.017237 -0.012807 0.026617 0.087420 -0.031039 0.027566 0.016117 -0.023978 -0.029105 0.050715 -0.016855 0.036432 0.014987 0.001968 0.030569
sent_39 0.005641 0.000888 -0.003458 0.000355 -0.002836 0.009759 -0.002067 0.003078 0.004232 -0.000856 0.004668 0.000031 0.002555 -0.002609 0.000470 -0.003286 -0.006370 -0.000576 -0.003846 0.003203 -0.001144 -0.004996 -0.000771 0.001407 -0.002494 -0.008934 0.003346 -0.005691 0.007075 0.002065 0.000855 -0.000723 -0.002001 0.000279 0.000612 -0.001751 0.000893 -0.002375 -0.000774 -0.000898 -0.002026 0.001074 -0.001701 -0.000867 0.004607 -0.005725 -0.006618 0.005184 0.000271 0.002648 0.002910 0.001434 -0.005546 0.000872 -0.007503 0.000926 -0.003657 -0.005900 -0.002956 0.008472 0.005904 0.003051 -0.005781 0.001765 -0.009345 -0.004712 -0.006990 -0.006059 0.001684 0.002919 -0.000657 0.003849 0.000314 -0.004398 -0.000987 -0.002072 -0.005665 0.001632 0.006410 0.002100 -0.001562 0.003720 -0.000699 -0.000390 -0.002797 -0.005044 0.005160 -0.003314 0.000107 -0.004845 -0.005165 0.003436 -0.001407 -0.001366 0.000768 0.000831 0.000693 -0.002457 0.001406 0.000325
sent_40 -0.034857 0.058789 0.000078 -0.045642 -0.047991 0.015518 -0.016109 0.042290 -0.008604 0.003491 0.006852 -0.030505 0.029184 -0.002892 -0.030615 -0.063134 0.016910 -0.039033 -0.058045 0.003743 0.029518 0.002375 -0.003533 -0.038811 0.000359 -0.043058 0.064379 -0.044750 0.020129 0.021950 0.080010 -0.017484 0.013215 0.020010 0.041026 0.012450 -0.042462 -0.042526 -0.083553 0.066581 0.016354 0.005903 0.010419 0.017621 -0.013746 -0.091850 -0.040444 0.007718 0.021035 -0.039963 -0.026531 -0.062864 0.022546 0.020891 -0.008606 -0.028344 -0.008634 -0.020810 -0.010858 0.014216 0.001918 0.013186 0.026909 0.006894 -0.039027 -0.000484 0.021284 0.086682 -0.019917 -0.040028 0.001158 0.006807 0.010942 0.036626 0.021572 0.064594 -0.041638 0.064334 0.073559 0.014423 -0.001064 0.024963 0.055013 0.040483 0.013027 -0.021846 0.012523 0.045508 0.020196 0.028081 0.012186 -0.059763 0.042745 0.048137 0.045594 0.009433 -0.001302 0.036422 0.035649 -0.059316
sent_41 -0.051397 0.050806 -0.033103 -0.001712 0.009904 -0.005943 0.001780 -0.014256 -0.039829 0.006783 0.049153 -0.044843 0.060285 -0.086859 0.027054 -0.069427 -0.024601 0.012907 -0.025516 0.005990 0.047240 -0.005547 -0.105733 -0.020548 0.100951 -0.010312 0.073857 -0.005116 0.099872 0.060446 0.017870 0.018436 0.004932 0.041197 0.008504 -0.022802 0.021070 0.048187 -0.024571 0.098513 -0.012370 -0.016088 -0.024338 0.020887 0.012507 0.002334 -0.066351 0.033922 0.004308 -0.008964 -0.136736 -0.028487 -0.000911 0.010243 -0.001752 -0.060520 0.027890 -0.036889 -0.005020 0.062542 0.017454 0.014540 -0.024079 0.028204 -0.036773 -0.016622 -0.011441 0.067626 -0.001439 0.015678 0.027096 -0.019925 -0.021360 -0.018019 -0.045228 -0.014405 0.003499 0.042231 0.036102 0.062818 0.035970 -0.014003 0.006610 0.007098 0.075225 -0.023098 0.020327 0.000672 -0.001804 0.017886 -0.040167 -0.039498 0.026934 0.037805 -0.045680 0.047383 0.105027 0.090533 0.003514 -0.068881
sent_42 -0.018863 -0.086675 0.137423 0.002417 0.010866 -0.161238 -0.062075 -0.112014 -0.106564 0.065380 -0.190432 0.061068 -0.116885 -0.019077 0.064961 0.205996 -0.246924 -0.164930 0.090240 -0.006313 0.068053 0.067801 0.000678 0.084380 0.150895 -0.005949 -0.225435 0.140336 0.175710 0.013649 -0.055753 0.164418 0.211011 -0.074436 0.091799 0.149163 0.006740 -0.009196 0.100833 0.035811 -0.078004 0.186894 -0.092653 -0.066829 -0.012810 0.046121 -0.188093 0.021554 0.013301 0.241034 0.081492 0.142555 -0.013548 -0.021645 -0.128479 0.023720 0.129979 0.115242 0.032135 0.092138 0.061144 -0.049586 0.076545 0.039703 0.176403 -0.131782 0.040584 -0.369394 0.005136 0.095233 0.134674 -0.248507 -0.050932 0.020176 0.108731 0.014779 -0.062199 0.080315 0.079452 -0.022598 0.116769 -0.010326 0.038012 0.061038 -0.091568 0.075771 -0.066409 -0.096998 -0.055788 0.287182 0.172325 0.024853 -0.071243 -0.061871 -0.087119 0.052286 -0.136974 0.199018 -0.277111 -0.116099
sent_43 0.030069 0.024588 -0.061367 -0.095229 -0.080911 0.024180 0.028780 -0.043361 -0.012991 -0.086114 -0.115206 0.034232 -0.078204 0.058912 -0.052873 -0.076663 0.075021 -0.033522 0.082682 -0.070757 0.032589 -0.053412 -0.066343 -0.056759 -0.012430 -0.048916 -0.075756 -0.003779 -0.003345 -0.029298 -0.000112 -0.042838 0.029210 0.004850 0.032969 0.018882 -0.076215 0.005736 -0.103421 -0.015489 0.010292 0.063531 0.015839 0.029192 -0.072307 -0.029774 -0.030814 -0.003048 0.004434 -0.031409 0.040661 -0.006769 -0.131852 -0.043059 -0.044263 0.081472 -0.056165 0.020342 -0.019939 0.040139 -0.012398 -0.018943 0.063273 0.108425 0.062973 -0.040156 -0.024053 -0.108117 0.007347 -0.004206 0.048119 -0.044352 -0.034609 0.056932 0.031883 0.053254 -0.010677 0.015340 0.051788 -0.055819 -0.001327 0.072240 0.139651 0.001866 0.016537 -0.000611 -0.010580 -0.030576 0.041839 0.073710 0.068877 -0.055201 0.072561 -0.041531 0.038057 0.069238 0.010778 -0.086500 0.015175 0.030446
sent_44 0.007578 -0.021467 0.004387 -0.013039 0.002960 -0.063365 -0.025627 -0.006757 -0.040712 -0.007169 -0.057072 0.105944 -0.035466 -0.010097 0.030776 0.070371 0.049021 -0.016620 0.043729 -0.017797 0.000624 -0.013688 -0.032933 -0.020264 0.000938 0.048766 -0.040003 0.064672 -0.022157 0.015936 -0.007741 0.036296 0.026152 -0.070423 -0.068563 0.011341 -0.007141 0.055937 0.020621 -0.039238 -0.036119 0.031701 -0.005314 -0.026857 0.018602 0.048311 -0.021216 0.003591 0.041258 0.053669 -0.018450 0.027037 -0.023809 -0.027146 0.012516 0.003019 0.035308 -0.040311 0.037124 -0.011643 -0.017332 -0.009046 -0.021000 0.072752 0.041363 0.042785 0.006950 -0.014413 0.055673 0.005777 0.015955 0.031353 -0.042599 -0.060688 -0.010421 -0.023621 0.068149 0.013755 0.023870 -0.005609 -0.012575 -0.012055 0.003674 0.057225 -0.059237 0.073898 0.031461 0.018319 0.004769 0.066087 0.046306 0.055833 0.001452 0.035389 -0.021293 -0.008793 -0.017211 -0.046981 -0.022037 -0.001034
sent_45 0.003304 0.023430 -0.033391 -0.004191 -0.017013 0.070125 0.007585 0.017149 0.010934 -0.012993 -0.052489 0.026738 -0.008375 0.058891 -0.044634 0.038282 0.004756 0.025261 -0.023927 -0.010238 0.033839 -0.017749 -0.048046 0.018462 -0.048382 -0.059226 -0.075533 0.014061 -0.037942 -0.001676 0.019343 -0.004374 0.048971 -0.048927 0.044862 -0.030694 0.024645 0.003109 0.031447 -0.052641 0.042156 0.011807 -0.021063 -0.000992 -0.022084 0.045507 0.020029 0.028036 0.005202 -0.065565 0.005532 0.005208 -0.051149 0.001342 -0.051300 0.037120 -0.044745 -0.018763 0.053016 0.025704 0.081722 -0.038305 0.088985 0.099252 -0.001929 -0.051819 -0.021078 -0.083809 0.025527 0.045435 0.010981 -0.038630 -0.073573 0.032956 0.015306 -0.008417 0.100856 0.016264 0.006083 -0.014274 -0.026544 0.004272 0.034878 0.009259 0.019955 0.039647 -0.010290 0.007885 0.018916 0.025768 0.078307 0.011592 -0.031257 -0.049981 0.022953 -0.008557 -0.028264 0.002742 -0.025751 0.001751
sent_46 0.065215 -0.153199 0.071916 0.041288 -0.015667 0.038995 0.047156 -0.104604 0.053835 0.032240 -0.067582 0.121103 -0.167341 0.228146 0.055806 0.034259 -0.139949 -0.036611 0.120117 -0.129601 0.053724 -0.085054 -0.024924 0.019664 0.119672 -0.094451 -0.180577 0.099128 -0.054281 -0.051233 -0.103568 0.045471 0.054559 -0.047177 0.013393 0.109183 -0.129486 -0.051649 0.009620 -0.003465 0.087835 0.174940 -0.076647 -0.050547 0.010698 0.097808 0.031737 -0.054889 -0.063500 0.137049 0.030526 0.050417 -0.041479 -0.110184 -0.073777 0.265936 0.105283 0.060169 0.043288 0.007416 0.140600 -0.119200 0.023980 0.100646 -0.057259 -0.052502 0.022689 -0.244688 0.123795 0.112575 0.070417 -0.022246 -0.047878 0.030193 0.073454 -0.042242 0.134649 0.122697 0.084536 0.054172 0.108103 0.050500 0.119450 0.017393 -0.019010 0.128542 -0.088275 -0.110894 0.064497 0.172937 0.045273 0.170476 0.030258 -0.174417 -0.012337 0.090882 -0.118910 -0.082143 -0.120004 0.007051
sent_47 -0.047733 -0.110401 0.118003 -0.104615 -0.133290 -0.028579 -0.027750 -0.030379 0.064830 0.011134 -0.045693 -0.059049 0.025022 0.103092 -0.034469 -0.002160 -0.157244 -0.135638 0.026997 0.035833 0.070888 -0.081846 -0.018874 0.002721 0.024905 -0.034280 -0.038502 0.028188 0.177595 -0.073090 -0.004948 0.044927 0.079453 -0.059822 0.009116 0.114605 -0.169159 -0.030441 -0.009789 0.048635 -0.015182 0.071452 -0.035091 -0.059446 -0.011822 -0.047221 -0.079093 -0.047701 -0.015853 0.079167 0.075663 -0.023445 0.064155 -0.101730 -0.041215 0.064248 -0.095084 0.021308 -0.030621 0.003246 0.073856 -0.066366 0.052485 -0.045865 -0.104822 -0.022334 0.044137 -0.052036 0.017669 -0.015313 0.144062 -0.115607 0.063494 0.025874 -0.116049 0.005254 0.032753 0.124309 0.157575 0.026634 0.179366 0.166032 0.120149 0.144965 -0.024856 -0.039987 -0.031551 0.082652 0.077720 0.119754 -0.059864 -0.021152 0.026750 -0.038576 0.159264 -0.017065 -0.100485 -0.085136 -0.084653 -0.153175
sent_48 -0.159268 0.098018 0.040678 0.042107 0.096301 0.120673 0.130882 0.134396 0.025139 0.041815 -0.147321 0.029891 0.182073 -0.154607 0.034133 0.203231 0.199321 0.254761 -0.025471 -0.009997 0.003291 -0.011121 0.080731 0.029539 0.141150 0.011811 0.099438 -0.124600 -0.018228 0.266440 0.069965 0.124910 -0.020734 0.098651 0.001196 -0.040858 0.120225 -0.040783 -0.123831 -0.029155 -0.031619 0.032610 -0.078639 0.040373 -0.050126 0.236576 0.100622 0.116050 0.041392 -0.023364 -0.000238 0.107374 0.084075 -0.089775 -0.022981 0.028130 0.172295 -0.221443 0.171524 -0.090779 -0.019257 0.049862 -0.187391 0.099720 -0.027999 0.053911 -0.155043 -0.019414 0.023760 -0.125168 -0.153811 0.138947 -0.174118 -0.105099 0.082641 0.055671 0.120366 0.088359 0.024978 -0.074232 -0.068238 -0.121177 -0.078832 -0.028644 0.156824 0.080716 -0.089508 0.133615 0.090138 0.241813 -0.015396 0.187062 -0.033718 0.026385 -0.088537 -0.000901 0.010961 0.141754 -0.036526 0.010376
sent_49 0.016536 -0.006466 0.081150 0.026577 0.033004 0.005479 -0.005897 0.003436 0.076247 0.087296 0.030946 0.051108 -0.046626 0.026358 -0.116613 0.119772 -0.077632 0.005933 -0.032304 -0.020278 0.017826 0.010204 -0.014978 -0.016666 -0.130075 -0.018179 -0.099589 0.132222 -0.021214 -0.070182 -0.034887 -0.009880 -0.038066 -0.036350 -0.014201 0.001294 -0.055910 0.062427 0.024598 -0.126099 0.055410 -0.007394 0.040125 -0.020709 -0.006210 0.090397 0.047975 -0.046773 -0.009666 0.030815 0.062890 0.035987 0.022650 -0.065470 -0.018605 0.043601 -0.017939 0.094734 0.035320 0.013149 0.146756 -0.009560 -0.040826 0.021267 -0.030819 0.005915 -0.022342 -0.092428 -0.003067 0.122058 -0.039252 -0.088961 -0.060789 -0.019530 0.047798 0.096019 0.127707 -0.029169 -0.095245 0.053472 0.037532 -0.004738 -0.027417 0.044950 -0.033313 -0.028600 -0.060977 0.116217 -0.012665 0.026911 -0.029701 0.125909 -0.049630 -0.040626 0.112486 -0.091465 -0.025992 -0.117977 -0.091692 -0.032571
sent_50 -0.014115 0.022825 0.001380 -0.011625 0.076812 -0.036309 -0.033882 0.061514 -0.006080 0.086889 -0.052479 0.034486 0.075049 -0.145904 -0.033196 0.117377 0.048742 0.013447 -0.120899 0.014102 -0.027022 0.067965 0.045394 0.011754 0.032348 0.009299 -0.053373 -0.021989 0.000419 0.051275 0.002318 0.062709 -0.060800 -0.012242 0.105586 -0.038490 0.080823 -0.026251 -0.059033 -0.007198 -0.032925 0.059409 0.032408 0.033589 -0.010711 0.033126 -0.034397 0.042465 0.059867 0.008698 0.038140 0.047940 0.071373 -0.007831 0.060090 -0.071956 0.025847 -0.051786 0.023273 0.015614 -0.050296 -0.050626 -0.086381 0.046519 -0.021557 0.078442 -0.035636 0.000171 0.028832 0.012642 -0.035800 0.045828 -0.123144 -0.090946 0.091462 0.118935 -0.085828 0.085277 0.038805 -0.015636 -0.050449 -0.010369 -0.136209 -0.062994 -0.005073 0.047032 0.015667 0.061367 0.015392 0.110315 -0.098653 0.066318 -0.043393 -0.015437 0.007529 -0.027289 -0.018412 0.084813 -0.019357 -0.026583
sent_51 0.041793 -0.006826 -0.093085 0.019452 -0.016375 0.005468 -0.031252 -0.044307 -0.068163 -0.048065 -0.006773 0.016336 -0.041627 0.053583 -0.022816 0.039803 -0.025312 -0.022720 0.019009 0.012395 0.030562 0.028500 -0.027657 0.059033 0.002926 -0.007088 -0.007014 0.062678 -0.013993 -0.029992 0.000759 -0.017164 0.041882 -0.053671 0.031808 -0.051825 0.051808 0.060254 0.066139 -0.026950 -0.012831 -0.051882 -0.009814 -0.015446 -0.001219 0.044324 -0.001741 0.046215 -0.004566 -0.040589 -0.051906 -0.002113 -0.037481 -0.002865 -0.007817 -0.005584 -0.026668 0.017216 0.042820 0.026269 0.037179 -0.012673 0.071662 0.076171 0.007436 -0.005459 0.036408 -0.031493 0.058781 0.056562 0.015880 -0.067282 -0.020108 0.053114 -0.084090 -0.071669 0.104790 0.011023 -0.018394 -0.000072 0.002979 0.052428 0.026029 0.015746 -0.007020 0.044935 0.006338 -0.035559 -0.028423 -0.000646 0.079428 -0.004995 -0.035250 0.016163 -0.002047 0.016008 -0.029273 -0.063777 -0.021523 -0.045161
sent_52 -0.001927 -0.005954 -0.005865 -0.073092 -0.066550 -0.066730 -0.052141 0.012976 0.028898 -0.019133 -0.027961 -0.038299 -0.007681 0.021686 -0.022434 -0.028318 -0.060755 -0.027579 0.047829 0.049214 0.009899 -0.018799 -0.022061 -0.002477 -0.047251 -0.051092 0.004407 0.013396 0.029513 -0.007087 0.075278 -0.002079 -0.031254 0.019196 -0.002831 -0.006508 -0.033828 0.024471 0.036196 -0.000012 -0.043375 -0.046468 -0.037199 -0.000180 0.051883 -0.090819 0.000670 -0.026582 0.019754 -0.001572 0.043783 0.034200 0.000268 0.042634 -0.063259 -0.054617 -0.016102 0.045335 -0.091507 0.009154 0.000955 -0.041988 0.004092 -0.030413 0.034942 -0.064730 0.026545 -0.030413 0.006448 0.007617 -0.005697 -0.024393 0.028323 0.008798 0.008896 0.059146 -0.071814 -0.048707 -0.029645 -0.021658 0.031151 0.097018 0.017160 0.045005 -0.032173 -0.036203 -0.023103 0.060202 0.038894 -0.065004 -0.018200 -0.086620 0.031690 -0.034586 0.024657 0.019627 0.020929 -0.018601 0.043468 -0.045588
sent_53 -0.042800 -0.032464 -0.056732 -0.020087 -0.101238 0.103370 0.147738 0.054759 0.147569 -0.130943 0.038114 -0.091851 0.132787 -0.044027 -0.052657 -0.089912 -0.009925 0.004881 -0.122771 0.096939 -0.072059 -0.060992 -0.001540 0.099958 -0.059929 -0.062475 -0.016308 -0.128903 0.046348 -0.054960 -0.044240 -0.009107 0.004342 0.078869 0.069604 0.027491 -0.055492 -0.112027 0.009183 -0.050872 0.019047 0.013836 -0.010180 -0.061872 -0.092855 -0.025384 0.038453 0.072599 -0.085326 -0.077903 0.070411 -0.041724 -0.019586 -0.043684 -0.113852 0.003059 -0.103579 -0.091450 0.011177 -0.012139 -0.032406 -0.097397 -0.015237 -0.052461 -0.162104 -0.158327 -0.100858 -0.131848 -0.061131 -0.009560 0.102955 -0.023510 0.099797 0.005264 0.012155 -0.020877 -0.061913 0.067897 0.014030 -0.040256 -0.028329 0.004211 0.009183 -0.037036 -0.013403 -0.086709 -0.004632 -0.090968 -0.013172 -0.095020 -0.045730 -0.061687 0.007288 -0.118363 -0.019805 -0.025949 0.012067 -0.032202 0.063333 0.039071
sent_54 0.037064 -0.078253 0.014615 0.014140 -0.010658 -0.014397 -0.025586 -0.031261 -0.007679 0.012710 -0.018067 0.040683 0.030746 0.002055 -0.000538 0.001519 -0.053238 -0.057482 0.014860 -0.002590 -0.011766 -0.019028 0.049385 0.019045 0.066826 0.009362 -0.022159 0.015999 0.028213 0.018104 0.031881 -0.041933 0.025961 0.061437 0.058033 0.015843 -0.005302 -0.027332 -0.035308 0.056711 -0.033848 0.013411 -0.047639 -0.020319 0.020366 0.025813 -0.006764 -0.021175 -0.002983 0.064986 0.022779 0.039602 -0.005401 -0.004240 0.023451 0.029932 0.079354 0.043806 -0.011221 0.006314 0.017311 -0.013429 -0.036459 0.035019 -0.014010 0.046385 0.009938 -0.073785 0.052634 0.050795 0.018625 0.030151 0.017799 -0.028069 -0.003547 -0.005066 -0.045691 0.047598 0.036637 0.013623 0.063262 0.034704 0.001165 -0.023151 -0.000513 0.036733 0.019078 -0.019096 0.041425 0.021863 0.030340 0.040904 0.028452 -0.010597 0.037361 0.008154 -0.052113 -0.010452 -0.027489 0.017825
sent_55 0.077849 -0.020704 -0.175356 0.039168 -0.004007 0.082518 0.048570 -0.033470 -0.008507 -0.009929 -0.004725 0.060802 -0.109296 0.046777 -0.043624 0.050195 0.062999 -0.028460 0.014555 -0.128044 0.072073 0.030364 -0.033642 0.076036 -0.144036 0.028301 0.027782 0.027741 0.017559 -0.005916 0.032803 -0.011509 0.156741 -0.071076 0.048130 0.054951 0.052274 0.024445 0.092815 -0.116707 0.072582 0.053782 -0.069392 -0.061303 -0.031089 0.070763 0.097669 -0.030944 0.113440 -0.015322 0.011811 -0.001838 -0.053916 -0.042926 -0.018363 0.065294 0.008158 -0.036219 0.044537 0.073906 0.031888 -0.060538 0.028511 0.229290 -0.034740 -0.063140 0.062647 -0.091602 0.077630 0.101336 0.072144 -0.098965 -0.026918 0.059714 -0.142150 -0.131124 0.052528 -0.019483 -0.031438 0.129161 0.027586 -0.000707 0.040018 -0.062740 -0.149326 0.057436 -0.007706 -0.119061 -0.023862 0.017691 0.103625 0.107255 -0.004108 0.007559 0.067058 0.129217 -0.058542 -0.106653 -0.080312 0.022157
sent_56 0.092133 0.002192 -0.073575 0.093255 -0.003811 0.024980 0.085055 -0.059923 0.056503 0.120621 -0.044692 0.052703 -0.092712 -0.014643 -0.075472 -0.043502 0.072512 -0.106070 0.056511 -0.119849 0.013810 0.042708 -0.015127 0.004046 -0.160823 -0.036628 -0.053614 0.043216 -0.027898 0.001226 0.058102 -0.016785 0.180408 -0.077258 0.043117 0.093941 0.120867 0.001466 0.050993 -0.134455 0.184114 0.115090 -0.121078 -0.035749 0.020144 0.021604 0.045348 -0.074808 0.203786 0.010367 -0.015420 0.030728 -0.103892 -0.053819 0.016627 0.154124 0.132363 -0.052121 0.025284 0.020036 0.032235 -0.039532 0.007962 0.261451 0.013691 -0.035401 0.092009 -0.093024 0.061419 0.137049 0.097118 -0.028960 0.005090 -0.026291 -0.083268 -0.100870 0.069814 -0.061524 0.035225 0.155660 0.033482 -0.048900 0.065643 -0.039900 -0.345774 0.062302 0.040930 -0.105660 -0.082727 0.001719 0.185119 0.101155 0.056767 -0.033854 0.144826 0.175812 -0.111640 -0.122619 -0.066209 0.104661
sent_57 -0.121215 -0.025713 0.127660 -0.095527 -0.227703 0.107821 0.028911 0.067550 0.083205 -0.017014 0.065731 -0.167322 0.060540 -0.020068 0.042455 -0.065174 -0.205617 -0.075281 0.013495 0.065321 0.056860 -0.107509 0.004292 0.088550 0.014237 -0.165383 0.184169 -0.124587 0.105179 -0.029175 0.087776 -0.016277 -0.016157 0.100224 -0.018944 0.023336 -0.085069 -0.109397 0.010685 0.123109 0.053590 -0.038303 -0.017397 -0.059463 0.023935 -0.107358 0.009110 -0.004066 -0.059063 0.009071 -0.011422 0.016207 0.045374 0.058992 -0.139494 -0.056206 -0.072429 -0.061892 0.081545 -0.010982 0.083068 0.024098 -0.053128 -0.015158 -0.164050 -0.192291 0.035060 -0.026108 -0.076964 -0.053622 0.058119 -0.057522 0.087023 0.050189 -0.082251 -0.017271 -0.014937 0.001789 0.087473 0.084097 0.040614 0.055165 0.103695 0.091303 -0.033568 -0.113731 0.046041 0.050791 0.076958 -0.043122 0.026327 -0.091097 0.001249 -0.121989 -0.020347 -0.114736 -0.002235 -0.085542 0.006446 -0.123935
sent_58 -0.048246 -0.066719 0.112889 -0.055632 -0.087780 -0.061768 -0.009306 -0.017843 0.052128 -0.039004 0.026432 -0.034534 0.021145 0.020859 0.050078 -0.046486 -0.139086 -0.079214 0.071626 0.039356 0.029779 -0.050197 0.052912 0.071200 0.021882 -0.044561 0.081322 0.002438 0.096242 0.057503 0.074804 -0.009597 -0.002297 0.058248 0.029895 0.055694 -0.114947 -0.006267 -0.027572 0.100095 -0.054492 -0.044716 -0.023227 -0.042071 0.001013 -0.071897 -0.014205 -0.040533 -0.011353 0.023298 0.064683 0.027126 0.056384 0.055227 -0.055977 -0.103143 -0.015139 0.025635 -0.039902 0.012727 0.014279 0.000116 0.007302 -0.069922 -0.048516 -0.087994 0.041762 -0.019140 0.025469 -0.018211 0.039118 -0.024597 0.131772 0.015297 -0.054078 0.048499 -0.084789 0.028435 0.045364 0.051649 0.075326 0.051738 0.071022 0.065729 0.035938 -0.074525 -0.043565 0.018277 0.027500 -0.021177 -0.046046 -0.078498 -0.005629 -0.004679 -0.046987 -0.006816 -0.022315 -0.021559 -0.025282 -0.119693
sent_59 -0.104592 0.029856 0.026833 -0.054612 -0.147690 -0.086016 0.037928 0.012873 -0.084610 -0.029110 0.010056 -0.118595 0.078333 -0.113736 -0.100451 0.054298 0.018060 -0.134972 0.008794 0.059814 0.145151 0.123128 -0.006709 0.027774 -0.045948 0.088608 0.100298 0.071522 0.156986 0.051797 0.047231 -0.134198 -0.051476 0.034282 -0.021505 0.153393 -0.064740 -0.062825 -0.121898 0.010954 0.079674 -0.012398 0.124121 0.009580 -0.038612 -0.132181 -0.011434 0.074591 0.069241 -0.057930 0.044738 -0.112831 -0.015950 -0.020376 0.002850 0.026856 -0.040038 -0.030619 -0.157985 -0.019864 -0.083937 0.114183 0.002973 -0.167305 -0.009989 -0.066972 0.136403 0.235426 -0.076355 -0.026707 0.015542 0.048505 0.306506 -0.007190 -0.062398 0.123063 -0.016434 -0.034631 0.082348 0.059690 -0.077660 0.082684 0.070442 0.076666 0.027495 -0.180816 0.092487 0.012017 0.042535 -0.091126 0.003447 -0.127663 0.028440 0.142309 0.009606 -0.098073 0.041422 0.138442 -0.047186 -0.052604
sent_60 0.040708 0.078197 -0.119602 -0.005053 -0.001433 0.032348 -0.000865 0.010482 -0.024518 -0.040993 0.015574 0.044534 0.020465 0.055370 -0.073225 0.058018 0.036712 0.019400 -0.154374 0.023587 -0.042477 0.004133 0.009430 -0.003129 -0.033902 -0.019892 -0.028102 -0.001152 0.005126 -0.003589 -0.006625 0.010846 0.061743 -0.049352 0.075866 -0.033747 0.016228 0.045597 -0.018437 -0.061663 0.025848 -0.015945 0.023852 -0.013457 0.021520 -0.014490 -0.028739 -0.003725 -0.026029 -0.012013 0.040737 -0.029978 0.004897 0.011758 -0.041746 -0.038733 0.005195 -0.007949 0.075385 -0.030232 0.021123 -0.078419 0.076066 -0.000773 -0.023135 -0.032046 -0.032854 0.004629 0.010082 -0.003947 -0.012112 -0.022740 -0.042828 -0.013998 0.047241 0.026816 0.042434 0.047082 -0.081322 -0.053417 -0.036072 0.000762 -0.033583 0.033034 -0.019602 -0.010723 -0.068243 0.004384 -0.000842 0.010350 -0.002278 0.011929 -0.017163 -0.015914 0.026339 0.007690 -0.003972 0.022312 0.015271 -0.005643
sent_61 -0.036229 -0.029953 0.088602 -0.016549 -0.061894 -0.057645 0.002890 -0.003375 0.017673 -0.033552 0.026396 -0.003385 0.040963 -0.002925 0.030119 -0.024501 -0.066338 -0.048328 0.071715 0.016653 -0.000801 -0.040366 0.038719 0.024739 0.001689 -0.022881 0.039216 0.020966 0.049343 0.043579 0.041162 0.006528 0.017046 0.024014 -0.010908 0.037454 -0.059907 0.010805 -0.017651 0.049075 -0.004985 0.000845 0.004868 -0.031641 -0.000387 -0.021996 0.013993 -0.019012 -0.008442 0.037216 0.024032 0.015341 0.030377 0.006023 0.032742 -0.060649 -0.017356 -0.011999 -0.004112 -0.045985 0.004903 0.012518 -0.036717 -0.055314 -0.023178 -0.008317 0.036260 0.035984 0.007422 -0.012994 0.013602 0.021437 0.079687 -0.004560 -0.017724 0.016913 -0.004703 0.023339 0.031438 0.006319 0.043862 0.027295 0.045712 0.091569 0.029916 -0.031424 0.003006 0.058235 0.026943 0.027030 -0.022858 -0.036652 0.005171 0.014132 0.012095 -0.043992 -0.049442 -0.026586 -0.013796 -0.062806
sent_62 0.049009 -0.012397 -0.051926 -0.005377 0.062804 -0.037242 0.023054 0.011959 0.024639 -0.053384 -0.030521 0.080618 0.042993 0.072195 0.081607 0.033922 0.073265 0.065178 -0.031758 0.064346 -0.043331 -0.039348 -0.070762 0.074684 -0.016393 0.039447 -0.061967 0.113998 0.032353 0.129891 -0.032868 0.072776 -0.019933 -0.067232 -0.059380 -0.023235 0.045372 0.073517 -0.012463 -0.026205 -0.060073 -0.033898 -0.037546 -0.075405 0.028220 0.147535 0.007928 -0.007038 0.077506 0.043783 0.020002 -0.037549 0.023667 -0.063943 -0.021271 -0.122755 0.063396 -0.108795 0.034484 -0.073069 -0.028901 -0.075965 0.024621 0.084021 -0.079056 -0.042115 -0.026791 -0.034877 0.152516 -0.007244 0.011984 0.040697 -0.042079 -0.127522 0.013947 -0.060600 0.102264 0.053753 -0.021939 -0.015547 0.038813 0.017268 -0.071860 0.161717 0.082996 0.083267 -0.061520 0.065195 0.030265 0.100363 -0.033278 0.146639 -0.009378 0.015859 -0.080389 0.048924 -0.073730 0.062115 0.024708 0.000930
sent_63 0.061005 0.009069 -0.040045 0.097906 0.065043 0.045615 0.045743 -0.036357 0.001028 -0.017295 0.077019 0.060463 0.004802 -0.093083 -0.131394 0.067453 0.039541 0.098791 0.038787 0.041898 -0.104107 -0.030278 -0.006460 0.045962 -0.131643 -0.073848 0.006487 0.067802 -0.074972 -0.009199 -0.096361 -0.001792 0.006709 -0.085030 -0.093574 -0.070819 0.054493 0.130318 -0.053785 -0.016036 0.053482 0.038201 0.088723 -0.003897 -0.113911 0.094519 0.041369 0.036027 0.056003 -0.081590 -0.003472 -0.079898 -0.146676 0.029099 0.008472 -0.051882 -0.033617 -0.005206 0.157596 0.032191 0.145189 0.001423 -0.013645 0.084119 -0.005774 -0.094071 -0.067479 -0.103926 0.044761 0.039201 -0.003709 -0.076476 -0.087647 0.135984 0.006165 0.060514 0.068412 0.009499 -0.064771 -0.023974 -0.027191 -0.033454 0.050733 -0.051293 0.038131 0.028670 -0.085222 0.058125 -0.045092 0.148885 0.061188 0.142353 -0.084404 -0.054652 -0.012376 -0.044433 -0.000547 -0.028773 -0.060689 -0.042198
sent_64 -0.122343 -0.005245 0.073717 0.022406 -0.021787 0.010697 0.047870 0.032328 0.048355 -0.022738 -0.058922 -0.006927 0.103901 -0.041086 0.086771 0.124878 -0.022365 0.108806 0.007487 0.007625 0.060372 -0.073190 -0.067352 0.042118 0.018149 -0.025402 0.056802 -0.065806 0.090143 0.109029 0.107221 0.110851 0.054337 0.072179 -0.090814 0.025887 -0.017280 -0.029447 0.102924 -0.044022 -0.120175 -0.004797 -0.161581 -0.121578 -0.007417 0.086526 -0.036963 0.127632 0.005454 0.043582 0.033446 0.057465 0.131266 0.056665 -0.077212 -0.117085 0.038489 -0.201010 0.024621 -0.072396 -0.001597 -0.012616 -0.140346 0.059425 -0.091875 -0.061022 -0.124531 -0.062313 0.065551 -0.122522 0.000476 -0.081893 -0.079288 -0.062921 0.001439 -0.029961 0.029594 0.015192 -0.035040 0.032758 -0.017120 -0.076807 0.013945 0.134394 0.093712 -0.007361 -0.019686 0.074931 0.032782 0.060233 0.006343 -0.055397 -0.000111 0.039890 -0.161282 -0.041104 0.020549 -0.015628 -0.116831 -0.116767
sent_65 -0.154675 0.125774 0.038684 -0.034722 -0.088294 0.025232 0.104581 -0.011300 0.018180 -0.007367 -0.014077 0.087002 -0.007891 -0.050495 -0.070068 -0.214157 0.002300 -0.106499 0.098442 -0.015372 0.088763 -0.116655 0.081231 -0.081738 0.050682 -0.200011 0.235377 -0.080571 0.018179 0.155735 0.128234 -0.021398 0.033583 0.160408 0.000990 0.040521 -0.244437 -0.159131 -0.188797 0.184630 0.018304 0.018419 0.118505 0.022203 -0.094811 -0.189605 -0.132052 -0.021383 -0.078379 0.071730 0.099729 -0.025005 -0.043905 0.063518 0.118190 0.023105 0.013412 0.058888 -0.077144 -0.071584 0.083188 0.001756 -0.017509 -0.100762 0.089060 0.024910 -0.023149 0.245444 -0.013485 -0.152897 -0.015473 0.117098 0.195259 -0.006394 0.011127 0.154050 0.013289 0.025054 0.108598 -0.097087 -0.013120 -0.107972 0.151466 0.065521 0.129976 -0.014927 0.023075 0.145558 0.030805 0.220320 -0.136362 -0.037771 0.110571 0.002918 0.047324 -0.005778 -0.020733 0.026721 0.182517 -0.074464
sent_66 0.030298 -0.238187 -0.039285 0.082381 -0.046171 0.024586 0.059085 -0.034565 0.150066 -0.112614 -0.003818 0.083757 0.105253 0.076202 -0.042420 -0.071479 -0.144156 0.002039 -0.089818 0.053174 0.002649 -0.172881 0.065164 0.083188 0.038501 -0.120428 0.080129 -0.074652 0.021379 0.004386 0.081427 0.055806 0.149050 0.042810 0.040135 0.028498 -0.045055 -0.125507 -0.045554 0.063111 0.105288 0.097987 -0.148494 -0.150271 -0.081925 -0.006951 -0.066177 -0.022781 -0.017294 0.019790 0.095214 -0.081794 -0.010345 0.164323 -0.107662 -0.014119 0.029898 -0.004813 0.024571 -0.056561 0.069107 -0.136745 0.053582 -0.058974 -0.117445 -0.160383 -0.039505 -0.153402 0.115091 0.060741 0.153735 -0.016359 0.145878 -0.019128 0.016217 -0.058902 -0.019504 0.109368 0.049823 0.055517 0.052265 -0.080426 0.038471 0.042175 -0.045777 -0.080797 -0.026467 -0.125058 0.038331 -0.009575 0.087558 -0.002531 -0.022553 -0.068233 0.017725 0.019393 -0.084478 0.091831 -0.008806 -0.001846
sent_67 -0.001257 0.011631 0.020294 -0.001571 -0.025281 -0.013606 0.006014 0.013285 0.008616 0.002558 0.015937 -0.001039 -0.009852 0.014947 0.013380 -0.002425 -0.026261 -0.034398 0.014206 -0.016678 0.005252 0.017225 0.031711 0.025885 0.007903 -0.019268 0.015183 0.000418 0.018466 0.014373 -0.009182 -0.011351 0.002026 0.010883 0.014655 0.020781 -0.030999 -0.014728 -0.004473 0.012673 -0.003368 -0.007865 0.024347 -0.008700 0.013396 -0.019007 0.016934 -0.012691 -0.023502 -0.001735 -0.000689 0.000606 -0.033386 -0.017743 0.013651 0.018980 0.008782 0.020478 -0.012421 -0.014496 0.018112 0.025171 0.011888 -0.020971 -0.009607 0.024494 0.030433 0.012251 -0.016506 0.013004 0.000875 0.011476 0.019308 0.019573 -0.000075 0.010215 0.007740 0.013119 0.004823 -0.005792 0.020382 0.009375 0.034779 0.012718 0.023212 0.011102 0.007304 0.012605 0.008077 -0.005251 0.014166 0.000658 0.017848 0.002477 0.030203 -0.015758 -0.013336 -0.008574 -0.002145 -0.014017
sent_68 0.046052 -0.004554 -0.188002 -0.015799 0.060345 0.010798 0.090349 -0.039283 -0.016536 -0.025005 -0.157066 0.077410 -0.183605 0.145022 -0.133921 0.050527 0.033110 0.108887 -0.025261 0.095210 0.007071 -0.013899 -0.041640 -0.075786 -0.029584 -0.130501 -0.104827 0.072243 -0.065124 0.013965 -0.011194 0.227752 0.133578 -0.130447 -0.085690 -0.046108 0.038125 -0.023779 0.002335 -0.016444 0.005687 0.065889 -0.066051 -0.018978 -0.006477 0.038303 -0.150583 0.069300 0.124387 -0.012764 -0.013973 -0.098717 -0.082134 -0.033609 -0.168843 0.007269 0.165226 -0.061007 -0.005947 0.027548 0.105325 -0.181203 0.170696 0.061044 0.050908 -0.045351 -0.015622 -0.182692 0.173854 0.094354 0.027616 -0.063602 -0.060757 0.013209 0.217831 -0.048206 0.137009 0.038143 0.086805 -0.017312 0.008125 -0.061806 -0.047862 0.283626 -0.145061 0.120279 -0.137809 -0.031849 -0.068396 0.112338 0.189484 0.120734 0.100489 -0.009192 -0.009672 0.057641 -0.148921 0.034420 -0.023954 -0.005536
sent_69 -0.024161 0.027560 -0.095521 -0.044080 -0.031909 0.097623 0.056019 0.009911 -0.009816 -0.052408 -0.030563 0.058761 -0.008384 0.051410 -0.054551 -0.000458 0.047053 0.060214 -0.078767 0.016316 0.044093 -0.068773 -0.038521 -0.036568 -0.026854 -0.066887 0.043745 -0.015397 0.007235 0.080023 0.094576 0.033780 0.083872 -0.010994 -0.002659 -0.035614 -0.026798 -0.026310 -0.021183 0.036180 0.034457 0.011887 -0.013969 -0.013792 -0.008430 0.002100 -0.041059 0.041988 0.039686 -0.054017 0.048801 -0.045090 0.041326 0.046953 -0.062366 -0.016151 0.000047 -0.057079 0.047269 0.025292 0.041779 -0.078837 0.073626 0.079509 -0.037641 -0.104091 -0.052681 0.018551 0.062795 -0.018622 -0.007601 0.013337 -0.008652 0.015858 0.086755 -0.000690 0.059447 0.013531 0.020665 -0.000947 -0.004452 -0.029383 -0.013935 0.089182 0.051074 0.001116 -0.051320 0.022853 0.014706 0.063313 0.021999 0.000395 0.030110 -0.028951 -0.040584 0.019978 -0.058017 0.024600 0.020697 -0.008233
sent_70 -0.141651 -0.006102 -0.073730 -0.062625 -0.044435 -0.007539 0.102270 -0.007753 0.067638 -0.045047 -0.087589 -0.032187 0.091759 -0.284501 -0.018982 -0.074735 -0.039871 -0.072428 0.046601 -0.037064 -0.047075 -0.015632 0.031712 0.014804 -0.086112 -0.114782 0.117289 -0.200918 -0.031051 -0.094668 0.075200 0.076248 0.179198 0.135064 0.148333 0.087090 0.082486 -0.152651 -0.140836 0.084628 0.124015 0.034546 -0.024152 0.146622 -0.076832 -0.139308 -0.106761 0.079469 0.132544 0.147589 -0.055942 0.021377 0.000980 0.078621 -0.020018 -0.002692 -0.133018 -0.161283 0.066335 0.051733 0.028411 0.005931 -0.155091 0.022121 0.072059 -0.132811 -0.064605 -0.148176 -0.073979 0.066097 0.082055 0.002797 -0.043489 0.047539 -0.033424 0.006131 -0.043987 0.058775 0.129881 -0.057665 -0.183012 -0.043282 0.088058 -0.099235 -0.094640 -0.132011 0.235430 -0.043243 -0.057136 0.059154 0.155919 -0.015771 0.033964 0.113808 0.098871 -0.028439 -0.054808 0.088663 -0.000044 -0.005592
sent_71 -0.110071 0.019285 0.103317 0.032239 -0.002756 0.099420 0.071874 -0.005118 0.184313 0.045980 -0.180386 -0.124575 0.123297 0.074466 -0.074205 -0.122078 0.093860 0.118313 -0.145072 0.126021 0.032444 -0.144755 -0.012985 0.037555 -0.028611 -0.154693 -0.009241 -0.042366 -0.102241 0.147382 0.095730 0.006775 -0.064271 -0.089838 0.018333 -0.035175 0.047799 0.033290 0.095276 -0.011704 0.105329 -0.016188 -0.107554 -0.004898 -0.007637 0.022788 -0.037089 0.091535 0.022990 -0.226614 0.009733 -0.008306 0.153405 0.036742 -0.192336 -0.017862 -0.086080 -0.115325 0.101826 -0.015247 -0.011970 -0.122445 0.084712 0.069368 -0.132820 -0.239329 -0.063204 -0.116911 0.122484 0.000359 0.044286 -0.014943 -0.047022 -0.103860 0.086671 0.002563 0.116000 0.059222 0.092914 -0.105727 -0.044829 -0.032602 -0.018694 0.014341 -0.064681 -0.105763 -0.064712 0.001691 0.093117 0.031182 -0.068832 -0.026320 -0.110266 -0.149005 -0.011419 -0.026686 -0.011930 0.054743 0.056753 -0.029808
sent_72 0.002297 0.010544 0.018119 -0.009959 -0.030753 -0.012037 0.010742 0.006714 0.008170 0.002037 0.016065 0.003873 -0.004492 0.017636 0.011730 -0.003346 -0.025164 -0.027856 0.016914 -0.008426 0.006491 0.022694 0.030702 0.026537 0.008051 -0.012157 0.022353 0.005062 0.017573 0.010656 -0.008276 -0.012115 0.003890 0.009692 0.016486 0.022751 -0.037789 -0.016160 0.001664 0.019598 -0.006385 -0.009298 0.017575 -0.008682 0.016390 -0.018640 0.017580 -0.016425 -0.017073 -0.000688 -0.005320 0.001799 -0.039101 -0.020117 0.014220 0.018062 0.010674 0.016652 -0.008886 -0.009476 0.022462 0.027409 0.012894 -0.023624 -0.003232 0.018382 0.033335 0.007272 -0.010610 0.013979 0.003572 0.004485 0.026115 0.016231 -0.003543 0.006566 0.007279 0.015731 0.009362 -0.000020 0.017396 0.005810 0.032988 0.015913 0.023387 0.009039 0.004511 0.008608 0.010312 -0.000926 0.008284 -0.000032 0.014745 0.004598 0.030824 -0.008678 -0.015809 -0.008325 -0.002611 -0.017296
sent_73 0.074424 -0.005377 -0.188808 0.034030 -0.008302 0.112990 0.053774 -0.043227 -0.002781 -0.003550 0.009088 0.071171 -0.111925 0.039565 -0.055557 0.052274 0.070579 -0.043852 0.012491 -0.161203 0.062415 0.041799 -0.013768 0.062974 -0.181465 0.041312 0.036707 0.010121 0.040896 -0.027853 0.060589 -0.013930 0.186974 -0.064099 0.085413 0.082533 0.067112 0.022279 0.079124 -0.152810 0.070987 0.067480 -0.080051 -0.066239 -0.029956 0.069747 0.122504 -0.043125 0.138058 -0.017577 0.039384 0.008043 -0.039380 -0.042797 0.001052 0.094949 -0.000128 -0.046229 0.053935 0.086306 0.026012 -0.056135 0.020515 0.246481 -0.034649 -0.065834 0.064378 -0.094735 0.080839 0.101149 0.079702 -0.093114 -0.017146 0.065174 -0.160834 -0.115478 0.030241 -0.038563 -0.032889 0.141515 0.034066 0.003655 0.035010 -0.065325 -0.167574 0.041159 -0.009980 -0.108333 -0.034167 0.014161 0.102801 0.113646 -0.001222 0.001819 0.091556 0.125371 -0.060925 -0.128388 -0.105335 0.016754
sent_74 0.077994 0.022662 -0.081530 0.077236 -0.008995 0.057695 0.089948 -0.056712 0.031546 0.088438 -0.024283 0.055463 -0.102233 0.010655 -0.087846 -0.011058 0.063019 -0.100177 0.051954 -0.120819 0.008065 0.037287 0.012462 0.002478 -0.154636 -0.044556 -0.047074 0.059193 -0.012783 -0.005029 0.048562 -0.010782 0.184226 -0.096791 0.046293 0.097680 0.116073 0.022877 0.046378 -0.159557 0.180759 0.097155 -0.096561 -0.048361 0.028797 0.049347 0.050695 -0.089505 0.183764 -0.002401 0.006789 0.007705 -0.104280 -0.070702 0.007422 0.154994 0.126477 -0.047138 0.056138 0.017040 0.040074 -0.030702 0.035758 0.234855 0.004633 -0.025431 0.067621 -0.113105 0.069116 0.123157 0.089282 -0.037454 -0.002777 -0.023549 -0.079550 -0.085987 0.109546 -0.070043 0.034306 0.125201 0.032652 -0.045378 0.052984 0.004068 -0.323937 0.052487 0.009603 -0.097947 -0.100838 0.012358 0.183812 0.103460 0.051103 -0.056041 0.146516 0.127727 -0.108124 -0.142130 -0.092846 0.088517
sent_75 0.114312 -0.034023 -0.106740 0.025238 0.002772 0.057528 0.043886 -0.018127 0.131584 -0.008415 -0.097857 -0.016162 0.154870 0.044662 -0.090225 -0.118977 0.118862 0.069415 -0.220417 0.008818 -0.113658 -0.016290 0.030490 0.011034 -0.088678 -0.016283 -0.048186 -0.073694 0.020049 0.084843 -0.037729 0.019231 0.074146 -0.039607 0.083335 0.004068 0.048025 -0.032544 -0.122443 -0.000841 0.059311 0.074414 -0.054155 -0.018780 -0.043998 0.067680 -0.056431 0.014917 0.040081 -0.111451 -0.008324 -0.067678 -0.036845 -0.039536 0.001659 -0.054327 -0.001235 -0.074544 0.062702 -0.079786 -0.017350 -0.080837 0.091405 0.068585 -0.197962 0.085571 0.020419 -0.081032 0.094390 0.067354 0.029167 -0.060266 -0.082002 -0.066094 0.060421 0.017512 -0.050971 0.218903 0.069189 -0.044177 -0.009213 0.014944 0.026349 0.048379 0.009502 0.037026 -0.059160 0.001866 0.079501 0.031403 0.046408 0.030191 0.016696 -0.013005 0.190309 0.049944 -0.167048 0.065050 0.041851 -0.010439
sent_76 0.110106 -0.147838 -0.145192 0.107902 -0.068629 0.256702 0.034615 -0.012757 0.061822 -0.002502 0.064035 0.087204 0.030104 0.082078 -0.023794 0.153546 -0.177052 -0.091187 -0.199278 -0.016112 -0.077783 0.148565 0.074484 0.185872 0.035263 0.055486 -0.001240 -0.106521 0.117167 -0.173706 0.077070 -0.111436 0.065828 0.055960 0.156331 0.063965 0.078688 -0.178933 0.103606 -0.003436 -0.044310 0.004482 -0.077881 -0.134297 0.060743 0.034253 0.051161 0.139073 -0.073492 0.093597 0.043764 -0.015371 -0.096463 -0.001661 -0.049883 0.095250 0.199364 -0.013345 0.038818 0.041445 0.189400 -0.051910 0.044285 0.085124 -0.195236 -0.008579 -0.006145 -0.216810 0.057419 0.148747 0.100395 -0.079639 0.030115 0.139106 -0.063783 -0.103014 0.001597 0.032714 -0.062520 0.196675 -0.108852 0.021190 -0.075599 -0.035350 0.020142 0.052588 -0.008820 -0.179628 -0.072846 -0.149994 0.140480 0.086086 0.046315 -0.147022 -0.051413 -0.013048 -0.081948 0.075531 -0.160596 -0.084896
sent_77 0.126846 0.026080 -0.014415 -0.023983 -0.004409 -0.105160 0.050147 -0.022693 0.145447 0.014929 -0.042592 0.054452 -0.106110 0.185066 -0.104949 -0.008433 0.127316 0.134894 -0.207447 -0.039605 0.116424 0.011430 0.124715 0.160061 -0.054325 0.096314 0.003674 0.045365 -0.066520 0.181005 0.030184 0.010877 0.009329 -0.076764 0.028764 -0.137122 -0.027744 0.053085 -0.099802 0.010049 -0.052703 -0.053967 -0.073651 -0.039855 -0.131838 0.116370 0.074637 0.014916 0.032807 -0.101282 -0.014830 0.001527 -0.007461 -0.056201 -0.125696 -0.144212 0.035562 -0.020115 0.046397 -0.012884 0.103070 -0.035922 0.131086 0.095032 -0.069699 -0.069716 0.014083 -0.101583 0.096592 0.201894 0.050533 -0.039941 0.079848 -0.104412 -0.070242 -0.077053 0.053564 0.082745 -0.101884 0.067257 0.039573 -0.287062 0.080645 0.062694 0.092468 0.076721 0.007070 -0.075933 0.058633 0.005684 0.082550 0.201820 -0.088255 0.144602 0.021225 0.031457 -0.067587 0.048003 0.036721 0.037152
sent_78 -0.062065 -0.013376 0.051822 -0.014498 0.013895 -0.005271 0.100784 0.056997 0.100288 -0.097890 -0.052177 -0.031452 -0.049253 0.040239 0.047818 0.058195 -0.038423 0.095295 0.043710 0.031486 0.067688 -0.033263 -0.041302 0.094643 -0.058689 -0.082457 -0.129073 0.053737 -0.040906 -0.021035 -0.034232 0.081661 0.013109 -0.040953 -0.012815 -0.000367 -0.017953 -0.029138 0.032551 -0.073027 0.065276 0.049176 -0.008699 -0.080857 -0.073642 0.081643 0.054836 0.026349 0.010615 0.022154 0.052790 -0.026899 -0.041623 0.004130 -0.083090 -0.064298 -0.054127 -0.078618 0.042207 -0.062301 0.036296 -0.070821 -0.002895 0.073887 0.037533 -0.179975 -0.044250 -0.132154 0.014047 -0.010927 0.088084 -0.064418 -0.042197 -0.006838 0.033351 -0.010699 0.097175 -0.008660 -0.052810 -0.022529 -0.004813 -0.053181 -0.014186 0.038005 -0.009944 -0.011846 -0.045492 -0.014441 0.008732 0.054820 0.028720 0.073309 -0.041369 -0.079289 -0.095516 -0.010148 -0.000834 0.020071 -0.061143 0.006418
sent_79 -0.150222 0.056712 0.138168 -0.050802 -0.088048 0.090658 0.018751 0.144856 0.043361 -0.032047 0.050079 -0.108308 0.187385 -0.130579 0.022425 0.005269 -0.089361 0.073041 0.033982 0.024888 0.001317 -0.159457 -0.004292 0.038032 0.098228 -0.141700 0.167609 -0.100482 0.055026 0.096657 0.100732 0.050276 -0.006206 0.093947 -0.011040 -0.108226 0.036222 -0.020870 -0.038026 0.064731 0.041873 -0.029016 -0.084798 -0.025109 -0.031474 -0.055882 0.061206 0.003227 0.001307 -0.047724 -0.039869 0.005240 0.082318 0.061432 -0.112349 -0.121608 -0.038023 -0.140593 0.168585 0.002198 0.003580 0.087292 -0.127485 -0.054328 -0.122316 -0.180813 -0.114654 -0.030922 -0.047724 -0.065598 -0.026368 0.039176 -0.023743 0.002852 -0.008368 0.047464 0.040500 0.001330 0.032810 0.047508 0.026863 -0.004314 0.067106 0.068470 0.055360 -0.220511 -0.009828 0.134344 0.112085 0.001835 0.015812 -0.071605 -0.068483 -0.026871 -0.008096 -0.107744 0.064460 0.003259 -0.024425 -0.129095
sent_80 0.002427 -0.022254 0.139652 0.049644 -0.191936 -0.066033 0.169414 0.094623 0.267776 -0.041391 -0.087285 0.133010 0.044390 0.256202 0.009590 0.006565 -0.088375 -0.063067 -0.113174 -0.007466 0.062559 0.027353 0.167380 0.234020 -0.124003 0.043428 -0.049030 -0.000619 0.224023 0.168768 0.128956 0.015160 0.254651 -0.194848 0.156895 0.107208 -0.185833 -0.050592 0.081141 -0.088642 0.032260 0.033294 -0.110108 -0.203745 0.021712 0.012038 0.001334 -0.100840 -0.042282 -0.096403 0.100880 -0.024039 -0.218840 -0.005833 -0.025670 0.058494 0.121984 -0.029834 0.043147 -0.082519 0.180951 0.006034 0.372077 0.042357 -0.132322 -0.073852 0.100241 -0.129566 0.002832 0.030200 0.250480 -0.159812 0.102916 0.060109 -0.032987 0.058221 0.068490 0.094022 -0.095015 0.156313 0.071124 -0.132433 0.203154 0.148462 0.036443 0.027292 -0.107390 -0.059574 0.005751 -0.121305 0.249539 -0.039784 0.055710 0.010402 0.119584 0.158051 -0.209899 0.066401 -0.070299 -0.126432
sent_81 -0.107417 0.054368 0.081790 -0.020273 0.097152 -0.081810 -0.070969 -0.013087 -0.009478 0.036394 -0.129725 -0.012252 0.029116 0.047729 0.056197 0.125785 0.005682 0.037666 0.017725 0.094628 0.012381 0.041301 0.050674 0.098185 0.088326 0.028806 0.003311 0.049995 0.008008 0.141464 -0.014697 0.069514 -0.105893 -0.069963 0.071668 -0.128697 -0.016657 0.078480 -0.007158 0.019053 -0.222593 -0.124020 -0.055662 0.008850 -0.005911 0.021344 -0.189513 0.056517 0.054324 -0.009948 0.041846 0.111219 0.222805 0.016588 -0.069906 -0.215211 0.032268 -0.069106 0.004094 0.024882 -0.073562 0.019455 0.055619 0.023875 -0.027591 0.020709 -0.157759 -0.019172 0.088487 -0.131416 -0.035269 -0.015235 -0.080090 -0.013718 -0.005004 0.108997 -0.025137 0.044971 -0.059296 -0.028153 -0.048775 -0.009534 -0.084265 -0.002430 0.094918 0.018951 -0.096573 0.067012 -0.024003 0.082318 -0.177296 -0.098409 -0.059637 0.037881 -0.154096 0.006954 -0.006262 0.036954 -0.062039 -0.173110
sent_82 0.096550 0.051218 -0.288214 0.025261 -0.163574 -0.050427 0.067066 0.126876 0.100720 -0.070736 -0.059157 0.288717 0.000749 0.218986 0.092153 -0.005421 0.108279 0.156390 -0.181575 -0.135363 0.167027 0.038400 -0.304617 0.071949 -0.067401 0.087785 -0.140128 0.039123 0.149983 0.081766 0.025834 0.112467 0.201534 -0.041846 -0.121988 0.038209 -0.123802 -0.035171 0.101221 -0.151310 -0.156196 0.141680 -0.200898 -0.254927 -0.012631 0.188948 0.106915 0.000911 -0.007125 0.047941 -0.087390 0.030464 -0.189076 -0.139182 -0.148610 0.068944 0.148256 -0.107645 -0.000014 -0.020687 0.135613 -0.015756 0.115316 0.291538 -0.058497 -0.037768 0.075153 -0.106016 0.103298 0.242098 0.142562 0.012795 -0.130846 0.028144 0.007999 -0.127282 0.204608 0.205043 -0.173571 0.251638 0.135281 -0.152421 0.190493 0.229159 0.179419 0.289229 -0.015453 -0.017520 0.114445 0.167407 0.295447 0.180048 0.083326 0.132324 -0.054952 0.204868 0.029000 0.079084 0.012886 0.017235
sent_83 0.014303 0.056586 -0.032206 0.007045 -0.007832 0.012109 -0.019148 0.037721 0.028981 0.012586 0.026999 -0.049657 0.040435 0.001099 -0.063098 -0.044086 0.072922 0.057475 -0.052413 0.031785 -0.007595 -0.001688 -0.050043 -0.040566 -0.098123 -0.013142 0.008883 -0.022943 -0.033899 -0.016553 0.004799 -0.026265 -0.006628 -0.001880 -0.059382 -0.014842 0.029798 0.039067 -0.020957 -0.012701 -0.001421 0.000069 -0.001552 0.006001 -0.032886 -0.029631 0.010465 0.010854 0.033213 -0.070702 -0.040597 -0.033178 -0.037265 0.021363 -0.024671 -0.036582 -0.030569 -0.018104 -0.012809 0.008037 0.033218 -0.002193 0.038964 -0.016831 -0.026425 -0.022058 -0.011830 0.008507 -0.023145 -0.016811 -0.010045 -0.021674 -0.008927 0.060321 -0.008393 0.021184 -0.031148 0.001552 -0.010666 -0.029924 -0.038736 -0.015251 0.052357 0.008901 0.006533 0.006397 -0.005290 0.033418 0.017744 -0.018522 0.016126 -0.010157 -0.000242 0.013949 0.021845 -0.013528 0.017403 0.037568 0.052682 -0.031935
sent_84 0.029944 0.095229 0.007109 -0.001839 -0.017796 -0.130008 0.021753 -0.084382 0.022059 0.020852 -0.115501 0.025649 -0.061621 -0.006975 0.108717 0.063559 0.011014 0.067737 0.003053 -0.070572 0.021244 0.076324 -0.050539 0.007379 0.030805 0.073507 -0.112107 0.031712 0.065455 0.040462 -0.137182 0.099205 0.052775 -0.015867 -0.042718 0.083450 -0.071048 0.096582 -0.022139 -0.000178 -0.168417 0.072762 -0.010111 -0.014553 0.002133 0.055874 -0.056734 0.081468 -0.060298 0.075428 0.039765 0.119369 0.031396 -0.103459 -0.069295 -0.027993 -0.011589 -0.050914 0.008431 -0.031683 -0.005784 0.020518 -0.054292 0.024732 0.023082 -0.063948 0.007652 -0.167650 -0.019431 -0.023333 0.017752 -0.155399 -0.172565 -0.043771 -0.000667 -0.015779 -0.061610 0.100309 -0.090798 -0.105223 0.029696 -0.008593 0.058179 -0.011198 0.147696 0.181162 -0.054675 -0.021546 0.036555 0.164846 0.015185 0.064445 -0.011177 0.007693 -0.102348 0.095305 0.022898 0.044482 -0.119655 -0.024836
sent_85 -0.052467 -0.113418 0.167784 0.000286 -0.002297 -0.005960 0.015134 0.042969 0.023974 0.105299 -0.121619 0.056202 0.030929 -0.137442 0.167118 0.274234 -0.253588 0.017833 0.198628 0.025405 0.003111 -0.118495 0.033161 0.090134 0.186225 -0.167895 0.104152 -0.151671 0.052398 0.058714 0.016595 0.245956 0.009691 0.066877 -0.073984 -0.078935 -0.036360 -0.084351 0.003297 0.049596 0.002163 0.181898 -0.097187 -0.096259 0.024476 -0.127158 -0.123920 0.109616 -0.040528 0.267469 0.203735 0.183151 0.086371 0.147438 -0.072280 -0.156802 0.107950 -0.084478 0.078175 -0.064985 0.025271 -0.075446 -0.255088 -0.102058 0.025347 -0.181708 -0.157350 -0.147443 -0.033560 -0.264929 -0.034943 -0.004179 -0.053572 -0.085630 0.037717 0.088870 -0.128986 -0.062929 -0.029965 0.073959 -0.053545 0.035843 -0.062708 -0.067059 -0.125405 -0.054163 -0.076002 0.045321 0.105044 0.090404 -0.177039 0.059985 -0.011231 -0.278850 -0.245992 0.030643 0.052214 -0.001039 -0.162681 -0.128331
sent_86 -0.053590 -0.024717 0.045524 -0.020943 0.106228 -0.008402 -0.010714 0.005043 -0.049185 0.022151 -0.117215 0.009611 -0.052953 -0.027251 0.038959 0.079594 0.041376 0.063067 0.054392 -0.005858 0.077816 -0.092297 -0.045276 -0.028445 0.097307 -0.040748 -0.029618 0.018549 -0.027399 0.067473 -0.001171 0.075417 -0.062371 0.005381 -0.009235 -0.023565 -0.013856 -0.022362 0.077843 -0.007999 -0.011891 0.010359 -0.019335 0.010837 -0.005769 0.007935 -0.057924 0.033392 -0.005407 -0.004640 0.007121 0.014978 0.075770 0.028713 -0.009196 -0.016814 -0.014052 -0.011235 -0.012991 0.026798 -0.053199 -0.079367 -0.067871 0.047622 0.082940 -0.037388 -0.058441 -0.025436 0.035240 -0.063561 -0.051629 -0.006579 -0.064130 -0.036412 0.085306 -0.028591 -0.007176 -0.022724 0.062666 -0.078851 0.001444 -0.018678 -0.048142 -0.035584 0.000204 -0.015840 -0.020267 0.030234 0.088713 0.093977 -0.148258 0.030411 -0.055650 0.005577 -0.092454 -0.025916 0.067541 0.005347 -0.002657 0.007947
sent_87 -0.101394 0.037012 0.106948 -0.064646 -0.095376 -0.059445 0.038584 -0.058726 -0.028852 -0.035094 -0.044272 -0.020886 -0.058401 -0.071947 -0.014593 0.078083 -0.162303 -0.103367 0.139185 -0.003460 0.023307 0.042963 0.123754 0.022917 0.073046 -0.034054 -0.016871 0.091527 0.100198 0.045893 0.006255 -0.053515 0.014932 0.059282 0.122606 0.025115 -0.119708 0.062395 -0.073031 0.099669 -0.035016 -0.054728 0.125769 0.059665 0.072906 -0.007356 -0.054009 0.020138 -0.033357 0.077465 0.081459 0.110553 0.050389 -0.054540 0.011146 -0.009441 0.031672 0.058670 0.042078 0.009378 0.063757 0.052088 -0.070419 -0.000176 0.041869 -0.049683 0.049956 -0.070207 0.000936 0.012259 -0.008847 -0.041999 -0.009459 -0.041237 0.010803 0.102207 0.015009 -0.023505 -0.016391 -0.050454 0.033833 0.140367 -0.035803 -0.001990 0.050298 -0.019233 -0.018144 0.027105 0.021613 0.048754 -0.025436 -0.030652 0.030256 -0.070940 0.008136 -0.059987 -0.038011 -0.093851 -0.144413 -0.074359
sent_88 0.006304 -0.000807 -0.008373 -0.005580 0.001570 0.004662 -0.005530 -0.002788 0.003374 -0.002450 -0.006896 0.005975 0.006348 0.012182 -0.006623 -0.000058 0.006887 0.003101 -0.001123 0.003832 -0.002679 0.001655 0.004863 0.004187 -0.007081 0.004889 -0.018496 0.015444 0.003890 0.005929 0.005720 -0.003997 0.007364 -0.003006 0.013499 -0.003676 0.006055 0.001664 0.003390 -0.005761 -0.001480 0.001211 -0.009360 -0.011223 0.002586 0.015339 0.011968 -0.000968 0.007559 -0.002933 0.006218 -0.002431 -0.006146 -0.011592 0.010634 0.007594 0.003605 -0.004160 -0.010061 -0.007177 0.006999 -0.001149 0.014892 0.016253 -0.012162 0.015947 0.003106 -0.004014 0.008735 0.004018 0.004458 -0.002661 -0.005695 0.003218 -0.004463 -0.007274 0.003198 0.002097 -0.002607 -0.003956 0.017626 0.015935 -0.006393 0.008319 0.009303 0.011868 -0.004629 0.005383 0.001116 0.009945 -0.002439 0.014341 0.005841 -0.001963 0.016891 -0.002260 -0.014512 -0.002515 -0.005611 -0.000292
sent_89 0.026213 -0.065131 0.011969 0.016487 -0.004213 -0.011757 -0.031272 -0.021226 -0.000315 0.018877 -0.015353 0.039141 0.032521 0.009431 -0.002663 0.000570 -0.043795 -0.048176 0.018914 0.005089 -0.010766 -0.006351 0.041182 0.014085 0.048873 0.012743 -0.024886 0.025983 0.029027 0.033847 0.033898 -0.034333 0.021133 0.048645 0.063922 0.010202 -0.000611 -0.012114 -0.016289 0.040605 -0.029131 0.001119 -0.039045 -0.025700 0.025090 0.034051 0.003544 -0.017996 0.011164 0.048317 0.022198 0.036332 -0.007607 -0.003767 0.038885 0.011841 0.074749 0.035024 -0.024244 0.001227 0.018595 -0.011340 -0.019271 0.037483 -0.010920 0.041720 0.013327 -0.054322 0.058057 0.031345 0.004424 0.029472 0.012515 -0.022239 -0.000771 -0.002225 -0.043313 0.040390 0.030333 0.010870 0.059222 0.032921 -0.007447 -0.013752 -0.004819 0.040262 0.004988 -0.000365 0.030487 0.024169 0.016505 0.033798 0.017633 -0.015900 0.029819 0.009702 -0.055473 -0.010032 -0.016392 0.002697
sent_90 0.042510 0.008700 -0.002957 -0.008563 0.046728 0.052570 0.029974 0.009396 -0.006862 0.019687 -0.035640 0.052955 0.013404 0.018487 -0.002634 0.057899 0.112510 0.025345 -0.066482 -0.005215 -0.036917 -0.059030 0.066061 -0.019065 0.026505 0.002954 0.057650 -0.009855 -0.076462 0.128245 -0.020762 0.029114 -0.051087 -0.013055 -0.052371 0.038474 -0.018691 0.007021 -0.053112 0.019488 0.013110 0.019984 0.031772 0.005436 0.043512 0.022737 0.017787 0.021716 0.057399 -0.001258 0.036989 -0.034764 0.052392 -0.033651 -0.047894 -0.025483 0.074283 -0.089654 0.052608 -0.042894 -0.042696 -0.026044 -0.089254 -0.004731 -0.054747 0.001605 -0.027825 0.021567 0.069260 -0.012356 -0.076215 0.145839 0.015272 -0.097155 0.119869 -0.031762 0.011967 0.034870 0.060566 -0.030162 -0.073936 -0.043598 -0.041470 0.045635 0.016796 0.022264 -0.021650 0.026475 0.087061 0.014222 -0.064311 0.110481 0.007946 0.043125 -0.030207 -0.044414 -0.026013 0.019100 -0.037541 0.076525
sent_91 -0.077129 0.091188 0.077628 -0.002539 0.002730 -0.015179 0.035796 0.041956 0.017860 -0.002261 0.042578 0.037158 0.014130 -0.077431 -0.013431 0.022096 0.032437 0.000786 0.017202 0.012964 -0.041999 -0.016091 0.110890 -0.033322 0.043094 0.022841 0.065166 -0.044719 0.038658 0.024484 0.057960 0.020716 -0.033993 0.042940 0.055934 0.005869 -0.049338 0.043628 -0.050032 0.000877 -0.025253 -0.025212 0.022192 0.020747 -0.059499 0.006865 -0.054336 0.005619 -0.011012 0.008426 0.058984 0.018577 0.043393 -0.014250 0.028459 -0.048895 0.012931 -0.064717 0.064828 0.001984 -0.024899 0.052486 -0.077694 -0.026832 -0.020438 -0.029179 -0.116776 0.002202 -0.002741 -0.098131 -0.008361 0.023908 -0.031110 -0.096070 0.012666 0.153036 -0.013179 -0.029847 -0.018633 -0.062888 -0.049130 -0.030513 -0.061711 -0.012247 0.030061 -0.057572 0.006670 0.024530 -0.026422 0.036676 -0.067766 -0.007022 0.012121 0.043096 0.024008 -0.001733 0.020626 -0.022362 -0.005976 -0.043703
sent_92 0.033813 0.038120 -0.033448 -0.005800 -0.019870 -0.006629 -0.008145 0.010940 -0.000554 0.006844 0.018409 -0.011311 -0.002713 0.014446 -0.008426 0.004766 -0.004603 0.008585 -0.008460 0.005196 -0.008824 0.018885 -0.012482 0.006981 -0.012328 -0.001807 -0.003482 0.000508 0.005347 -0.005827 -0.007789 -0.009281 -0.006984 -0.001410 0.013543 0.000601 0.011726 0.025338 -0.009586 -0.026776 0.008354 -0.025827 -0.012661 0.007124 -0.004930 -0.005515 0.010838 -0.004247 -0.011643 -0.025955 -0.005874 0.005583 -0.021091 -0.031165 -0.030706 -0.008320 -0.008365 -0.000188 -0.000914 0.000746 0.002198 0.003968 0.013591 -0.004825 -0.015888 -0.013885 -0.014641 -0.000854 -0.016651 0.000985 -0.006625 -0.023023 -0.008836 -0.001594 -0.023359 0.002560 0.008805 -0.001761 -0.028165 -0.017615 -0.002025 0.024156 0.019048 -0.003440 0.002673 0.006672 -0.013997 0.000125 -0.015638 -0.019420 0.011472 -0.011144 -0.001643 0.001183 0.015405 0.030676 0.011059 0.001349 0.021105 0.004896
sent_93 -0.026178 -0.018399 -0.055487 -0.028548 -0.080627 0.076764 0.063061 0.001649 -0.023818 -0.016718 -0.068596 -0.024533 0.001318 0.061641 -0.071218 -0.008048 -0.008172 0.005584 -0.021292 -0.014734 0.068769 0.037995 -0.025462 -0.021769 0.049198 -0.054204 -0.060474 0.008613 0.109123 0.073459 -0.034843 0.028330 0.062158 0.017751 0.015182 0.083771 -0.109023 -0.088391 -0.021366 0.071312 -0.094568 0.083759 -0.008714 -0.087906 -0.008209 0.024474 -0.042092 0.036357 0.008955 0.029732 0.044576 0.011753 -0.014205 -0.148365 -0.077670 0.055087 0.083461 0.011516 -0.110163 -0.043961 0.065747 -0.003896 0.041864 -0.037893 -0.065206 0.029468 0.014782 -0.026819 -0.020651 0.023518 0.028508 -0.026019 0.055956 0.111302 0.058485 -0.092767 0.013672 0.055670 0.003195 -0.016320 0.069359 0.010242 0.092859 0.112941 0.158091 0.076369 -0.101853 -0.030322 0.009464 0.137760 -0.011489 -0.015758 0.071413 -0.020590 0.035636 0.052170 -0.053882 0.084655 -0.103738 -0.018926
sent_94 -0.026662 0.028457 0.042372 -0.042466 -0.088738 -0.038042 -0.006453 0.002246 0.053419 -0.000052 0.058976 -0.049679 0.016613 0.054464 -0.003664 -0.031374 -0.100023 -0.025507 -0.016943 0.039436 0.005037 -0.014113 0.038909 0.009189 -0.003873 -0.046509 0.043001 -0.008420 0.041270 0.011357 0.061489 0.021348 0.005032 0.040012 0.014511 0.025134 -0.061129 -0.011202 -0.005106 0.016559 -0.024485 0.003760 -0.039609 -0.051382 0.020397 -0.052378 0.019083 -0.004939 -0.051194 0.016686 0.033111 0.037221 0.070665 -0.005536 -0.034998 -0.054598 -0.002087 -0.015731 -0.019012 -0.048048 0.026354 -0.035104 -0.013138 -0.084444 -0.057077 -0.065362 0.019258 0.014435 -0.008990 -0.020798 0.002291 0.001783 0.097242 -0.011385 -0.015481 0.022067 -0.006094 0.015108 -0.023462 -0.015036 0.057006 0.020476 0.054284 0.079997 0.007962 -0.013058 -0.016108 0.057828 0.043858 -0.002834 -0.020694 -0.031381 -0.011247 -0.037636 0.022527 -0.042317 -0.020711 -0.002305 0.032441 -0.061388
sent_95 0.137499 -0.189364 -0.042328 0.165269 -0.026309 0.076788 0.062059 -0.124896 0.023976 0.040250 -0.084343 0.192074 -0.056063 0.055952 -0.227733 0.002784 -0.047684 -0.076191 -0.270369 -0.004846 0.040411 -0.106912 0.120397 -0.185615 0.081500 -0.117258 -0.046189 -0.012596 -0.067092 -0.056550 0.128017 0.072455 0.100525 0.036244 -0.079664 0.163491 -0.051708 -0.127202 -0.059779 0.030813 0.044605 0.298982 -0.034257 -0.204414 0.049398 -0.030609 -0.009116 0.085137 0.036581 0.171130 0.182899 -0.088896 0.039922 0.051594 -0.154837 0.107525 0.263759 0.118488 -0.006253 -0.113508 0.082641 -0.182793 -0.102452 -0.127616 -0.026034 -0.147441 0.002890 -0.219835 0.105183 0.157811 0.075395 0.045945 0.114397 -0.072877 0.337253 -0.037072 -0.053440 0.027501 0.063546 -0.015739 0.022832 -0.151009 -0.035059 0.134672 -0.141650 0.029691 -0.127443 -0.135549 0.015051 0.202444 0.101841 0.211404 0.063181 -0.141949 -0.027115 -0.007544 -0.085034 0.045404 -0.169764 0.110226
sent_96 0.027163 -0.062793 0.022734 0.020189 -0.006450 -0.016649 -0.030898 -0.024517 -0.006848 0.016440 -0.008883 0.028981 0.021962 0.008781 0.003736 -0.001999 -0.045323 -0.054895 0.018154 0.002454 -0.004984 -0.010842 0.044225 0.011891 0.054859 0.005500 -0.016621 0.013293 0.023479 0.020830 0.029669 -0.025852 0.018500 0.048157 0.049128 0.008676 -0.002980 -0.018016 -0.014643 0.044405 -0.022985 0.012135 -0.034154 -0.015200 0.024476 0.013839 -0.012020 -0.018385 0.003681 0.050241 0.016345 0.034164 0.000501 0.011052 0.025529 0.012221 0.072011 0.033268 -0.013210 0.007799 0.015074 -0.009762 -0.019135 0.024411 -0.002420 0.041204 0.005962 -0.053772 0.048984 0.027994 0.011017 0.023832 0.014863 -0.023732 0.000424 0.005374 -0.051234 0.032171 0.029766 0.018766 0.045822 0.030938 -0.004632 -0.025722 -0.011311 0.026449 0.012092 -0.013803 0.028029 0.016853 0.015267 0.026450 0.020728 -0.018261 0.017948 0.007395 -0.038745 -0.011468 -0.015219 0.007849
sent_97 0.094347 -0.037867 -0.187339 0.060526 -0.007451 0.072172 0.040889 -0.052252 -0.010650 0.009076 -0.030929 0.078120 -0.109180 0.055734 -0.036745 0.042974 0.055788 -0.032468 0.022403 -0.126251 0.076173 0.031460 -0.044741 0.086012 -0.165447 0.018256 0.007596 0.034167 -0.001810 -0.003182 0.038599 -0.010799 0.182124 -0.087983 0.043378 0.053522 0.068100 0.025342 0.111030 -0.121311 0.084477 0.068495 -0.083439 -0.059813 -0.032804 0.068500 0.087931 -0.026884 0.129230 -0.010974 0.011550 0.004920 -0.062913 -0.028778 -0.005728 0.085139 0.021587 -0.037383 0.050881 0.077420 0.045379 -0.070261 0.039227 0.269579 -0.027139 -0.087693 0.081433 -0.099452 0.093401 0.123142 0.079312 -0.112558 -0.038263 0.073600 -0.139755 -0.145094 0.059298 -0.007725 -0.030021 0.150961 0.032975 0.001538 0.052552 -0.072151 -0.167522 0.077318 -0.004377 -0.127006 -0.029357 0.020801 0.124572 0.120463 -0.002822 0.008879 0.073997 0.164828 -0.085825 -0.102824 -0.098719 0.020998
sent_98 0.062542 0.018797 -0.075118 0.056726 0.022539 0.016970 0.097264 -0.042814 0.072628 0.062390 0.001320 0.030035 -0.078768 0.010928 -0.052803 -0.037529 0.049650 -0.047352 0.049461 -0.089485 0.009016 0.022134 0.008813 0.004640 -0.148646 -0.035339 -0.038101 0.039304 -0.004410 -0.004828 0.001279 0.013617 0.142917 -0.069705 0.025925 0.085951 0.066396 0.008105 0.031923 -0.107706 0.136030 0.064148 -0.064641 -0.011821 0.017969 0.013518 0.033061 -0.069348 0.152551 0.001663 0.000955 -0.014121 -0.072986 -0.059868 0.006759 0.130551 0.061674 -0.057005 0.011266 0.010880 0.048924 -0.029161 0.026442 0.154890 0.003146 -0.047969 0.062553 -0.076151 0.057277 0.108103 0.092558 -0.028287 0.009128 -0.006326 -0.062192 -0.093076 0.077649 -0.044509 0.008037 0.086326 0.042055 -0.046148 0.059540 -0.015694 -0.212242 0.037030 0.021057 -0.092915 -0.068386 0.005554 0.119363 0.088753 0.037525 -0.013530 0.111123 0.111039 -0.083691 -0.074822 -0.061407 0.074273
sent_99 -0.121799 0.079646 0.174375 -0.078282 -0.123665 -0.108588 0.005702 0.001024 -0.033261 0.058689 -0.008415 -0.050456 -0.063186 -0.039498 0.029280 0.148121 -0.113693 -0.033745 0.096813 -0.067461 0.078433 0.087250 0.148653 0.005567 0.078837 0.076662 0.048436 0.042038 0.107017 0.109623 0.064162 0.022730 -0.087391 0.090836 0.008643 0.036641 -0.192928 -0.069066 0.047645 0.029121 -0.212649 -0.022985 -0.007413 -0.046892 0.036267 -0.014005 0.056933 0.040679 -0.109693 0.139753 0.112507 0.143208 0.179618 -0.107560 0.071694 -0.058832 0.061150 -0.031410 -0.036891 -0.084992 -0.030911 0.038649 -0.255263 -0.147654 -0.023538 0.094787 0.022555 0.056635 -0.004961 -0.038741 -0.109632 0.003631 0.058553 -0.169065 -0.051698 0.127455 -0.041580 -0.048857 -0.094199 0.015713 0.067011 0.008672 -0.039918 0.100793 0.163906 0.030439 0.074132 0.146150 0.176908 0.013850 -0.098201 0.003491 0.017728 0.052232 0.072835 -0.097688 -0.043123 -0.060253 -0.112588 -0.061882
sent_100 0.073213 0.048521 -0.109573 0.032350 -0.053845 -0.024669 -0.011313 -0.013586 -0.025499 0.038938 0.028126 -0.009191 0.012915 0.000366 -0.046658 -0.034813 -0.009355 -0.068830 -0.034094 0.008090 0.001990 -0.013938 0.010708 0.025282 -0.033086 -0.090300 0.108360 -0.049617 -0.000801 0.069283 -0.010643 -0.017153 -0.000590 -0.002031 0.033404 -0.002281 -0.019978 0.041442 -0.040787 0.036938 0.014759 -0.051191 0.027990 0.041537 -0.048044 -0.091643 -0.070005 0.016344 -0.043239 -0.090518 -0.010752 0.027168 -0.014849 -0.023818 -0.051465 -0.043606 -0.025666 0.015027 0.010363 0.010216 0.016361 -0.045229 0.007938 -0.012742 -0.111542 -0.032441 0.019351 0.035535 0.017860 0.000481 -0.034332 -0.050739 0.018827 0.009975 -0.065262 0.025393 -0.027511 0.105816 0.013882 -0.032401 -0.022527 0.088755 0.091294 -0.027871 0.002082 0.040930 -0.005603 0.008192 0.025992 0.014341 -0.012456 -0.042182 0.002812 0.006845 0.075363 0.107659 -0.051781 -0.019461 0.080510 -0.033945
sent_101 -0.079112 -0.011777 0.123871 -0.034778 -0.077072 -0.054886 0.008926 0.012039 0.029965 -0.022104 0.042336 -0.016233 0.008223 -0.055745 0.033083 -0.043528 -0.114729 -0.083098 0.075514 0.020019 0.007479 -0.047678 0.077239 0.018290 0.047819 -0.060452 0.077915 0.006918 0.060602 0.035052 0.027581 -0.010132 -0.028595 0.063041 0.028528 0.054755 -0.127938 -0.009683 -0.026703 0.097578 -0.010738 -0.026203 0.032461 -0.004691 0.012640 -0.062639 -0.039673 -0.059054 -0.014162 0.055195 0.028457 0.011245 0.041857 0.020372 -0.017930 -0.029732 0.015464 0.002267 -0.004436 0.000830 0.007140 0.032934 -0.077248 -0.057361 -0.029786 -0.070522 0.017424 0.003204 -0.000261 -0.018386 0.044646 0.005691 0.063184 -0.002829 0.014912 0.070254 -0.047838 0.028209 0.032256 0.020332 0.050340 0.026680 0.053549 0.034668 0.029566 -0.075772 0.014383 0.020912 0.021668 0.021279 -0.035800 -0.063950 0.014579 0.036443 0.000392 -0.033860 -0.008180 -0.038053 -0.046899 -0.072691
sent_102 -0.082235 0.010560 0.001561 0.060919 0.105853 0.013010 -0.024431 -0.045932 0.057246 0.032071 0.135786 -0.074304 0.176096 -0.115857 0.032798 -0.277286 -0.079616 -0.017167 -0.128974 0.014655 0.003372 -0.184951 -0.175889 -0.058085 0.119370 -0.153629 0.228809 -0.144464 -0.007926 0.034706 -0.030977 0.071578 0.034129 0.099651 -0.049286 -0.040953 -0.036252 -0.029055 -0.204595 0.304931 0.133025 0.120027 -0.022453 0.041871 -0.029270 -0.206987 -0.228576 0.005049 -0.050711 0.061959 -0.240924 -0.149406 -0.040490 0.206915 0.018640 -0.121165 -0.083492 -0.007204 0.076775 0.119103 0.070186 -0.102687 -0.082803 -0.026346 -0.090692 -0.069347 -0.044869 0.078355 -0.020282 -0.015192 0.044553 0.037550 -0.047714 0.085558 0.018304 0.121012 -0.151259 0.279611 0.235529 0.056628 -0.011504 -0.072058 0.150640 -0.079866 -0.004474 -0.093932 0.062577 0.086398 0.179539 0.106607 -0.038548 -0.038433 0.059432 -0.035353 0.012670 -0.049237 0.145153 0.250630 0.125133 -0.168664
sent_103 -0.033004 0.016831 0.025789 -0.037675 -0.000630 0.018417 0.009234 0.053402 0.027438 -0.088118 0.112722 -0.071581 0.064714 0.022452 0.087461 0.007140 -0.047705 0.047826 -0.001822 0.053806 -0.020281 -0.057516 -0.075778 0.066241 -0.014510 -0.024622 0.057721 0.013062 0.055219 -0.011502 -0.093159 0.062619 -0.028667 -0.024375 -0.052425 -0.006193 0.018233 0.064388 0.041344 -0.027248 0.063712 -0.006565 0.015751 -0.056430 -0.005938 0.030338 0.022528 -0.050963 0.001148 0.005300 -0.015967 -0.065997 0.008030 0.029443 -0.051030 -0.113670 -0.097127 -0.063743 0.057177 -0.008998 -0.031854 -0.008902 0.017099 -0.077302 -0.083453 -0.131532 -0.038359 0.014119 -0.014942 -0.065059 0.030906 -0.011208 0.021442 -0.020074 -0.006311 0.015343 0.022356 -0.010834 -0.022251 0.029563 -0.018282 0.004997 -0.020809 0.072521 0.005813 -0.147412 -0.053333 0.003065 -0.000398 -0.057793 -0.080940 -0.033944 -0.064795 -0.032830 -0.071563 -0.066377 0.067895 0.055369 -0.003003 -0.078286
