SVM-light Version V6.02
1 # kernel type
3 # kernel parameter -d 
1 # kernel parameter -g 
1 # kernel parameter -s 
1 # kernel parameter -r 
empty# kernel parameter -u 
100 # highest feature index 
966 # number of training documents 
426 # number of support vectors plus 1 
1.0424093 # threshold b, each following line is a SV (starting with alpha*y)
-0.12395044081012542014352817432155 1:0.0031310001 2:0.066078 3:-0.023698 4:-0.0090420004 5:-0.034435 6:0.020451 7:-0.040704999 8:0.029224001 9:-0.058515999 10:0.069502003 11:-0.071184002 12:0.026807999 13:-0.020470001 14:0.049651001 15:-0.001363 16:0.072801001 17:0.108851 18:0.094719999 19:-0.107755 20:0.004073 21:0.088134997 22:0.059137002 23:-0.00086600002 24:0.025153 25:0.027889 26:0.101062 27:-0.00985 28:0.057431001 29:0.0089149997 30:0.108221 31:0.062992997 32:-0.026110001 33:-0.031507999 34:-0.013845 35:-0.0097380001 36:-0.051876999 37:0.034141999 38:-0.0087689999 39:0.078382999 40:-0.030366 41:-0.089961998 42:-0.0017659999 43:-0.085987002 44:-0.078648999 45:0.038176 46:0.132147 47:0.047497999 48:0.038472001 49:0.032058001 50:0.0050479998 51:-0.034627002 52:0.040157001 53:0.056285001 54:-0.029513 55:-0.033266 56:0.0019950001 57:0.121277 58:-0.076595999 59:0.031004 60:-0.042181 61:-0.004772 62:0.028795 63:0.010051 64:0.130025 65:0.021555999 66:-0.010283 67:0.000489 68:0.011864 69:0.038447998 70:0.042101 71:-0.015185 72:0.061041001 73:-0.016974 74:-0.015074 75:0.01864 76:-0.082154997 77:0.064733997 78:-0.0022450001 79:-0.104203 80:0.043857001 81:0.019928999 82:-0.138521 83:-0.008076 84:0.043049999 85:0.054832999 86:0.089902997 87:0.033038002 88:0.0065799998 89:0.086336002 90:0.063845001 91:0.069558002 92:0.097944997 93:-0.056676999 94:0.094829999 95:-0.077987 96:-0.041129 97:0.018943001 98:0.063317001 99:-0.030693 100:0.038500998 #
-0.17842685745327432900175779195706 1:-0.025591999 2:-0.014376 3:0.077123001 4:-0.023197001 5:0.0098740002 6:-0.065188996 7:-0.129311 8:0.027897 9:-0.070139997 10:0.025397999 11:-0.121506 12:0.024947001 13:-0.0023660001 14:-0.019733001 15:0.034022 16:0.086167999 17:0.049307 18:-0.026583999 19:0.071721002 20:-0.011349 21:0.033495001 22:0.039953999 23:-0.021005001 24:0.0074109999 25:0.0057259998 26:0.077292003 27:-0.017580001 28:0.03658 29:0.035411 30:0.072543003 31:0.17479999 32:0.023542 33:-0.041244999 34:0.031992 35:-0.0092829997 36:-0.057829 37:0.066715002 38:0.042257 39:0.081913002 40:-0.060217999 41:-0.18657599 42:-0.043983001 43:-0.117552 44:-0.091819003 45:0.0069869999 46:0.067870997 47:0.020085 48:0.0042570001 49:0.063331999 50:0.097363003 51:0.031230999 52:0.134296 53:0.072898999 54:0.057229001 55:0.047249001 56:-0.195151 57:0.104878 58:-0.00083199999 59:-0.050464999 60:-0.038113002 61:-0.085423 62:0.017591 63:-0.071259998 64:0.071501002 65:0.072195001 66:0.11529 67:-0.021910001 68:-0.012782 69:0.056984998 70:-0.060008001 71:-0.060417 72:-0.046866 73:-0.036148001 74:-0.055872001 75:-0.050709002 76:0.065228999 77:-0.067690998 78:-0.105405 79:-0.037014 80:0.052501999 81:-0.026467999 82:-0.016581999 83:-0.077368997 84:0.114782 85:-0.013973 86:0.0080920001 87:-0.034132 88:0.110748 89:-0.020233 90:0.033718001 91:-0.036623999 92:-0.025296001 93:-0.014711 94:0.067638002 95:-0.04634 96:0.010454 97:-0.007528 98:-0.067750998 99:-0.024630001 100:-0.113774 #
-0.078845123079063328397353416221449 1:-0.062737003 2:0.040895 3:0.083232999 4:-0.067884997 5:-0.14117301 6:-0.034088001 7:0.068765998 8:0.054379001 9:0.001059 10:-0.047262002 11:-0.013997 12:0.034306001 13:0.001259 14:-0.087797001 15:0.0064670001 16:0.034892999 17:-0.0057120002 18:-0.038869999 19:0.089585997 20:-0.062146001 21:0.050725002 22:0.039225001 23:0.044493999 24:0.0081129996 25:0.030035 26:0.026555 27:0.068000004 28:0.038376 29:0.071900003 30:0.090075999 31:0.12709101 32:-0.021950999 33:0.037981 34:0.089138001 35:0.060603999 36:0.057765 37:-0.084137 38:0.029070999 39:-0.112249 40:0.033672001 41:0.04397 42:0.048441 43:0.085560001 44:-0.027465001 45:-0.035331 46:0.051924001 47:0.093888 48:0.032122001 49:-0.031998999 50:0.011341 51:0.031036999 52:0.066522002 53:-0.0052749999 54:-0.103261 55:0.086260997 56:-0.057387002 57:0.0090039996 58:-0.024607001 59:0.063190997 60:-0.057930999 61:0.012681 62:0.069231004 63:-0.097567998 64:0.021317 65:0.015895 66:0.017085001 67:0.075616002 68:0.084020004 69:-0.052023001 70:-0.012847 71:-0.055746999 72:0.036471002 73:0.047116999 74:-0.060298 75:-0.046964999 76:0.079097003 77:0.076344997 78:0.001615 79:0.033225998 80:-0.023345999 81:0.017725 82:0.048478998 83:0.052604999 84:0.062027 85:0.066854998 86:0.015079 87:0.020203 88:0.102298 89:0.058534998 90:0.098220997 91:0.0082679996 92:0.059686001 93:0.025965 94:0.023603 95:0.044360999 96:-0.034065999 97:-0.035842001 98:-0.035668001 99:-0.002593 100:-0.052473001 #
-0.064873867737865548166453777412244 1:-0.111443 2:0.010477 3:-0.0080070002 4:0.044725001 5:-0.064359002 6:-0.004001 7:0.091390997 8:0.000186 9:0.16545101 10:0.020477001 11:0.036534999 12:-0.049920999 13:0.183357 14:-0.085631996 15:0.024402 16:-0.164162 17:-0.14890499 18:0.020742999 19:-0.119505 20:0.073618002 21:0.0049530002 22:-0.083526 23:0.019393001 24:0.060879 25:-0.00053800002 26:-0.153742 27:0.116297 28:-0.173914 29:0.19809 30:0.052754998 31:0.0050059999 32:0.046126999 33:0.020989001 34:0.152812 35:0.058844998 36:0.022162 37:-0.116098 38:-0.180474 39:0.022126 40:0.12545501 41:-0.025305999 42:-0.034706999 43:-0.037413999 44:0.052882999 45:-0.014869 46:-0.145587 47:-0.143852 48:-0.017696001 49:-0.122784 50:0.083281003 51:0.041954 52:0.053739998 53:0.095729999 54:0.088643998 55:-0.073036999 56:-0.0050750002 57:-0.021189 58:0.010085 59:-0.03497 60:0.0041550002 61:0.083068997 62:-0.082489997 63:-0.047297001 64:-0.093014002 65:-0.086286001 66:-0.133736 67:0.0021850001 68:0.0033780001 69:-0.017479001 70:0.0098080002 71:0.082428999 72:-0.063947 73:0.027463 74:-0.019809 75:0.0090119997 76:0.083237998 77:-0.123134 78:0.15100101 79:-0.044975001 80:0.035487998 81:0.077331997 82:-0.046362001 83:0.0075309998 84:-0.080344997 85:0.102873 86:-0.067699 87:0.019524001 88:0.024600999 89:0.075104997 90:0.075048998 91:-0.13608301 92:-0.084184997 93:0.019853 94:-0.079798996 95:-0.0096690003 96:0.063689999 97:0.0086740004 98:0.176278 99:0.046836998 100:-0.066725001 #
-0.20344601428247435781493379636231 1:-0.197926 2:0.062412001 3:-0.038910002 4:-0.01701 5:-0.077878997 6:0.200481 7:0.111028 8:0.151493 9:0.136687 10:-0.027524 11:0.135809 12:0.014631 13:0.080697 14:-0.104654 15:-0.125275 16:-0.084826998 17:-0.081840001 18:-0.022878001 19:-0.111653 20:0.077215001 21:0.018514 22:-0.188669 23:0.0090899998 24:-0.125351 25:0.166724 26:-0.102724 27:0.022880999 28:-0.13901301 29:0.219768 30:-0.165115 31:0.053844001 32:-0.010058 33:0.013772 34:0.079092003 35:0.045380998 36:-0.118086 37:-0.166719 38:-0.105589 39:-0.0066809999 40:0.041182 41:-0.059519999 42:0.020795999 43:-0.030712999 44:-0.098393001 45:-0.054053001 46:-0.132118 47:-0.20724399 48:0.034756001 49:-0.044569999 50:0.041444998 51:0.108597 52:-0.100371 53:0.109503 54:-0.027446 55:-0.175777 56:0.123525 57:0.088303998 58:-0.103305 59:0.046629 60:0.05728 61:0.0084410002 62:0.0040970002 63:-0.067364 64:-0.033404 65:-0.236699 66:-0.298632 67:-0.25810799 68:-0.012762 69:-0.059186999 70:-0.154008 71:0.247044 72:0.051959999 73:0.076925002 74:0.011434 75:-0.015191 76:0.048992999 77:-0.003612 78:-0.082773998 79:-0.096537001 80:0.097194001 81:0.089656003 82:0.019206 83:-0.082800999 84:0.027494 85:-0.056609999 86:-0.262288 87:-0.038196001 88:-0.13270099 89:-0.032427002 90:0.012114 91:-0.179628 92:-0.085435003 93:0.129179 94:-0.12772 95:-0.057585001 96:0.085037 97:0.12819 98:-0.098894998 99:-0.011639 100:-0.086216003 #
0.26476015436042893425039324029058 1:-0.042800002 2:-0.032464001 3:-0.056731999 4:-0.020087 5:-0.101238 6:0.10337 7:0.14773799 8:0.054758999 9:0.147569 10:-0.130943 11:0.038114 12:-0.091851003 13:0.132787 14:-0.044027001 15:-0.052657001 16:-0.089911997 17:-0.0099250004 18:0.0048810001 19:-0.122771 20:0.096938998 21:-0.072058998 22:-0.060991999 23:-0.00154 24:0.099958003 25:-0.059928998 26:-0.062475 27:-0.016308 28:-0.128903 29:0.046348002 30:-0.054960001 31:-0.044240002 32:-0.0091070002 33:0.004342 34:0.078869 35:0.069604002 36:0.027491 37:-0.055491999 38:-0.112027 39:0.0091829998 40:-0.050872002 41:0.019047 42:0.013836 43:-0.01018 44:-0.061872002 45:-0.092854999 46:-0.025384 47:0.038453002 48:0.072599001 49:-0.085326001 50:-0.077903003 51:0.070410997 52:-0.041724 53:-0.019586001 54:-0.043683998 55:-0.113852 56:0.003059 57:-0.103579 58:-0.091449998 59:0.011177 60:-0.012139 61:-0.032405999 62:-0.097397 63:-0.015237 64:-0.052460998 65:-0.162104 66:-0.158327 67:-0.100858 68:-0.13184801 69:-0.061131001 70:-0.0095600002 71:0.102955 72:-0.02351 73:0.099797003 74:0.005264 75:0.012155 76:-0.020877 77:-0.061912999 78:0.067896999 79:0.01403 80:-0.040256001 81:-0.028329 82:0.0042110002 83:0.0091829998 84:-0.037036002 85:-0.013403 86:-0.086709 87:-0.0046319999 88:-0.090967998 89:-0.013172 90:-0.095020004 91:-0.045729998 92:-0.061687 93:0.0072880001 94:-0.118363 95:-0.019804999 96:-0.025948999 97:0.012067 98:-0.032202002 99:0.063332997 100:0.039071001 #
0.26476015436042893425039324029058 1:0.037064001 2:-0.078253001 3:0.014615 4:0.01414 5:-0.010658 6:-0.014397 7:-0.025586 8:-0.031261001 9:-0.007679 10:0.01271 11:-0.018067 12:0.040683001 13:0.030746 14:0.002055 15:-0.00053800002 16:0.001519 17:-0.053238001 18:-0.057482 19:0.01486 20:-0.0025899999 21:-0.011766 22:-0.019028001 23:0.049385 24:0.019045001 25:0.066826001 26:0.009362 27:-0.022159001 28:0.015999001 29:0.028213 30:0.018104 31:0.031881001 32:-0.041933 33:0.025961 34:0.061437 35:0.058033001 36:0.015843 37:-0.0053019999 38:-0.027332 39:-0.035308 40:0.056710999 41:-0.033847999 42:0.013411 43:-0.047639001 44:-0.020319 45:0.020366 46:0.025813 47:-0.0067639998 48:-0.021175001 49:-0.0029829999 50:0.064985998 51:0.022779001 52:0.039602 53:-0.0054009999 54:-0.0042400002 55:0.023451 56:0.029932 57:0.079354003 58:0.043806002 59:-0.011221 60:0.0063140001 61:0.017310999 62:-0.013429 63:-0.036458999 64:0.035018999 65:-0.01401 66:0.046385001 67:0.0099379998 68:-0.073785 69:0.052634001 70:0.050795 71:0.018625 72:0.030151 73:0.017798999 74:-0.028069001 75:-0.003547 76:-0.0050659999 77:-0.045690998 78:0.047598001 79:0.036637001 80:0.013623 81:0.063262001 82:0.034704 83:0.001165 84:-0.023150999 85:-0.00051300001 86:0.036733001 87:0.019078 88:-0.019096 89:0.041425001 90:0.021863 91:0.030339999 92:0.040904 93:0.028452 94:-0.010597 95:0.037361 96:0.0081540002 97:-0.052113 98:-0.010452 99:-0.027488999 100:0.017825 #
0.26476015436042893425039324029058 1:0.077849001 2:-0.020703999 3:-0.175356 4:0.039168 5:-0.004007 6:0.082517996 7:0.04857 8:-0.033470001 9:-0.0085070003 10:-0.0099290004 11:-0.0047249999 12:0.060802002 13:-0.109296 14:0.046776999 15:-0.043623999 16:0.050195001 17:0.062999003 18:-0.02846 19:0.014555 20:-0.12804399 21:0.072072998 22:0.030363999 23:-0.033642001 24:0.076035999 25:-0.144036 26:0.028301001 27:0.027782001 28:0.027741 29:0.017558999 30:-0.0059159999 31:0.032802999 32:-0.011509 33:0.15674099 34:-0.071075998 35:0.048129998 36:0.054951001 37:0.052274 38:0.024444999 39:0.092814997 40:-0.116707 41:0.072581999 42:0.053782001 43:-0.069392003 44:-0.061303001 45:-0.031089 46:0.070762999 47:0.097668998 48:-0.030944001 49:0.11344 50:-0.015322 51:0.011811 52:-0.001838 53:-0.053916 54:-0.042925999 55:-0.018363001 56:0.065293998 57:0.0081580002 58:-0.036219001 59:0.044537 60:0.073905997 61:0.031888001 62:-0.060538001 63:0.028511001 64:0.22928999 65:-0.034740001 66:-0.063139997 67:0.062647 68:-0.091601998 69:0.077629998 70:0.101336 71:0.072144002 72:-0.098964997 73:-0.026918 74:0.059714001 75:-0.14215 76:-0.131124 77:0.052528001 78:-0.019483 79:-0.031438001 80:0.129161 81:0.027586 82:-0.00070700003 83:0.040018 84:-0.062739998 85:-0.149326 86:0.057436001 87:-0.007706 88:-0.119061 89:-0.023862001 90:0.017690999 91:0.103625 92:0.107255 93:-0.0041080001 94:0.007559 95:0.067057997 96:0.129217 97:-0.058541998 98:-0.106653 99:-0.080311999 100:0.022157 #
0.26476015436042893425039324029058 1:0.092133 2:0.0021919999 3:-0.073574997 4:0.093254998 5:-0.0038109999 6:0.024979999 7:0.085055001 8:-0.059923001 9:0.056503002 10:0.120621 11:-0.044691999 12:0.052703001 13:-0.092712 14:-0.014643 15:-0.075471997 16:-0.043501999 17:0.072512001 18:-0.10607 19:0.056511 20:-0.119849 21:0.01381 22:0.042707998 23:-0.015127 24:0.0040460001 25:-0.160823 26:-0.036628 27:-0.053614002 28:0.043216001 29:-0.027898001 30:0.001226 31:0.058102001 32:-0.016785 33:0.180408 34:-0.077257998 35:0.043117002 36:0.093941003 37:0.120867 38:0.001466 39:0.050992999 40:-0.134455 41:0.18411399 42:0.11509 43:-0.121078 44:-0.035749 45:0.020144001 46:0.021604 47:0.045348 48:-0.074808002 49:0.203786 50:0.010367 51:-0.01542 52:0.030727999 53:-0.103892 54:-0.053819001 55:0.016627001 56:0.15412401 57:0.13236301 58:-0.052120999 59:0.025284 60:0.020036001 61:0.032235 62:-0.039531998 63:0.0079619996 64:0.26145101 65:0.013691 66:-0.035401002 67:0.092009 68:-0.093024001 69:0.061418999 70:0.137049 71:0.097117998 72:-0.028960001 73:0.0050900001 74:-0.026291 75:-0.083268002 76:-0.10087 77:0.069813997 78:-0.061524 79:0.035225 80:0.15566 81:0.033482 82:-0.048900001 83:0.065642998 84:-0.039900001 85:-0.34577399 86:0.062302001 87:0.040929999 88:-0.10566 89:-0.082727 90:0.0017190001 91:0.185119 92:0.101155 93:0.056767002 94:-0.033854 95:0.14482599 96:0.17581201 97:-0.11164 98:-0.122619 99:-0.066209003 100:0.104661 #
0.26476015436042893425039324029058 1:-0.121215 2:-0.025713 3:0.12766001 4:-0.095527001 5:-0.22770301 6:0.107821 7:0.028911 8:0.067550004 9:0.083205 10:-0.017014001 11:0.065730996 12:-0.16732199 13:0.060540002 14:-0.020067999 15:0.042454999 16:-0.065173998 17:-0.205617 18:-0.075281002 19:0.013495 20:0.065320998 21:0.05686 22:-0.107509 23:0.0042920001 24:0.088550001 25:0.014237 26:-0.165383 27:0.18416899 28:-0.124587 29:0.105179 30:-0.029175 31:0.087775998 32:-0.016277 33:-0.016156999 34:0.100224 35:-0.018944001 36:0.023336001 37:-0.085069001 38:-0.109397 39:0.010685 40:0.123109 41:0.05359 42:-0.038302999 43:-0.017397 44:-0.059463002 45:0.023934999 46:-0.107358 47:0.00911 48:-0.0040660002 49:-0.059062999 50:0.0090709999 51:-0.011422 52:0.016207 53:0.045373999 54:0.058991998 55:-0.139494 56:-0.056205999 57:-0.072429001 58:-0.061891999 59:0.081545003 60:-0.010982 61:0.083067998 62:0.024098 63:-0.053128 64:-0.015158 65:-0.16405 66:-0.19229101 67:0.03506 68:-0.026108 69:-0.076963998 70:-0.053622 71:0.058118999 72:-0.057521999 73:0.087022997 74:0.050189 75:-0.082250997 76:-0.017271001 77:-0.014937 78:0.001789 79:0.087472998 80:0.084096998 81:0.040614001 82:0.055165 83:0.103695 84:0.091302998 85:-0.033567999 86:-0.113731 87:0.046041001 88:0.050790999 89:0.076958001 90:-0.043122001 91:0.026327001 92:-0.091096997 93:0.001249 94:-0.121989 95:-0.020346999 96:-0.114736 97:-0.002235 98:-0.085542001 99:0.0064460002 100:-0.123935 #
0.26476015436042893425039324029058 1:0.042027999 2:0.063293003 3:-0.043288 4:-0.020842999 5:-0.036872 6:-0.035176001 7:0.041324001 8:0.0065939999 9:-0.047038 10:-0.052439 11:0.033066999 12:0.022167001 13:-0.024405999 14:0.023931 15:0.012611 16:0.069219999 17:-0.028632 18:0.00288 19:0.033064999 20:-0.021345999 21:0.042346001 22:0.010216 23:-0.015551 24:0.032384001 25:0.038483001 26:-0.056249 27:-0.038022 28:0.054283001 29:0.029480999 30:0.042606998 31:-0.056834001 32:0.041051 33:0.029418999 34:0.013451 35:0.01895 36:0.034766 37:-0.021491 38:0.026787 39:-0.056304999 40:-0.016102999 41:0.019787 42:0.0087139998 43:0.02118 44:0.0041479999 45:-0.047843002 46:0.016023001 47:0.031934999 48:0.018397 49:-0.016308 50:-0.014457 51:0.032088999 52:-0.013112 53:-0.058130998 54:-0.063170999 55:-0.038566001 56:0.0030980001 57:-0.002483 58:-0.032582998 59:0.014774 60:-0.008777 61:0.0080399998 62:-0.012111 63:-0.00042 64:-0.0034660001 65:-0.023746001 66:-0.066271 67:0.0029730001 68:-0.022828 69:0.023796 70:0.002448 71:-0.027954999 72:-0.0080519998 73:-0.001377 74:-0.049129002 75:-0.0090910001 76:0.01265 77:0.055199001 78:0.053399999 79:0.0092120003 80:-0.041572999 81:0.036223002 82:0.047350999 83:0.05742 84:0.036998998 85:0.085910998 86:0.042734001 87:-0.0076700002 88:-0.014843 89:0.011091 90:0.062105 91:0.027236 92:0.025831001 93:-0.019820999 94:-0.0030960001 95:-0.016267 96:0.038275 97:-0.012439 98:0.022287 99:-0.010434 100:0.019510999 #
-0.26476015436042893425039324029058 1:0.097690001 2:-0.023011999 3:-0.213282 4:0.059772 5:-0.0036289999 6:0.099799998 7:0.069130003 8:-0.045469001 9:0.0062449998 10:0.013898 11:-0.008835 12:0.081896998 13:-0.118358 14:0.039306 15:-0.058963001 16:0.045717999 17:0.080522001 18:-0.042638998 19:0.011309 20:-0.171602 21:0.082580999 22:0.036616001 23:-0.036522999 24:0.083881997 25:-0.19767401 26:0.033755001 27:0.032923002 28:0.016799999 29:0.016919 30:-0.0077979998 31:0.054074999 32:-0.023182999 33:0.19881301 34:-0.075880997 35:0.072927997 36:0.074680999 37:0.068907 38:0.016365999 39:0.108498 40:-0.153368 41:0.092289001 42:0.081029996 43:-0.097861998 44:-0.066508003 45:-0.037723001 46:0.065697998 47:0.118992 48:-0.037443999 49:0.146594 50:-0.022692 51:0.018036 52:0.016712001 53:-0.055002999 54:-0.041402001 55:-0.001041 56:0.096972004 57:0.018126 58:-0.050319999 59:0.047067001 60:0.094981998 61:0.040433001 62:-0.082051001 63:0.021929 64:0.29189599 65:-0.037857998 66:-0.091718003 67:0.084412001 68:-0.102175 69:0.096546002 70:0.134451 71:0.098509997 72:-0.106893 73:-0.027713001 74:0.067993999 75:-0.181596 76:-0.147357 77:0.033861 78:-0.019382 79:-0.032267999 80:0.176697 81:0.027331 82:-0.0080730002 83:0.059631001 84:-0.101802 85:-0.193764 86:0.078084998 87:-0.0021019999 88:-0.142187 89:-0.027752001 90:0.016078999 91:0.113874 92:0.131988 93:-0.0046020001 94:0.002998 95:0.094022997 96:0.17812 97:-0.071423002 98:-0.12610801 99:-0.099459 100:0.026391 #
-0.18131722992078769252088932262268 1:0.023055 2:-0.048648998 3:-0.025838001 4:-0.0022169999 5:0.067504004 6:0.105543 7:0.040690999 8:0.025542 9:-0.024745001 10:0.028147001 11:-0.020912999 12:-0.027434001 13:0.030276 14:-0.027555 15:-0.106632 16:0.054501001 17:0.058171 18:0.085317999 19:-0.027817 20:0.0013839999 21:-0.022661 22:-0.040348999 23:0.014375 24:-0.013116 25:-0.0082109999 26:0.025350999 27:-0.00599 28:0.0021929999 29:0.019684 30:0.095854998 31:0.030872 32:-0.0208 33:0.011084 34:-0.0033170001 35:-0.070283003 36:-0.00126 37:0.02699 38:-0.065057002 39:-0.019661 40:0.046946999 41:-0.069316998 42:0.038617998 43:-0.04696 44:-0.010593 45:-0.026121 46:-0.005895 47:0.086493 48:0.0086300001 49:0.100444 50:0.01582 51:0.10753 52:-0.052547999 53:0.058162 54:-0.027578 55:0.015335 56:0.016302001 57:0.106286 58:-0.016015001 59:-0.045460999 60:0.0059369998 61:0.036472 62:-0.055576999 63:-0.057314001 64:-0.0092569999 65:-0.103421 66:-0.050475001 67:-0.040481001 68:-0.0075650001 69:0.053794 70:-0.025248 71:-0.068240002 72:-0.010731 73:0.03737 74:0.035980999 75:0.016031999 76:-0.080729999 77:-0.059137002 78:-0.046122 79:0.019095 80:0.029193999 81:0.03277 82:-0.009819 83:-0.013587 84:0.010192 85:0.044132002 86:-0.007466 87:-0.13431901 88:0.018149 89:0.017255001 90:0.038350999 91:-0.062683001 92:0.12679601 93:0.01229 94:-0.017273 95:0.023644 96:0.057633001 97:-0.067033 98:0.026268 99:-0.047912002 100:0.0045070001 #
0.1790331011078090950316976659451 1:-0.228699 2:0.118107 3:0.067495003 4:-0.062027 5:-0.14126199 6:0.25837499 7:0.044945002 8:0.065072 9:0.023483001 10:0.061923999 11:-0.022129999 12:0.075868003 13:-0.021476001 14:0.027412999 15:-0.086216003 16:0.145395 17:-0.13291 18:-0.081959002 19:-0.17140099 20:0.0096300002 21:0.230707 22:-0.108807 23:0.16279399 24:0.043634001 25:0.070189998 26:-0.34006801 27:0.241283 28:-0.238103 29:-0.049288001 30:0.054910999 31:0.075478002 32:-0.0079159997 33:0.011995 34:0.143528 35:0.017997 36:-0.027069001 37:-0.15604401 38:-0.360816 39:-0.2608 40:0.19976 41:0.044013001 42:-0.0075690001 43:0.139964 44:0.12670299 45:-0.095421001 46:-0.128362 47:-0.129235 48:0.076738998 49:-0.052389 50:0.163984 51:0.115797 52:0.033261999 53:0.027387001 54:0.19572601 55:-0.26229599 56:0.145822 57:0.085464001 58:-0.008254 59:0.144008 60:-0.022497 61:0.31061 62:0.052703999 63:0.024104999 64:0.057172999 65:-0.033817999 66:-0.14964101 67:-0.049621001 68:0.0051210001 69:-0.018863 70:-0.066547997 71:0.035792999 72:0.080531999 73:0.028454 74:0.085781001 75:0.143016 76:0.158793 77:0.037117001 78:0.175615 79:0.121378 80:0.1106 81:-0.166025 82:-0.23460899 83:0.080753997 84:0.061893001 85:0.14050101 86:0.062761001 87:0.086889997 88:0.039891999 89:0.059080001 90:0.277637 91:0.098186001 92:0.028599 93:0.049398001 94:-0.15625399 95:-0.172273 96:-0.216074 97:-0.124281 98:0.120218 99:-0.107338 100:-0.086484 #
0.25274225490980384289940730013768 1:-0.034192 2:-0.089253001 3:-0.32694101 4:0.028233999 5:-0.117647 6:0.0060530002 7:-0.039278001 8:0.113661 9:-0.010128 10:-0.14137 11:-0.22259501 12:0.087448001 13:0.058667999 14:0.19117101 15:-0.067702003 16:0.044714 17:0.087071002 18:0.28407401 19:-0.25666001 20:0.175868 21:0.085859999 22:-0.084547997 23:-0.26128101 24:-0.034345001 25:-0.066216998 26:0.012167 27:0.0047070002 28:-0.119497 29:0.066496 30:0.089620002 31:0.15938801 32:0.192246 33:0.124214 34:-0.051346999 35:-0.20225 36:-0.038187001 37:-0.097608998 38:-0.019626001 39:0.210878 40:-0.00077699998 41:-0.331871 42:0.048516002 43:-0.219338 44:-0.121228 45:-0.054313 46:0.013953 47:-0.087594002 48:0.173721 49:-0.040587001 50:-0.065412998 51:-0.013923 52:0.087939002 53:0.172809 54:0.041395999 55:-0.386235 56:-0.126616 57:0.146515 58:-0.094380997 59:-0.038449001 60:0.04572 61:0.113101 62:-0.2349 63:0.192476 64:0.026830999 65:-0.15500399 66:-0.198073 67:-0.038415 68:-0.117071 69:0.120391 70:0.074427001 71:-0.049371999 72:-0.19739 73:-0.084190004 74:0.250651 75:0.205239 76:-0.069902003 77:-0.023584999 78:0.24241 79:-0.078906 80:0.053716999 81:-0.056391001 82:0.0077180001 83:0.079428002 84:0.24534801 85:0.17424101 86:0.260537 87:-0.349078 88:0.029581999 89:0.014751 90:0.160299 91:0.10038 92:-0.044578999 93:0.046642002 94:0.11019 95:-0.20919199 96:0.29163799 97:-0.099036001 98:0.152739 99:0.061414 100:-0.215014 #
0.26476015436042893425039324029058 1:-0.174569 2:0.074617997 3:0.040777002 4:-0.0082109999 5:-0.033581 6:0.070766002 7:0.094001003 8:0.077669002 9:-0.037416998 10:-0.031436998 11:-0.025753999 12:-0.13473301 13:0.012044 14:-0.107728 15:-0.013137 16:0.139082 17:-0.11862 18:0.048052002 19:-0.010627 20:0.084946997 21:0.0056659998 22:-0.046013001 23:0.048455998 24:0.042440001 25:0.12847801 26:0.015156 27:0.067498997 28:-0.098196998 29:0.215983 30:0.054880001 31:-0.082921997 32:0.122756 33:0.01059 34:0.015475 35:-0.088863 36:0.012505 37:-0.072811 38:-0.115884 39:0.104908 40:0.13442799 41:-0.23781 42:-0.059043001 43:0.0047840001 44:0.029920001 45:-0.048517 46:-0.035432 47:-0.169118 48:0.117495 49:-0.084409997 50:0.130964 51:0.016819 52:0.019270999 53:0.17051999 54:-0.133398 55:-0.218537 56:-0.118689 57:0.081758998 58:-0.039615002 59:0.088068999 60:0.018255999 61:0.044504002 62:0.048531 63:-0.10716 64:-0.164296 65:-0.076343 66:-0.148866 67:-0.116785 68:-0.137125 69:-0.13290399 70:-0.067782998 71:0.016977999 72:-0.17247599 73:-0.011214 74:0.147036 75:0.039613001 76:-0.090033002 77:0.00050299999 78:0.02661 79:-0.027108001 80:-0.010994 81:0.003757 82:-0.063120998 83:0.0026789999 84:0.099913999 85:0.163524 86:-0.053187001 87:-0.10315 88:0.022993 89:-0.001127 90:0.140257 91:-0.012557 92:0.0097270003 93:0.0026710001 94:0.096694998 95:-0.089533001 96:0.000447 97:-0.038929999 98:0.124742 99:-0.192312 100:-0.118933 #
0.26476015436042893425039324029058 1:0.20858601 2:-0.015615 3:-0.150545 4:-0.061565001 5:-0.13066299 6:0.103717 7:-0.13185801 8:0.22143 9:0.067383997 10:-0.0039570001 11:-0.048604 12:0.071183003 13:-0.010838 14:0.33389899 15:0.0097040003 16:0.10212 17:0.081307001 18:0.15541001 19:-0.21866401 20:0.068520002 21:0.130164 22:-0.025134001 23:-0.12749299 24:0.038885001 25:-0.12812699 26:-0.038741998 27:-0.141938 28:-0.025389001 29:-0.000183 30:-0.0049930001 31:0.063575 32:0.13011201 33:0.102833 34:-0.203327 35:-0.130913 36:-0.070253 37:-0.032793999 38:0.00875 39:0.26885101 40:-0.193837 41:-0.085803002 42:0.106726 43:-0.218069 44:-0.28967601 45:-0.067681 46:0.115131 47:0.164278 48:-0.0022160001 49:0.000142 50:-0.152514 51:0.050546002 52:-0.090140998 53:-0.114546 54:0.067576997 55:-0.17730901 56:-0.046301998 57:0.0066650002 58:-0.119173 59:-0.012884 60:-0.044413 61:0.121241 62:-0.209713 63:0.246231 64:0.125862 65:-0.17339399 66:-0.068810999 67:0.036029998 68:-0.115131 69:0.14248601 70:-0.010913 71:0.150111 72:-0.100158 73:-0.077120997 74:0.067978002 75:-0.023832001 76:-0.127142 77:0.0041880002 78:0.136889 79:-0.045049999 80:0.17378899 81:0.087936997 82:-0.050976001 83:0.041368 84:0.24639 85:-0.046427999 86:0.17418601 87:-0.14267901 88:-0.013227 89:0.13304099 90:-0.079000004 91:0.094319001 92:0.128317 93:-0.061198 94:-0.003454 95:0.016076 96:0.078610003 97:-0.085863002 98:-0.038777001 99:0.0040219999 100:-0.127453 #
-0.097343592362889141966775241598953 1:0.036630999 2:-0.018165 3:0.068539001 4:0.044682998 5:-0.169936 6:0.073767997 7:0.183488 8:-0.007766 9:0.19083001 10:-0.012246 11:0.015559 12:-0.170096 13:0.055879999 14:0.171765 15:-0.204134 16:0.0062449998 17:-0.169796 18:-0.040886998 19:0.06002 20:0.067859001 21:-0.14546899 22:0.021385999 23:-0.016384 24:0.155149 25:-0.184559 26:-0.027223 27:-0.046151001 28:-0.0025879999 29:0.200765 30:-0.051258001 31:-0.02706 32:-0.046399001 33:-0.010472 34:-0.106959 35:-0.148185 36:-0.048526 37:-0.056851 38:-0.204218 39:0.043512002 40:-0.103801 41:0.056322001 42:-0.087526999 43:-0.03317 44:-0.068636999 45:0.057546001 46:-0.083851002 47:0.065996997 48:0.093007997 49:-0.036254998 50:-0.043485001 51:0.034271002 52:-0.22328 53:-0.18572401 54:-0.022562001 55:-0.022396 56:0.063169003 57:0.113513 58:-0.036150999 59:0.019485001 60:-0.188894 61:0.135406 62:-0.000818 63:0.13198 64:-0.132925 65:-0.182879 66:0.056299999 67:0.071424 68:-0.052407 69:-0.016355 70:0.025529999 71:0.049376 72:-0.201186 73:0.22835501 74:0.172794 75:-0.020205 76:0.092303 77:0.134571 78:-0.128897 79:-0.023784 80:0.207673 81:-0.022407001 82:0.077627003 83:0.169791 84:0.310197 85:0.016356001 86:-0.180415 87:-0.037046 88:0.111957 89:-0.020173 90:-0.26241499 91:0.137633 92:-0.106 93:0.16476101 94:-0.060771 95:0.118627 96:-0.067114003 97:-0.249285 98:-0.13273001 99:-0.027241001 100:-0.164222 #
-0.039651222193189727960316304233856 1:0.059723999 2:-0.071725003 3:0.062357001 4:0.082635 5:-0.25922 6:-0.027642 7:0.216333 8:-0.189596 9:0.092684001 10:-0.039620001 11:-0.037826002 12:0.123002 13:0.22143801 14:0.017891999 15:-0.116637 16:0.052413002 17:-0.189826 18:-0.223672 19:-0.06236 20:0.062072001 21:-0.25398701 22:-0.12962 23:0.177632 24:0.16817801 25:-0.166007 26:-0.124347 27:0.131815 28:-0.174997 29:0.21567599 30:0.082107998 31:0.058594 32:0.140284 33:0.43092099 34:-0.15156899 35:-0.040704001 36:0.05672 37:-0.033638 38:-0.117044 39:-0.154181 40:0.017935 41:0.166695 42:0.14348701 43:-0.014564 44:0.007245 45:-0.140844 46:-0.188135 47:-0.077903003 48:0.12539101 49:-0.082255997 50:0.050551999 51:0.163618 52:-0.043995999 53:-0.013057 54:0.079759002 55:-0.071414001 56:-0.0088799996 57:0.0060800002 58:-0.200518 59:0.45269501 60:-0.13040499 61:0.13259199 62:-0.064620003 63:0.144518 64:-0.059712 65:-0.196301 66:-0.183098 67:0.097375996 68:-0.111611 69:0.021629 70:0.019447001 71:0.152845 72:-0.178137 73:0.284109 74:0.045361999 75:-0.045844 76:0.025974 77:0.102903 78:0.29424399 79:0.16067199 80:0.198111 81:0.013759 82:-0.071546003 83:0.32796401 84:0.31670901 85:-0.167606 86:-0.098259002 87:-0.075153001 88:0.093667001 89:-0.077725001 90:0.129428 91:0.300805 92:-0.013019 93:-0.010232 94:-0.042798001 95:0.058024999 96:-0.025077 97:-0.481323 98:-0.110928 99:-0.168364 100:-0.166325 #
0.26476015436042893425039324029058 1:0.029978 2:0.056340002 3:-0.048542 4:0.105214 5:0.081597999 6:-0.077627003 7:0.14885101 8:-0.091041997 9:0.050126001 10:-0.042768002 11:-0.165729 12:0.057698999 13:-0.148486 14:0.095546998 15:0.174695 16:0.084100001 17:-0.045170002 18:0.083692998 19:0.016206 20:-0.03889 21:0.194957 22:0.057294998 23:-0.090455003 24:0.147303 25:-0.020271 26:-0.042043999 27:-0.21392199 28:0.177288 29:0.001607 30:0.049837999 31:-0.142056 32:0.120426 33:0.202718 34:-0.047920998 35:0.014232 36:0.244038 37:0.0090190005 38:0.030655 39:0.14105199 40:-0.13005801 41:0.043956999 42:0.022604 43:-0.045965001 44:-0.078743003 45:0.022419 46:0.220744 47:0.044362001 48:0.046328001 49:-0.00097300002 50:0.103667 51:0.067115001 52:0.016679 53:-0.108943 54:-0.080968 55:-0.081000999 56:0.15496901 57:-0.014785 58:0.010762 59:-0.018376 60:-0.091527 61:0.108588 62:-0.087803997 63:0.057123002 64:0.18440799 65:0.16267 66:-0.232154 67:0.075955003 68:-0.28164101 69:0.070049003 70:0.058656 71:0.13470601 72:-0.25925499 73:-0.22125 74:-0.068187997 75:0.0096319998 76:-0.166188 77:0.15880799 78:0.079342999 79:-0.098021001 80:-0.19491699 81:0.102572 82:-0.060219001 83:-0.001274 84:-0.067094997 85:0.045189999 86:0.221581 87:-0.052622002 88:-0.094609 89:-0.025091 90:0.26275599 91:0.19609199 92:0.24776 93:-0.071125001 94:-0.017890001 95:-0.12255 96:0.14850301 97:-0.04016 98:0.12605099 99:-0.17252199 100:0.070370004 #
0.26476015436042893425039324029058 1:-0.022910999 2:0.055452999 3:-0.085097 4:-0.0059000002 5:0.076011002 6:0.01562 7:0.114663 8:0.069835998 9:0.137095 10:0.154522 11:-0.16652501 12:-0.020804999 13:-0.027917 14:0.056692999 15:-0.026484 16:0.155321 17:0.060240999 18:0.184513 19:-0.11602 20:-0.089566 21:0.26081899 22:0.078162998 23:-0.071353003 24:0.055530999 25:-0.056019001 26:0.061703 27:-0.105638 28:-0.092607997 29:0.0079020001 30:0.107707 31:0.078396998 32:0.031234 33:0.13570701 34:0.067006998 35:0.096835002 36:0.064314999 37:-0.048911002 38:-0.22454099 39:-0.105209 40:-0.055270001 41:0.060093001 42:-0.0099510001 43:-0.26668701 44:0.143337 45:-0.116827 46:0.018573999 47:-0.023771999 48:0.0077360002 49:0.068596996 50:0.131163 51:0.077863 52:0.060541999 53:0.178031 54:-0.068467997 55:-0.198117 56:0.180344 57:0.102603 58:-0.083145 59:-0.080034003 60:0.041754 61:0.139084 62:-0.127257 63:-0.035190001 64:0.226267 65:-0.029744999 66:-0.099555999 67:-0.046790998 68:-0.072076999 69:0.003334 70:0.033287 71:0.0033160001 72:-0.112927 73:-0.118956 74:-0.076132998 75:-0.105457 76:-0.020545 77:-0.012563 78:0.158057 79:-0.073421001 80:0.149822 81:0.038284998 82:-0.103934 83:0.032365002 84:-0.249466 85:-0.038164001 86:0.137894 87:0.035668001 88:-0.048264999 89:0.094609998 90:0.090680003 91:0.041081998 92:0.180186 93:0.055388998 94:0.117565 95:0.058022998 96:0.324303 97:-0.087834001 98:0.23160399 99:-0.036959998 100:0.127115 #
0.26476015436042893425039324029058 1:0.019019 2:0.20606001 3:-0.058974002 4:0.134094 5:-0.102882 6:-0.043701999 7:0.058657002 8:0.076282002 9:0.058587998 10:0.13662601 11:0.045641001 12:0.016796 13:0.011669 14:-0.10377 15:-0.115399 16:0.111443 17:0.171921 18:0.17178801 19:-0.049433 20:-0.036501002 21:0.104021 22:0.110574 23:0.115829 24:0.0081510004 25:-0.187116 26:-0.043085001 27:0.095945001 28:-0.069533996 29:-0.180191 30:0.107089 31:-0.082312003 32:-0.043761 33:-0.019997999 34:0.068594001 35:-0.23492201 36:0.039448999 37:-0.071194001 38:0.01326 39:-0.18615 40:0.0046359999 41:-0.131624 42:0.001504 43:0.050298002 44:0.064902999 45:-0.140847 46:0.099051997 47:0.043021999 48:0.081243999 49:0.028872 50:0.14590199 51:-0.032892 52:0.159133 53:-0.087623 54:-0.081685998 55:-0.10934 56:-0.031417999 57:0.130438 58:-0.088243999 59:0.057785001 60:-0.17938399 61:0.243256 62:0.07903 63:-0.20584001 64:0.028919 65:-0.091824003 66:0.066618003 67:0.062470999 68:0.055032998 69:-0.013844 70:-0.012159 71:-0.097597003 72:0.038490001 73:-0.108405 74:-0.068893999 75:-0.15661401 76:0.083550997 77:0.021459 78:0.150861 79:-0.20964099 80:-0.051863998 81:-0.157902 82:-0.176404 83:0.14774001 84:-0.056221999 85:0.114816 86:0.369508 87:0.123387 88:0.043924998 89:0.061227001 90:0.217391 91:0.107889 92:0.26920599 93:0.064208999 94:0.08382 95:0.049346998 96:0.060557999 97:-0.092818998 98:0.063032001 99:-0.001877 100:0.029115001 #
-0.11721857905134500099642025361391 1:0.056798998 2:0.027350999 3:-0.091164 4:0.058171 5:0.037859 6:0.0094720004 7:0.117653 8:-0.067685999 9:0.078803003 10:0.071581997 11:0.0069570001 12:0.038988002 13:-0.108124 14:0.017274 15:-0.059372 16:-0.046135001 17:0.042636 18:-0.053488001 19:0.089567997 20:-0.100332 21:0.0065350002 22:0.011773 23:0.024984 24:0.001012 25:-0.188618 26:-0.059255999 27:-0.029901 28:0.050572 29:0.0074410001 30:-0.001564 31:-0.0061969999 32:0.039324999 33:0.177159 34:-0.09708 35:0.028022001 36:0.112864 37:0.096012004 38:0.012646 39:0.046039 40:-0.14084899 41:0.16987699 42:0.044493001 43:-0.076135002 44:-0.0098890001 45:0.017796 46:0.021616001 47:0.031397 48:-0.103341 49:0.195484 50:0.0021009999 51:0.012332 52:-0.030587001 53:-0.091691002 54:-0.062551998 55:0.0053249998 56:0.140843 57:0.057918999 58:-0.059461001 59:-0.0086829998 60:0.0076919999 61:0.054499 62:-0.029182 63:0.047617 64:0.15563799 65:0.027044 66:-0.051401 67:0.072737001 68:-0.101723 69:0.070752002 70:0.112616 71:0.118803 72:-0.04259 73:0.011475 74:-0.0053010001 75:-0.082641996 76:-0.122989 77:0.1008 78:-0.0867 79:0.0068299999 80:0.082433 81:0.062732004 82:-0.063637003 83:0.049807999 84:0.015356 85:-0.25051001 86:0.01615 87:0.017844001 88:-0.099528 89:-0.109781 90:0.0056349998 91:0.13644101 92:0.100731 93:0.033567 94:-0.011632 95:0.142984 96:0.113777 97:-0.100864 98:-0.092538998 99:-0.074547999 100:0.087686002 #
-0.20980510577477334832607880343858 1:0.075659998 2:0.027628999 3:-0.080670998 4:0.058827002 5:-0.001211 6:0.033344001 7:0.098416001 8:-0.049878001 9:0.063057996 10:0.061921 11:-0.01245 12:0.049690999 13:-0.099178001 14:0.020393999 15:-0.063750997 16:-0.016826 17:0.056212001 18:-0.048006002 19:0.055068001 20:-0.11395 21:0.015992001 22:0.032419998 23:-0.0023370001 24:0.015332 25:-0.182319 26:-0.029432001 27:-0.060922999 28:0.057379 29:-0.0155 30:-0.009323 31:0.020976 32:-0.0097190002 33:0.17870501 34:-0.097664997 35:0.042920999 36:0.087388001 37:0.090198003 38:0.018304 39:0.025180999 40:-0.121298 41:0.170518 42:0.095835 43:-0.070023999 44:-0.014837 45:0.011911 46:0.026635 47:0.063226998 48:-0.058968998 49:0.17236701 50:0.0036249999 51:0.0083889998 52:-0.001168 53:-0.090418003 54:-0.061149001 55:0.014906 56:0.13645799 57:0.063752003 58:-0.069324002 59:0.053413998 60:0.019517001 61:0.065324999 62:-0.034405001 63:0.049438 64:0.23454501 65:0.003147 66:-0.067547999 67:0.084429003 68:-0.099849999 69:0.068902999 70:0.121189 71:0.099909 72:-0.040743999 73:-0.012061 74:0.013041 75:-0.082873002 76:-0.10558 77:0.101448 78:-0.031886 79:0.0062199999 80:0.104608 81:0.033450998 82:-0.036839001 83:0.074637003 84:-0.016865 85:-0.25314799 86:0.065516002 87:0.0092780003 88:-0.087834001 89:-0.063625 90:0.029692 91:0.158187 92:0.109947 93:0.033571001 94:-0.035997 95:0.118271 96:0.129191 97:-0.13647699 98:-0.102068 99:-0.094191 100:0.075273 #
0.26476015436042893425039324029058 1:-0.0024840001 2:-0.0064420002 3:0.028317999 4:-0.011934 5:-0.034419 6:0.014818 7:0.025668001 8:0.011289 9:-0.014137 10:-0.004834 11:0.011659 12:0.011538 13:-0.001008 14:0.027747 15:-0.038040001 16:-0.065435998 17:-0.0093059996 18:-0.025606999 19:0.026236 20:-0.056380998 21:0.017035 22:-0.046523001 23:0.0090600001 24:-0.054021001 25:0.029114 26:-0.040906999 27:-0.038061999 28:-0.0046339999 29:0.016073 30:0.035503998 31:0.038699001 32:0.0077789999 33:0.038764 34:0.021485001 35:0.012187 36:0.029449999 37:-0.060105 38:-0.078961 39:-0.048450999 40:0.035239 41:0.0037509999 42:0.094415002 43:-0.0058630002 44:-0.017642001 45:-0.042879 46:-0.059730999 47:0.056483001 48:-0.005905 49:-0.022008 50:-0.034007002 51:0.019815 52:-0.041028999 53:0.001404 54:-0.044413999 55:0.050882999 56:0.075193003 57:0.037082002 58:0.0078649996 59:-0.035326999 60:-0.0071470002 61:0.020858999 62:-0.0087540001 63:0.017539 64:-0.043639999 65:-0.040626001 66:0.028142 67:0.030610999 68:0.036990002 69:-0.00235 70:0.0095690005 71:-0.023177 72:0.021803999 73:0.072981998 74:0.05418 75:0.038001001 76:-0.0045050001 77:-0.0090969997 78:0.026653999 79:0.078571998 80:0.036224 81:0.070752002 82:-0.0070179999 83:0.099684998 84:0.064232998 85:0.060878001 86:0.024038 87:-0.042211998 88:0.0096220002 89:0.022985 90:0.055599 91:-0.001013 92:-0.0063450001 93:0.011708 94:0.0025279999 95:0.051486999 96:0.019827001 97:-0.061434999 98:-0.027129 99:-0.001863 100:-0.0089739999 #
0.14143501808830555299678621850035 1:0.061794002 2:-0.069086 3:0.143185 4:0.21234301 5:-0.00096799998 6:-0.00025499999 7:0.161341 8:-0.16912299 9:0.256156 10:0.105352 11:-0.021411 12:0.157813 13:0.178803 14:0.0084070005 15:-0.094821997 16:-0.166076 17:-0.14929099 18:-0.061223 19:-0.21552201 20:0.10454 21:-0.26921099 22:-0.078162 23:0.16250101 24:0.090755999 25:-0.177461 26:-0.056912001 27:0.039568 28:-0.038322002 29:0.118233 30:0.044856001 31:-0.0093970001 32:0.121585 33:0.36725599 34:-0.26006201 35:-0.014859 36:0.01248 37:0.048085 38:-0.032513 39:0.057213999 40:0.068374 41:0.107913 42:0.098312996 43:-0.054710001 44:-0.120175 45:0.030609 46:-0.0041049998 47:-0.092541002 48:-0.015247 49:-0.047713 50:-0.12885199 51:0.009935 52:-0.15202101 53:-0.243866 54:0.15334 55:0.168586 56:0.14749099 57:0.013454 58:0.036256 59:0.24968 60:-0.027549 61:0.316479 62:0.029425999 63:0.36004701 64:-0.040743999 65:-0.031647 66:-0.020823 67:0.063608997 68:-0.246829 69:0.0077499999 70:0.117975 71:0.24723101 72:-0.244111 73:0.011118 74:0.14643 75:0.035434999 76:-0.068677001 77:0.081275001 78:0.112731 79:0.07739 80:0.057790998 81:0.146933 82:-0.318562 83:0.15984599 84:0.112829 85:-0.05452 86:0.028597999 87:-0.105766 88:0.053709999 89:-0.20261499 90:0.069021001 91:0.36660099 92:0.10996 93:-0.092733003 94:-0.093350999 95:0.170019 96:-0.094815001 97:-0.23434199 98:0.042424001 99:-0.042644002 100:-0.131238 #
0.20469357931429726926708667633648 1:-0.068126 2:0.01053 3:0.020920999 4:-0.036959998 5:-0.27196801 6:0.195856 7:0.196669 8:0.19461399 9:0.17728899 10:-0.060658 11:0.125304 12:-0.01072 13:-0.01452 14:-0.060224999 15:-0.083396003 16:-0.208131 17:-0.141708 18:-0.019029001 19:-0.110648 20:0.065945998 21:0.113452 22:-0.237821 23:-0.23362 24:-0.082315996 25:-0.055047002 26:-0.26549301 27:0.016442001 28:-0.102185 29:0.15333501 30:-0.078299999 31:0.141958 32:-0.023445999 33:0.095751002 34:0.047215 35:-0.22734401 36:0.019747 37:-0.28145301 38:-0.162977 39:0.080328003 40:0.136702 41:0.13573299 42:0.109342 43:-0.028266 44:-0.090962 45:-0.022755999 46:-0.16229799 47:-0.134505 48:-0.106649 49:-0.067558996 50:0.14053699 51:0.070730999 52:-0.099756002 53:-0.042452998 54:0.082056999 55:-0.30563 56:0.026043 57:0.134746 58:0.025226999 59:0.003062 60:0.023026001 61:0.19563501 62:-0.172914 63:-0.037948001 64:0.13702001 65:-0.189261 66:-0.35259101 67:-0.013939 68:0.062756002 69:-0.120083 70:-0.051484 71:0.22770099 72:-0.134976 73:0.004766 74:0.026796 75:0.043508001 76:-0.018114001 77:-0.029141 78:-0.033252001 79:0.001864 80:0.27355501 81:0.112883 82:-0.087765999 83:0.083959997 84:0.14264899 85:-0.18910199 86:-0.033953998 87:-0.092219003 88:-0.048085 89:-0.095478997 90:0.023220001 91:-0.030477 92:-0.043182999 93:0.22749799 94:-0.220626 95:-0.102492 96:0.250177 97:0.087700002 98:-0.080421999 99:0.090768002 100:-0.039434001 #
0.26476015436042893425039324029058 1:0.150812 2:-0.15350001 3:-0.13376001 4:0.094746999 5:0.039723001 6:0.155711 7:0.21266501 8:-0.155903 9:0.127186 10:0.044532001 11:-0.104728 12:0.17540599 13:0.130127 14:0.107029 15:-0.020279 16:0.012517 17:-0.021949001 18:0.077358998 19:-0.115216 20:-0.080863997 21:-0.14326499 22:-0.140783 23:-0.163646 24:0.019989001 25:-0.193184 26:-0.16456901 27:-0.022375001 28:-0.166097 29:0.0065299999 30:0.057303 31:0.0082660001 32:0.27374601 33:0.35684499 34:-0.22920799 35:-0.17797901 36:0.020683 37:0.014085 38:-0.082892001 39:-0.14539 40:-0.028488999 41:0.089676999 42:0.279356 43:-0.098187 44:-0.076334998 45:-0.042828999 46:-0.067882001 47:0.108323 48:0.110995 49:0.034949999 50:-0.13870101 51:0.076063998 52:-0.107598 53:-0.047883 54:0.089823 55:-0.053027999 56:0.085404001 57:-0.046865001 58:-0.172869 59:0.256751 60:0.038109999 61:0.209453 62:-0.137807 63:0.18480299 64:0.12997501 65:-0.166774 66:-0.055089001 67:0.051383 68:-0.116645 69:0.10995 70:0.078712001 71:0.0062560001 72:-0.14401101 73:-0.083356 74:0.21022099 75:0.0062020002 76:-0.11647 77:0.073101997 78:0.23824 79:0.217079 80:0.31730899 81:0.117687 82:-0.082501002 83:0.24859101 84:0.168219 85:-0.001117 86:0.20160399 87:-0.337109 88:0.12649301 89:-0.111117 90:0.16960999 91:0.18854 92:0.17213701 93:-0.0053289998 94:-0.184734 95:-0.072958998 96:0.182853 97:-0.21833999 98:-0.114667 99:-0.146799 100:-0.092345998 #
0.26476015436042893425039324029058 1:-0.066831999 2:0.083324999 3:-0.013426 4:-0.075912997 5:-0.0054049999 6:0.038633 7:0.051977001 8:0.058373999 9:-0.025418 10:-0.066745996 11:-0.097831003 12:0.028702 13:-0.003368 14:-0.050843 15:0.061466001 16:0.14950199 17:0.061841998 18:0.125273 19:0.015334 20:0.052632999 21:-0.021446001 22:0.00093400001 23:0.020107999 24:0.039099999 25:-0.014644 26:-0.076912001 27:0.069298998 28:-0.059443999 29:-0.053133 30:0.082787 31:0.15038601 32:0.141688 33:-0.038739 34:0.040215999 35:-0.022810001 36:-0.089461997 37:0.091940001 38:-0.057778001 39:-0.037684999 40:-0.019025 41:0.017007999 42:-0.020304 43:-0.04975 44:0.001502 45:-0.0030189999 46:0.001049 47:0.005661 48:0.12808099 49:0.096835002 50:-0.00069800002 51:0.098605998 52:-0.034784999 53:0.074403003 54:0.113895 55:0.033029001 56:-0.18370301 57:0.018066 58:-0.175456 59:0.097269997 60:-0.063054003 61:-0.090354003 62:-0.061561 63:-0.106617 64:0.095155999 65:0.035861999 66:-0.075741999 67:-0.127822 68:-0.0067599998 69:0.092210002 70:-0.203857 71:-0.100614 72:0.019671001 73:-0.16615801 74:-0.144567 75:0.13964599 76:0.154438 77:-0.014233 78:-0.080991 79:0.023108 80:-0.068172 81:-0.084013 82:0.005899 83:-0.19753601 84:0.098577999 85:-0.0056230002 86:-0.017743001 87:0.038054001 88:0.139101 89:0.029012 90:0.062504999 91:0.044535 92:0.020093 93:0.032892 94:-0.075658999 95:-0.132489 96:-0.057611 97:-0.030578 98:0.025386 99:0.033780999 100:-0.01358 #
-0.015496533509480665824487033432888 1:0.043072999 2:0.050011002 3:-0.16992199 4:0.088142999 5:-0.0053690001 6:0.045703001 7:0.11671 8:-0.056979999 9:-0.001894 10:0.051614001 11:-0.038669001 12:0.17681099 13:-0.014701 14:-0.052129 15:0.072696 16:0.058975998 17:-0.087338999 18:-0.019693 19:-0.020839 20:0.020283001 21:0.037287999 22:-0.046119999 23:-0.19314501 24:0.015128 25:-0.044521999 26:-0.30814701 27:0.019921999 28:-0.038249001 29:0.062853999 30:0.045198001 31:-0.040883001 32:0.211576 33:0.190378 34:-0.063894004 35:-0.198356 36:0.155369 37:0.016279999 38:-0.038166001 39:-0.026664 40:0.049541 41:-0.02564 42:0.061225999 43:-0.021128001 44:0.037218001 45:0.032494999 46:-0.000925 47:-0.101254 48:0.027465999 49:0.048361 50:0.092147999 51:0.0076609999 52:0.0164 53:-0.164258 54:0.058168001 55:-0.28683999 56:0.105824 57:0.17011601 58:-0.071231999 59:0.065853998 60:0.043191001 61:0.26677299 62:-0.042309999 63:0.084030002 64:0.14618701 65:0.025354 66:-0.191383 67:0.041871 68:-0.18345401 69:0.082387999 70:0.137685 71:0.084477998 72:-0.108087 73:-0.142242 74:0.067088 75:0.069146998 76:-0.112379 77:0.148674 78:0.145881 79:0.057845999 80:0.107966 81:0.0048969998 82:-0.135057 83:0.16207001 84:0.186854 85:0.074116997 86:0.28897899 87:-0.096505001 88:0.030303 89:-0.20409299 90:0.286118 91:0.245234 92:0.129722 93:0.033475999 94:-0.137788 95:-0.238326 96:0.19426399 97:-0.045915 98:0.152495 99:-0.111055 100:-0.023854 #
-0.11314573266260111172876179352897 1:-0.025667001 2:-0.025727 3:0.198039 4:-0.21241599 5:-0.10729 6:-0.018495001 7:0.033445999 8:0.073504001 9:0.141882 10:0.151177 11:-0.081725001 12:-0.122841 13:-0.119357 14:0.085794002 15:-0.032919999 16:0.178278 17:-0.218848 18:0.030629 19:-0.113766 20:-0.050147001 21:0.208165 22:0.032488 23:0.090891004 24:0.032662001 25:0.0086099999 26:-0.056090999 27:-0.076862 28:-0.12910201 29:0.039611999 30:-0.117488 31:-0.083356 32:0.206349 33:-0.012294 34:-0.027519999 35:0.061717998 36:0.031030999 37:-0.19689199 38:-0.254103 39:-0.110228 40:-0.0068569998 41:0.070345998 42:0.100739 43:-0.013325 44:0.110178 45:-0.23272701 46:-0.099126004 47:-0.0060399999 48:0.097228996 49:-0.089821003 50:-0.0047089998 51:0.076263003 52:0.026667001 53:0.264047 54:-0.124749 55:-0.331303 56:0.084096998 57:-0.17953999 58:-0.085286997 59:0.073253997 60:0.090383001 61:0.088936999 62:0.052692 63:0.040045001 64:-0.103574 65:-0.141946 66:-0.184971 67:0.024921 68:-0.149836 69:-0.140512 70:0.084735997 71:0.042723 72:-0.170169 73:0.092018999 74:0.013968 75:0.029347001 76:-0.017398 77:-0.0045059999 78:0.13447 79:0.12314 80:0.217705 81:0.054497998 82:-0.087350003 83:0.109866 84:0.058263 85:0.023466 86:-0.088000998 87:0.051716 88:-0.053663999 89:0.055837002 90:0.053311002 91:-0.012286 92:0.040013999 93:-0.151255 94:0.082353003 95:0.01517 96:-0.10094 97:-0.156536 98:0.0075630001 99:-0.203095 100:-0.041283 #
0.26476015436042893425039324029058 1:-0.12477 2:-0.028436 3:0.041265 4:0.053436998 5:0.114226 6:0.0094600003 7:0.033702001 8:0.024983 9:-0.040204 10:0.026493 11:-0.15739 12:0.027113 13:-0.021474 14:-0.093160003 15:-0.049403999 16:0.089740999 17:0.149763 18:0.11283 19:-0.063421004 20:0.062105998 21:0.0083689997 22:-0.019541999 23:-0.038934 24:-0.045134 25:0.087402999 26:0.091104001 27:0.014471 28:0.083010003 29:-0.115795 30:0.102675 31:0.046358999 32:0.063435003 33:-0.135906 34:-0.029462 35:-0.097344004 36:-0.076811999 37:-0.012351 38:-0.001046 39:0.076062001 40:0.018781999 41:-0.046789002 42:0.029468 43:0.028514 44:-0.040467001 45:-0.023684001 46:0.119808 47:-0.044043001 48:0.12589701 49:0.071967997 50:-0.028385 51:0.043432999 52:-0.034467001 53:0.221563 54:-0.039381001 55:0.031270001 56:-0.064231001 57:0.080553003 58:-0.102542 59:0.025472 60:-0.059948001 61:-0.113045 62:-0.0048079998 63:-0.194701 64:0.024777999 65:-0.026327999 66:-0.029177001 67:-0.13810401 68:0.11062 69:0.059617002 70:-0.072646998 71:-0.12793501 72:0.061303001 73:-0.051553 74:-0.124333 75:0.18628301 76:-0.0033199999 77:0.097367004 78:-0.083948001 79:0.0044689998 80:-0.05971 81:-0.086312003 82:-0.085157998 83:-0.204705 84:0.019618001 85:0.011744 86:-0.038194999 87:-0.075841002 88:0.063450001 89:-0.015659999 90:0.109727 91:-0.172038 92:0.113679 93:-0.0038129999 94:0.128876 95:-0.100203 96:0.0086700004 97:0.040669002 98:-0.01888 99:0.007032 100:0.041375998 #
0.26476015436042893425039324029058 1:0.077993996 2:0.022662001 3:-0.081529997 4:0.077235997 5:-0.0089950003 6:0.057695001 7:0.089947999 8:-0.056712002 9:0.031546 10:0.088437997 11:-0.024282999 12:0.055463001 13:-0.102233 14:0.010655 15:-0.087846003 16:-0.011058 17:0.063019 18:-0.100177 19:0.051954001 20:-0.120819 21:0.0080650002 22:0.037287001 23:0.012462 24:0.002478 25:-0.154636 26:-0.044555999 27:-0.047074001 28:0.059193 29:-0.012783 30:-0.0050289999 31:0.048562001 32:-0.010782 33:0.18422601 34:-0.096790999 35:0.046293002 36:0.097680002 37:0.116073 38:0.022877 39:0.046378002 40:-0.159557 41:0.180759 42:0.097154997 43:-0.096561 44:-0.048361 45:0.028797001 46:0.049346998 47:0.050694998 48:-0.089505002 49:0.183764 50:-0.0024009999 51:0.0067889998 52:0.0077050002 53:-0.10428 54:-0.070702001 55:0.0074220002 56:0.154994 57:0.126477 58:-0.047138002 59:0.056138001 60:0.017039999 61:0.040073998 62:-0.030702 63:0.035758 64:0.234855 65:0.0046330001 66:-0.025431 67:0.067621 68:-0.113105 69:0.069115996 70:0.123157 71:0.089281999 72:-0.037454002 73:-0.002777 74:-0.023549 75:-0.079549998 76:-0.085987002 77:0.109546 78:-0.070042998 79:0.034306001 80:0.125201 81:0.032652002 82:-0.045378 83:0.052983999 84:0.0040679998 85:-0.323937 86:0.052487001 87:0.0096030002 88:-0.097947001 89:-0.100838 90:0.012358 91:0.18381201 92:0.10346 93:0.051103 94:-0.056040999 95:0.146516 96:0.127727 97:-0.108124 98:-0.14213 99:-0.092845999 100:0.088517003 #
0.26476015436042893425039324029058 1:0.074423999 2:-0.0053770002 3:-0.18880799 4:0.034030002 5:-0.0083020004 6:0.11299 7:0.053773999 8:-0.043226998 9:-0.002781 10:-0.00355 11:0.0090880003 12:0.071171001 13:-0.111925 14:0.039565001 15:-0.055557001 16:0.052274 17:0.070579 18:-0.043852001 19:0.012491 20:-0.161203 21:0.062415 22:0.041799001 23:-0.013768 24:0.062973998 25:-0.181465 26:0.041312002 27:0.036706999 28:0.010121 29:0.040895998 30:-0.027853001 31:0.060589001 32:-0.01393 33:0.186974 34:-0.064098999 35:0.085413001 36:0.082533002 37:0.067111999 38:0.022279 39:0.079124004 40:-0.15281001 41:0.070987001 42:0.067479998 43:-0.080050997 44:-0.066238999 45:-0.029956 46:0.069747001 47:0.122504 48:-0.043125 49:0.13805801 50:-0.017577 51:0.039384 52:0.0080429995 53:-0.039379999 54:-0.042796999 55:0.001052 56:0.094949 57:-0.000128 58:-0.046229001 59:0.053934999 60:0.086305998 61:0.026012 62:-0.056134999 63:0.020515 64:0.246481 65:-0.034649 66:-0.065834001 67:0.064378001 68:-0.094734997 69:0.080839001 70:0.101149 71:0.079701997 72:-0.093114004 73:-0.017146001 74:0.065173998 75:-0.160834 76:-0.115478 77:0.030241 78:-0.038562998 79:-0.032889001 80:0.141515 81:0.034065999 82:0.0036549999 83:0.035009999 84:-0.065324999 85:-0.167574 86:0.041159 87:-0.0099799996 88:-0.108333 89:-0.034166999 90:0.014161 91:0.102801 92:0.113646 93:-0.001222 94:0.001819 95:0.091555998 96:0.12537099 97:-0.060924999 98:-0.128388 99:-0.105335 100:0.016754 #
-0.070486161429776150733061967912363 1:-0.184834 2:0.022536 3:0.147899 4:-0.061310001 5:-0.055114999 6:0.13726699 7:-0.032701001 8:0.135965 9:-0.13120399 10:0.096642002 11:-0.13665099 12:-0.089691997 13:0.019231999 14:-0.214186 15:-0.00050099997 16:0.214608 17:0.027905 18:0.051619999 19:0.263217 20:-0.061597001 21:0.061783001 22:-0.076250002 23:-0.0032309999 24:-0.010792 25:0.182445 26:-0.012487 27:0.17374501 28:-0.059526999 29:-0.001371 30:0.18872 31:0.26677099 32:0.015583 33:-0.159224 34:0.226623 35:0.024731001 36:-0.158733 37:0.099964999 38:-0.054607999 39:0.068490997 40:0.022058001 41:-0.045938 42:-0.050997 43:-0.150562 44:-0.023728 45:-0.017166 46:0.135617 47:0.0082149999 48:0.078713998 49:0.092753001 50:0.036883999 51:0.007425 52:0.17679501 53:0.150213 54:0.010507 55:0.080195002 56:-0.16530199 57:0.14625099 58:-0.118504 59:0.074403003 60:0.025377 61:-0.116906 62:0.091971003 63:-0.412433 64:0.15369301 65:-0.00095299998 66:0.074684002 67:-0.25264299 68:-0.007526 69:0.0080730002 70:-0.201717 71:-0.23430599 72:0.067616999 73:-0.138023 74:-0.208295 75:0.001708 76:0.140662 77:0.012543 78:-0.29034001 79:0.050133001 80:0.022229999 81:-0.086851999 82:0.033025 83:-0.219537 84:-0.022334 85:-0.007216 86:-0.13189501 87:0.13874701 88:0.151518 89:0.15202101 90:-0.003122 91:-0.105991 92:-0.010797 93:0.055431001 94:-0.010953 95:0.011002 96:-0.043359999 97:0.101334 98:-0.153437 99:0.002993 100:-0.0039360002 #
-0.10612753486043358108759093738627 1:0.079755001 2:-0.077912003 3:-0.029096 4:0.062470999 5:0.049534 6:-0.074637003 7:0.042851999 8:-0.017924 9:0.045662001 10:-0.0016289999 11:-0.022910999 12:0.010094 13:0.022133 14:-0.051034 15:0.072434999 16:-0.037264001 17:-0.087549001 18:0.016964 19:0.073146999 20:0.013529 21:-0.016711 22:0.034395002 23:-0.013216 24:0.103282 25:0.020989999 26:-0.0084610004 27:-0.085961998 28:0.111101 29:0.065057002 30:0.102271 31:0.00092100003 32:-0.040833 33:0.060625002 34:0.075901002 35:0.110601 36:0.092455998 37:0.062305 38:0.037783001 39:0.090763003 40:0.036979999 41:0.048110001 42:-0.051428001 43:-0.080847003 44:0.018874999 45:0.08207 46:0.086257003 47:0.057186998 48:-0.041802999 49:0.065481998 50:0.062238 51:-0.031330999 52:0.083299004 53:-0.026279001 54:-0.088771001 55:0.042130001 56:0.071006998 57:0.139428 58:0.038869999 59:-0.079830997 60:-0.0027419999 61:0.042095002 62:-0.055295002 63:-0.067612998 64:0.144445 65:-0.025434 66:-0.074455999 67:0.098307997 68:-0.118943 69:0.099338003 70:0.129749 71:-0.0076430002 72:-0.053114999 73:-0.061206002 74:-0.066667996 75:0.011783 76:-0.113056 77:0.012536 78:0.054602001 79:-0.037501998 80:-0.046455 81:0.132998 82:0.122184 83:-0.028162001 84:-0.13308901 85:-0.033861 86:0.075773999 87:-0.02416 88:-0.074018002 89:0.0022839999 90:0.016472001 91:0.024388 92:0.11386 93:-0.001734 94:-0.0040660002 95:0.055902001 96:0.17425799 97:-0.095914997 98:0.030745 99:-0.018787 100:0.065335996 #
-0.061081838506912997099895790142909 1:0.010198 2:-0.080046996 3:-0.12891901 4:0.070782997 5:-0.031097 6:0.053555999 7:0.132861 8:-0.017012 9:0.0033120001 10:-0.114487 11:0.0068979999 12:0.156247 13:0.088106997 14:-0.012333 15:0.029322 16:0.138532 17:-0.033844002 18:0.060288001 19:-0.078781001 20:-0.0081209997 21:-0.060860001 22:-0.0051839999 23:-0.124341 24:-0.044550002 25:-0.0075420002 26:0.018259 27:-0.090476997 28:-0.053925 29:0.155689 30:-0.15129 31:-0.021152999 32:0.219164 33:0.211266 34:-0.050050002 35:-0.12643699 36:0.069045998 37:0.061829999 38:-0.076733001 39:-0.040284999 40:-0.098304003 41:0.0071009998 42:0.20906501 43:0.015295 44:-0.090144001 45:-0.060743999 46:0.069633 47:0.043528002 48:0.20043699 49:-0.023445001 50:0.024045 51:0.110531 52:-0.109434 53:0.02337 54:-0.034593001 55:0.038592 56:0.098614 57:-0.043621 58:-0.181651 59:0.161741 60:-0.055047002 61:0.042780001 62:-0.015814999 63:0.022645 64:-0.0057589998 65:-0.091421001 66:-0.082424 67:-0.015557 68:-0.072999001 69:0.058467001 70:-0.024236999 71:0.077950001 72:-0.095926002 73:-0.096639998 74:0.02186 75:0.072460003 76:-0.014659 77:0.115285 78:0.090737998 79:0.085974 80:0.059055001 81:0.044512998 82:0.069981001 83:-0.056480002 84:0.189751 85:0.111825 86:0.093606003 87:-0.093231 88:0.037397999 89:-0.084682003 90:0.208305 91:0.127564 92:0.088358998 93:0.024976 94:-0.100681 95:-0.107517 96:0.010245 97:-0.121607 98:-0.001802 99:-0.16249 100:-0.063689001 #
0.26476015436042893425039324029058 1:-0.124166 2:-0.094051003 3:0.282462 4:-0.040127002 5:-0.078286 6:-0.018093999 7:0.077304997 8:-0.038828999 9:0.068650998 10:0.014674 11:-0.058549002 12:-0.014183 13:-0.075521 14:0.025464 15:0.074693002 16:0.102517 17:-0.181289 18:-0.091744997 19:0.040424999 20:-0.074239999 21:0.074066997 22:0.044992 23:0.059278 24:0.010547 25:0.113473 26:0.052914001 27:-0.087227002 28:-0.034887001 29:0.11993 30:-0.131917 31:-0.062514998 32:0.1209 33:0.065158002 34:-0.069329001 35:-0.0062839999 36:0.12061 37:-0.216052 38:-0.141008 39:-0.016876001 40:0.048161998 41:-0.101571 42:0.16278499 43:0.023471 44:-0.023761 45:-0.139974 46:-0.082128003 47:-0.054623999 48:0.13928799 49:-0.066538997 50:0.111914 51:0.15371799 52:0.032354999 53:0.22734299 54:-0.14515699 55:-0.002663 56:0.118817 57:-0.106137 58:-0.086337 59:0.062749997 60:0.023011001 61:0.037037998 62:0.099411003 63:0.011752 64:-0.130266 65:-0.16981301 66:-0.113893 67:-0.037583001 68:-0.085529998 69:-0.064490996 70:-0.103683 71:0.080040999 72:-0.16130599 73:0.030745 74:0.029416 75:-0.034728002 76:-0.016538 77:0.007429 78:0.080633 79:0.116486 80:0.036102999 81:0.024293 82:0.020323001 83:0.124718 84:0.045290999 85:0.094893999 86:-0.063504003 87:-0.050907001 88:-0.062041 89:-0.1036 90:0.145217 91:-0.048377998 92:-0.024667 93:-0.039205998 94:-0.021986 95:-0.041476998 96:-0.016365999 97:-0.14618 98:-0.103471 99:-0.25766799 100:-0.17908099 #
0.26476015436042893425039324029058 1:0.048877001 2:0.088970996 3:-0.042640001 4:-0.050269 5:-0.087724 6:0.120969 7:0.122075 8:-0.0036309999 9:0.167239 10:0.074377 11:0.004799 12:-0.116013 13:0.024548 14:0.085340999 15:-0.099555999 16:-0.010037 17:-0.02589 18:0.128565 19:-0.052491002 20:0.010975 21:0.020509999 22:-0.069939002 23:-0.017945999 24:-0.0051529999 25:-0.118512 26:-0.13956399 27:-0.0050519998 28:-0.127086 29:0.019348999 30:0.043788999 31:-0.063143 32:0.16669799 33:0.035326999 34:-0.077056997 35:-0.120983 36:-0.081866004 37:0.045680001 38:-0.10405 39:-0.083984002 40:-0.087137997 41:-0.012975 42:0.024553999 43:-0.13230599 44:-0.014262 45:-0.066275999 46:0.0085800001 47:0.020998999 48:0.058676999 49:0.045866001 50:-0.051231001 51:-0.0054500001 52:-0.0089419996 53:0.059921 54:-0.052971002 55:-0.247015 56:-0.029100001 57:0.019797999 58:-0.162535 59:0.073122002 60:-0.079784997 61:0.115633 62:-0.024811 63:0.105132 64:-0.071385004 65:-0.183944 66:-0.074656002 67:-0.031083999 68:-0.114268 69:0.015897 70:0.027977001 71:0.040045999 72:-0.051130999 73:0.102242 74:-0.003912 75:-0.064460002 76:-0.085924 77:0.091707997 78:-0.030402999 79:-0.00013499999 80:0.209197 81:0.0074089998 82:-0.170193 83:0.081628002 84:0.220275 85:0.015431 86:0.046394002 87:-0.062717997 88:-0.024738999 89:-0.029901 90:-0.059817001 91:0.049125001 92:0.03624 93:-0.016545 94:-0.14035299 95:-0.016914999 96:0.001886 97:-0.13594501 98:-0.034802999 99:-0.050439 100:-0.0013530001 #
0.26476015436042893425039324029058 1:0.019618999 2:0.138935 3:-0.014233 4:0.067781001 5:-0.10588 6:0.104434 7:0.029170999 8:0.031950001 9:0.19942801 10:0.096652001 11:0.0050039999 12:-0.041265 13:0.080027997 14:0.149598 15:-0.074268997 16:0.022822 17:-0.024727 18:-0.089970998 19:-0.29503801 20:0.028619001 21:0.160997 22:0.034191001 23:-0.0066809999 24:0.096203998 25:-0.142573 26:-0.076044999 27:-0.073518999 28:-0.087273002 29:0.093736 30:0.015367 31:-0.011939 32:-0.083892003 33:-0.096413001 34:0.038564999 35:0.033419002 36:-0.000114 37:-0.130041 38:-0.167053 39:-0.018051 40:-0.083788 41:-0.226372 42:-0.043230999 43:0.039616998 44:-0.068705 45:-0.053307001 46:-0.128942 47:-0.056664001 48:0.157286 49:-0.052333999 50:-0.063620999 51:0.15592299 52:0.008293 53:0.14976899 54:0.032706998 55:-0.17637999 56:-0.112955 57:-0.044426002 58:-0.104802 59:-0.077633999 60:-0.031569 61:0.14215299 62:-0.053160999 63:0.128117 64:0.045033 65:-0.284641 66:-0.131965 67:-0.057264999 68:-0.075139001 69:0.058377001 70:0.013486 71:0.106488 72:-0.095141001 73:0.017555 74:0.0035610001 75:-0.055969 76:0.059581 77:-0.094927996 78:0.145845 79:-0.076646 80:0.114084 81:-0.145587 82:-0.066325001 83:0.065642998 84:0.087375 85:0.270367 86:0.17000601 87:0.02046 88:0.016154001 89:0.110575 90:0.016663 91:-0.122053 92:-0.036541998 93:0.010841 94:-0.102298 95:-0.169879 96:-0.047653999 97:-0.073197998 98:0.0075929998 99:-0.118094 100:-0.116783 #
-0.14831417697253834742099343202426 1:0.0043100002 2:-0.050005 3:-0.072495997 4:0.014239 5:-0.159159 6:0.212228 7:0.052615002 8:0.059583999 9:0.075061999 10:-0.18054099 11:0.116851 12:-0.132287 13:0.042348001 14:0.30044201 15:-0.026413999 16:0.008475 17:-0.018185001 18:0.22509199 19:-0.131412 20:0.120035 21:-0.0050380002 22:-0.087757997 23:-0.01271 24:0.11873 25:-0.151464 26:-0.026162 27:0.052855 28:-0.12827501 29:0.0097319996 30:-0.043347001 31:0.036649998 32:0.012552 33:0.075268 34:0.010249 35:-0.087720998 36:-0.048617002 37:-0.037475001 38:-0.121332 39:0.12456 40:-0.091752 41:-0.0045309998 42:0.031355001 43:-0.224168 44:-0.246718 45:-0.088221997 46:0.069470003 47:0.120493 48:0.010775 49:-0.032405 50:-0.016507 51:0.089638002 52:-0.077316001 53:0.13335399 54:0.088795997 55:-0.202801 56:-0.152483 57:-0.019342 58:-0.149875 59:0.090365 60:-0.111806 61:-0.0096180001 62:-0.147774 63:0.106014 64:0.013823 65:-0.22011501 66:-0.18558 67:-0.117623 68:-0.044702999 69:0.0055789999 70:-0.186997 71:0.105527 72:-0.081393003 73:0.139974 74:0.255568 75:0.054784 76:-0.103315 77:-0.068914004 78:0.043531001 79:-0.15377501 80:0.131488 81:0.034302998 82:-0.086764 83:0.026998 84:0.114749 85:-0.041889001 86:-0.064746 87:-0.15682 88:-0.058035001 89:0.046231002 90:-0.087095998 91:0.054241002 92:-0.114208 93:0.017030001 94:-0.078263 95:-0.146267 96:-0.066105999 97:-0.12643 98:-0.053049002 99:-0.074527003 100:-0.027658001 #
-0.15612446647577074565482746493217 1:-0.077487998 2:0.0056139999 3:0.079448 4:0.0057199998 5:0.019995 6:0.02201 7:0.050124001 8:0.010253 9:0.063345 10:-0.028744999 11:-0.010694 12:-0.068108998 13:0.02461 14:-0.014923 15:0.005839 16:-0.019316999 17:0.037117001 18:0.038006999 19:0.008231 20:0.024715001 21:0.0043930002 22:-0.011707 23:0.0070259999 24:0.014046 25:0.0045030001 26:0.017162999 27:0.001924 28:0.0078229997 29:-0.021795999 30:0.009172 31:-0.0045889998 32:-0.0039630001 33:-0.100696 34:0.036745999 35:0.0066240001 36:0.037974 37:-0.057395 38:-0.013663 39:0.029095 40:-0.030995 41:-0.016609 42:-0.0020039999 43:-0.023840999 44:-0.053431999 45:-0.041443001 46:0.03039 47:0.026322 48:0.045705002 49:0.00205 50:-0.060214002 51:0.022057001 52:-0.040978 53:0.068020999 54:-0.027388001 55:-0.020923 56:-0.020592 57:-0.034510002 58:-0.074709997 59:-0.015345 60:-0.015584 61:-0.069077 62:0.0093459999 63:-0.088421002 64:-0.025514999 65:-0.056414001 66:-0.066280998 67:-0.093686998 68:-0.042665001 69:0.011606 70:-0.059454001 71:0.0065609999 72:0.010493 73:0.015477 74:-0.029867001 75:0.046572 76:0.043770999 77:-0.017728999 78:-0.027166 79:0.0032329999 80:-0.047533002 81:-0.031486001 82:-0.015045 83:-0.016625 84:-0.018483 85:0.046693999 86:-0.083265997 87:0.003571 88:-0.015132 89:0.028021 90:-0.022785001 91:-0.078353003 92:-0.017026 93:-0.022047 94:0.016535001 95:-0.037492 96:-0.049692001 97:0.057735998 98:-0.011216 99:-0.019293001 100:-0.003001 #
-0.067777892189561150804166800298844 1:0.034260999 2:0.037988 3:-0.0038020001 4:-0.030595999 5:-0.060029 6:-0.042254001 7:-0.01397 8:0.068374999 9:0.16034301 10:0.023893001 11:-0.095321 12:0.017077999 13:0.13139001 14:0.14781199 15:-0.0069610002 16:-0.0062600002 17:0.073677003 18:0.088524997 19:-0.31348601 20:0.024919 21:0.123254 22:-0.055544998 23:-0.138594 24:0.042619001 25:-0.074194998 26:0.066606998 27:-0.156058 28:-0.020762 29:0.066817999 30:0.16722099 31:0.191406 32:0.062650003 33:0.03943 34:-0.0064619998 35:-0.048587002 36:-0.061737999 37:-0.106396 38:0.000841 39:0.0089210002 40:-0.083894998 41:-0.26872101 42:0.048654001 43:-0.217832 44:-0.13527501 45:0.0088470001 46:0.005775 47:0.050085001 48:0.089046001 49:-0.027728001 50:0.071928002 51:0.104015 52:0.150986 53:0.277089 54:-0.0046799998 55:-0.19353101 56:-0.29386401 57:0.082480997 58:-0.12799101 59:-0.019975999 60:-0.091294996 61:0.044020999 62:-0.19798701 63:0.032657001 64:0.082925998 65:-0.24045999 66:-0.14384601 67:-0.040805999 68:-0.019371999 69:0.089928001 70:0.0098390002 71:-0.035746001 72:-0.057193 73:-0.019293001 74:-0.204768 75:-0.098072 76:-0.016936 77:-0.032767002 78:0.114282 79:-0.113316 80:0.15785401 81:0.0073850001 82:-0.105333 83:0.058166999 84:0.17072 85:0.112564 86:0.188926 87:-0.183042 88:0.092872001 89:0.095053002 90:0.018894 91:-0.153863 92:0.081610002 93:-0.02932 94:-0.046270002 95:-0.126155 96:0.165507 97:-0.017569 98:0.0068390002 99:0.029919 100:-0.102165 #
0.26476015436042893425039324029058 1:-0.15897401 2:0.0026120001 3:0.146118 4:-0.034304999 5:0.0091960002 6:0.015232 7:0.104416 8:-0.052910998 9:-0.108496 10:0.02699 11:-0.175842 12:-0.020883 13:0.011753 14:-0.32572901 15:-0.035284001 16:0.122622 17:0.012709 18:-0.071685001 19:0.26821801 20:-0.042849001 21:-0.070765004 22:-0.014744 23:0.125515 24:0.056620002 25:0.123167 26:-0.087379001 27:0.12591501 28:-0.071782 29:0.014509 30:0.15109 31:0.017522 32:0.063193999 33:-0.033845 34:0.108214 35:0.071111999 36:0.02231 37:0.073238999 38:-0.00348 39:-0.149748 40:0.075864002 41:-0.00083899999 42:-0.020212 43:0.092986003 44:0.13464899 45:-0.103206 46:0.042872 47:-0.032961 48:0.091063 49:0.045534 50:0.091735996 51:0.042247001 52:0.197248 53:-0.001121 54:-0.078760996 55:0.0078309998 56:-0.013464 57:0.066319004 58:-0.046629999 59:0.139971 60:0.0085150003 61:-0.032423999 62:0.125561 63:-0.26881099 64:-0.013703 65:0.094585001 66:-0.019706 67:-0.086456999 68:-0.114606 69:-0.059650999 70:-0.061985999 71:-0.131955 72:-0.047995999 73:-0.0052459999 74:-0.066615999 75:-0.014485 76:0.096860997 77:0.031249 78:-0.113796 79:0.107947 80:-0.090852 81:-0.109159 82:0.0092890002 83:-0.004919 84:-0.069438003 85:0.030944001 86:-0.113356 87:-0.0099529997 88:0.038594998 89:-0.089594997 90:0.196621 91:-0.050388999 92:0.057291001 93:-0.051100001 94:0.0093369996 95:0.0018279999 96:0.0023920001 97:0.0067850002 98:-0.066582002 99:-0.106009 100:-0.028266 #
0.26476015436042893425039324029058 1:-0.069738001 2:0.217401 3:0.082307003 4:-0.028790001 5:-0.052329998 6:0.132084 7:0.048794001 8:0.243099 9:-0.055739 10:0.022832001 11:-0.010494 12:0.15086301 13:-0.214248 14:0.027687 15:-0.097347997 16:0.15029199 17:0.089221999 18:-0.041313 19:0.037742 20:-0.101185 21:0.229959 22:-0.054731999 23:-0.11718 24:-0.11708 25:-0.051860999 26:-0.22564501 27:-0.309461 28:0.144188 29:-0.097386003 30:-0.106263 31:0.082882002 32:0.016233999 33:-0.046996001 34:-0.085559003 35:-0.006519 36:-0.12730899 37:-0.017898999 38:-0.046503998 39:0.041949999 40:-0.207378 41:0.18550999 42:0.045278002 43:0.078167997 44:-0.011443 45:-0.087139003 46:0.097981997 47:0.066258997 48:-0.104213 49:0.096295998 50:0.097282998 51:0.043529 52:-0.085291997 53:-0.105812 54:-0.036430001 55:-0.056318 56:0.12750299 57:0.084862001 58:-0.057105001 59:0.077995002 60:-0.011806 61:0.142244 62:-0.054889001 63:-0.02352 64:0.34560999 65:0.031762999 66:-0.117757 67:-0.099091001 68:0.001739 69:0.020352 70:-0.007007 71:0.13861699 72:-0.028966 73:-0.308368 74:-0.052255001 75:0.13529 76:0.12657 77:0.26633501 78:-0.12996501 79:-0.055403002 80:0.16158301 81:-0.020067999 82:-0.084969997 83:-0.086433001 84:0.17646299 85:-0.095417999 86:0.014161 87:0.059420001 88:0.075460002 89:-0.082657002 90:0.21331701 91:0.089729004 92:0.116654 93:0.060008999 94:-0.044909 95:-0.013876 96:0.082309999 97:0.046496999 98:-0.241284 99:-0.106337 100:0.045214999 #
0.26476015436042893425039324029058 1:-0.031341001 2:0.056745999 3:0.083374999 4:0.078538001 5:0.073064998 6:0.050601002 7:0.072965004 8:-0.028310001 9:0.098180003 10:0.036185 11:-0.024346 12:0.056462001 13:-0.111898 14:-0.065739997 15:-0.12511 16:0.026201 17:0.054848 18:0.074216001 19:0.087114997 20:0.013505 21:-0.039882001 22:-0.075668 23:0.027755 24:-0.024542 25:-0.186248 26:-0.125976 27:-0.064143002 28:0.041157998 29:-0.138971 30:-0.055294 31:-0.038096 32:-0.010011 33:-0.0063550002 34:-0.086464003 35:-0.121327 36:-0.014452 37:0.0058539999 38:0.120951 39:-0.039039999 40:-0.015311 41:0.054962002 42:0.022529 43:0.118529 44:0.04033 45:-0.096418999 46:0.081712 47:-0.039374001 48:0.042394999 49:0.076747 50:0.044966999 51:0.067657001 52:-0.0022750001 53:-0.108258 54:0.067947 55:-0.0089260004 56:-0.027633 57:-0.018108999 58:0.0091120005 59:0.144563 60:-0.019161001 61:0.21416301 62:-0.023761 63:-0.041248001 64:0.15050299 65:0.048519 66:-0.116825 67:-0.051801998 68:-0.16084 69:0.086875997 70:-0.015977999 71:0.042822 72:-0.142691 73:-0.213991 74:0.060396999 75:0.040576 76:0.157378 77:0.058153 78:-0.043529999 79:-0.031390999 80:-0.069156997 81:-0.103224 82:-0.050172001 83:-0.027524 84:-0.0039380002 85:-0.044298001 86:0.064687997 87:-0.080689996 88:0.048402 89:-0.089552999 90:0.19904999 91:0.042038999 92:0.169661 93:-0.0039590001 94:-0.117457 95:-0.012966 96:-0.011976 97:-0.073415004 98:-0.101375 99:-0.105534 100:-0.085295998 #
-0.16299081587384908753612933196564 1:-0.138054 2:0.044070002 3:0.138822 4:0.026776999 5:0.029397 6:0.065508001 7:0.090641998 8:-0.018219 9:0.027544999 10:0.024096999 11:-0.20701499 12:0.042886999 13:-0.111137 14:-0.101677 15:-0.049068999 16:0.16939799 17:-0.022237999 18:-0.003606 19:0.149378 20:-0.053277001 21:0.025838001 22:0.030472999 23:0.12551001 24:0.025002999 25:-0.0050269999 26:-0.018154999 27:-0.100551 28:0.0028949999 29:-0.034832999 30:-0.074524 31:0.002715 32:-0.022815 33:0.054517001 34:-0.01107 35:0.084027998 36:0.0075420002 37:-0.0062750001 38:-0.012262 39:-0.16383401 40:-0.041409001 41:-0.017341999 42:-0.0047630002 43:0.03974 44:0.026923999 45:-0.208353 46:0.13728601 47:-0.081674002 48:0.076468997 49:0.043221001 50:0.116113 51:0.166557 52:0.098885998 53:-0.044785999 54:-0.049695998 55:-0.031659 56:0.064182997 57:0.014004 58:-0.056557 59:0.176791 60:-0.022895001 61:0.074380003 62:0.114784 63:-0.065127 64:0.165923 65:0.063253 66:-0.105295 67:-0.17420299 68:-0.24665301 69:-0.010348 70:-0.118791 71:0.067916997 72:-0.18062299 73:-0.150427 74:0.0052120001 75:-0.041003 76:0.17009 77:0.104682 78:-0.050997 79:-0.077 80:-0.068527997 81:-0.127877 82:-0.028973 83:-0.021531999 84:-0.037675999 85:-0.011249 86:-0.051704999 87:-0.041887999 88:0.0093160002 89:-0.107005 90:0.20708799 91:0.148423 92:0.129949 93:0.025869001 94:0.0021790001 95:0.012076 96:0.043512002 97:-0.140581 98:-0.099018 99:-0.22777499 100:-0.029674999 #
-0.16939057558155271032696020938602 1:-0.043694001 2:0.195797 3:0.076335996 4:0.045109 5:-0.027079999 6:0.0044200001 7:0.181512 8:-0.075433999 9:0.089091003 10:0.111921 11:-0.132484 12:-0.019878 13:-0.034352999 14:-0.00031800001 15:-0.100961 16:-0.036387 17:0.107561 18:0.0054239999 19:0.03019 20:-0.082676001 21:0.024793999 22:-0.089133002 23:0.113831 24:-0.147238 25:-0.025742 26:-0.16084801 27:-0.0079730004 28:-0.110909 29:-0.144979 30:0.161566 31:-0.0021579999 32:0.12744001 33:0.14023399 34:0.036463998 35:-0.122201 36:0.045265999 37:-0.019929999 38:-0.113947 39:-0.30276 40:0.031969 41:0.048011001 42:0.099150002 43:-0.017224999 44:0.064326003 45:-0.080591999 46:-0.035744 47:-0.097889997 48:0.071512997 49:0.042681001 50:0.024378 51:0.039701998 52:-0.053235002 53:-0.090173997 54:0.048971999 55:-0.062120002 56:0.010982 57:0.10796 58:-0.130872 59:0.093296997 60:-0.12637199 61:0.069953002 62:0.034219 63:-0.059012 64:-0.037152 65:0.102204 66:0.077891 67:-0.10353 68:-0.097177997 69:-0.002387 70:-0.071612 71:-0.010735 72:0.050657999 73:-0.030312 74:-0.13041601 75:0.129325 76:0.131271 77:0.011333 78:0.037946999 79:0.15139499 80:-0.046682999 81:-0.095429003 82:-0.30639601 83:0.105079 84:0.17386 85:-0.0051119998 86:0.132653 87:0.085819997 88:0.033020999 89:0.031198001 90:0.115022 91:0.24698301 92:0.076779 93:0.149073 94:0.0096859997 95:0.0026779999 96:-0.038624 97:-0.110149 98:0.02947 99:-0.052021001 100:0.142755 #
-0.014432292399235130408996496953478 1:-0.100474 2:-0.162287 3:0.086854003 4:-0.116944 5:0.035353001 6:0.070554003 7:-0.074969001 8:0.021524999 9:0.13905799 10:0.112201 11:-0.029871 12:-0.14669 13:0.13366701 14:-0.03929 15:0.127756 16:-0.02782 17:-0.193399 18:0.101762 19:-0.159702 20:0.102147 21:-0.055441 22:-0.056065999 23:0.085372999 24:-0.014733 25:0.170922 26:-0.035239 27:0.130652 28:-0.286612 29:0.079158999 30:-0.068517998 31:0.151416 32:0.115497 33:-0.058752 34:0.16217799 35:0.061792001 36:-0.061666999 37:-0.0043930002 38:-0.182834 39:-0.0086899996 40:0.228797 41:-0.129767 42:-0.0057399999 43:-0.20073 44:0.081909999 45:0.066711999 46:-0.117228 47:-0.13119 48:0.023026999 49:-0.045293 50:0.15958001 51:0.056504 52:0.127836 53:0.317085 54:0.142115 55:-0.13796601 56:-0.123484 57:0.027265999 58:-0.041352998 59:0.026292 60:0.097836003 61:-0.043108001 62:-0.125847 63:-0.182521 64:-0.026644999 65:-0.095532 66:-0.051199999 67:-0.078528002 68:-0.089929 69:0.038841002 70:-0.074755996 71:-0.024719 72:0.067648001 73:-0.064369999 74:-0.114947 75:0.067755997 76:0.077767998 77:-0.31015199 78:0.113606 79:0.094278999 80:0.066647001 81:0.081015997 82:0.052859001 83:-0.214894 84:-0.096219003 85:-0.111161 86:-0.080412 87:-0.012334 88:0.028675999 89:0.13023201 90:-0.045991 91:-0.151857 92:-0.030448999 93:0.065011002 94:-0.168736 95:-0.079264998 96:-0.039453 97:0.001469 98:0.14690401 99:0.032127999 100:-0.075387999 #
0.26476015436042893425039324029058 1:-0.048735 2:0.001467 3:-0.047233999 4:-0.0066260002 5:0.062445998 6:0.099575996 7:0.09228 8:-0.098035999 9:-0.045653999 10:-0.104096 11:-0.133958 12:0.13120399 13:0.031980999 14:0.056095 15:-0.010325 16:0.035854999 17:0.115444 18:0.054807998 19:-0.033984002 20:-0.011169 21:-0.060217999 22:-0.062369 23:-0.076099999 24:0.074975997 25:0.064283997 26:0.01326 27:-0.061303999 28:0.055876002 29:0.0085890004 30:0.15147001 31:-0.044379 32:-0.060794 33:-0.050914001 34:0.035473999 35:-0.00148 36:-0.062879004 37:-0.024372 38:-0.016083 39:-0.113054 40:0.033489 41:-0.123906 42:-0.050685 43:0.023543 44:-0.001059 45:0.082315996 46:0.067093 47:-0.0022789999 48:0.007741 49:0.022735 50:0.075106002 51:0.122838 52:0.027011 53:-0.020403 54:-0.0071470002 55:-0.065742001 56:0.03073 57:0.077221997 58:0.022427 59:0.0054190001 60:0.012312 61:0.003182 62:-0.0082639996 63:0.038408998 64:0.044665001 65:0.045446001 66:-0.058267999 67:-0.159043 68:-0.10723 69:0.060086999 70:-0.0024059999 71:-0.063358001 72:0.098830998 73:-0.050043002 74:0.0079690004 75:0.158424 76:0.040155001 77:0.060600001 78:-0.041618999 79:-0.082238004 80:-0.072540998 81:-0.067473002 82:-0.062709004 83:-0.021251 84:0.0013839999 85:0.240695 86:-0.014485 87:-0.132608 88:0.014864 89:-0.00109 90:0.108426 91:-0.054023001 92:0.029258 93:0.029615 94:-0.120069 95:-0.203664 96:0.0092930002 97:0.076215997 98:0.074812002 99:-0.027324 100:0.081234001 #
0.26476015436042893425039324029058 1:-0.044638 2:-0.036883 3:0.109309 4:-0.033730999 5:0.0081409998 6:-0.049862001 7:-0.070835002 8:0.033305001 9:0.148323 10:0.052726001 11:0.048138998 12:-0.181348 13:0.16319101 14:-0.027299 15:0.048427001 16:0.018631 17:-0.062006 18:0.186931 19:-0.122628 20:0.045938998 21:-0.011722 22:-0.016075 23:-0.021604 24:0.026031001 25:0.027995 26:-0.061631002 27:0.006854 28:-0.213789 29:-0.055009 30:-0.033647001 31:-0.0099250004 32:0.093404002 33:-0.11624 34:0.115837 35:-0.020021999 36:-0.10267 37:-0.014969 38:-0.048326999 39:-0.108262 40:-0.0091669997 41:-0.071327999 42:0.063511997 43:-0.15273701 44:0.019804999 45:-0.097676001 46:-0.094186001 47:0.053617999 48:0.065741003 49:-0.046682 50:0.030766999 51:0.023979001 52:0.092653997 53:0.253721 54:0.15507101 55:-0.232831 56:-0.19355001 57:-0.066696003 58:-0.155324 59:0.018499 60:-0.011748 61:-0.073987 62:-0.084785998 63:-0.13929 64:-0.117012 65:-0.129251 66:-0.102023 67:-0.115197 68:-0.043047 69:-0.018998999 70:-0.030872 71:-0.037227001 72:0.050441999 73:0.026629001 74:-0.035223 75:0.028101999 76:0.126423 77:-0.25044399 78:0.147755 79:-0.052575 80:0.13771001 81:-0.053312998 82:-0.078824997 83:0.036401 84:-0.077973001 85:-0.0087270001 86:-0.098550998 87:-0.062597997 88:-0.011546 89:0.075714 90:-0.094881997 91:-0.220258 92:-0.123741 93:-0.072222002 94:-0.060531002 95:-0.218925 96:-0.048632 97:0.097484 98:0.062606998 99:-0.027654 100:-0.090301 #
-0.2385460362679587553724758208773 1:-0.098117001 2:-0.086542003 3:0.096331999 4:-0.065012001 5:-0.074706003 6:0.066200003 7:0.027569 8:-0.037854999 9:0.071327001 10:-0.022296 11:-0.01405 12:-0.101836 13:0.174372 14:-0.053316001 15:0.106297 16:-0.050446998 17:-0.12941401 18:0.0038999999 19:-0.038802002 20:0.067294002 21:-0.043632001 22:-0.11479 23:0.0046959999 24:0.058602002 25:0.064245 26:-0.082911998 27:0.176102 28:-0.25664401 29:0.113771 30:0.078547001 31:0.037618 32:-0.007983 33:-0.012836 34:0.13459501 35:-0.00703 36:-0.025134999 37:-0.091767997 38:-0.097837999 39:-0.117885 40:0.181272 41:-0.063839003 42:-0.082025997 43:-0.0096779997 44:0.080776997 45:-0.01289 46:-0.190477 47:-0.137464 48:0.043113001 49:-0.099657997 50:0.035854999 51:0.061841998 52:0.083547004 53:0.14927 54:0.179369 55:-0.16809601 56:-0.16517401 57:-0.075102001 58:-0.061051 59:0.049467001 60:0.043338001 61:-0.027074 62:-0.017294999 63:-0.055172 64:-0.069733001 65:-0.116796 66:-0.077041 67:-0.019438 68:0.026523 69:-0.030492 70:-0.110238 71:0.006304 72:-0.011538 73:0.077471003 74:0.035021 75:0.0037090001 76:0.067749001 77:-0.24693801 78:0.15350699 79:0.081358001 80:0.124686 81:-0.048308998 82:0.0064750002 83:0.042608999 84:-0.030662 85:0.043701999 86:-0.116781 87:-0.077142999 88:0.0052319998 89:0.045529 90:-0.082115002 91:-0.1469 92:-0.205854 93:0.040479999 94:-0.084477 95:-0.20821799 96:-0.041074 97:0.023531999 98:0.023637 99:-0.037250999 100:-0.122352 #
-0.0097972383631213574156637591272556 1:-0.033245999 2:-0.203051 3:-0.157175 4:-0.040509999 5:-0.119168 6:0.051701002 7:-0.112918 8:0.042911001 9:-0.174152 10:-0.077303998 11:-0.097690001 12:-0.057803001 13:0.083517 14:-0.038407002 15:0.054722998 16:-0.067051001 17:0.041221 18:0.155361 19:-0.197846 20:0.113556 21:-0.031256001 22:0.082103997 23:-0.33133399 24:-0.115354 25:0.077637002 26:0.162241 27:-0.035638001 28:-0.131464 29:0.016434999 30:-0.151494 31:0.037719 32:0.103703 33:-0.012953 34:-0.034458 35:-0.19224299 36:-0.102908 37:0.043127999 38:-0.094567001 39:0.284677 40:0.041956 41:-0.172681 42:0.20874999 43:-0.11631 44:-0.168163 45:-0.010991 46:0.021709999 47:-0.015256 48:0.151683 49:-0.107081 50:-0.110466 51:-0.164864 52:0.033204 53:0.099399999 54:0.072787002 55:-0.109038 56:-0.028674001 57:-0.027372999 58:-0.037944999 59:-0.073867999 60:0.098986 61:-0.17787001 62:-0.042805001 63:0.088380001 64:-0.092233002 65:-0.027291 66:0.021624001 67:0.00081100001 68:0.122129 69:-0.141745 70:0.034694001 71:-0.047460999 72:-0.052857999 73:0.051460002 74:0.20524999 75:0.20153201 76:-0.154604 77:-0.13184001 78:-0.014336 79:0.048953 80:0.16361199 81:-0.047448002 82:-0.060499001 83:-0.071906 84:0.057298001 85:-0.018790999 86:0.034956001 87:-0.140771 88:-0.124893 89:-0.118221 90:-0.111578 91:0.021039 92:-0.226969 93:-0.013912 94:0.020093 95:-0.23769 96:0.059771001 97:0.161457 98:0.082650997 99:0.129997 100:-0.052221999 #
-0.1049590798288470017141094103863 1:0.090360001 2:0.019856 3:-0.201611 4:0.054164998 5:-0.069568999 6:0.051362999 7:0.037735 8:-0.086460002 9:-0.073279999 10:0.011934 11:-0.118252 12:0.076603003 13:-0.015679 14:0.139229 15:0.037368 16:-0.029261 17:0.027153 18:0.023145 19:-0.099367999 20:0.015193 21:0.015394 22:0.073467001 23:-0.14602099 24:0.032986 25:0.013078 26:-0.014186 27:-0.0086610001 28:0.027985999 29:0.032164 30:0.118485 31:-0.077884004 32:0.116794 33:0.096956 34:-0.101843 35:-0.02695 36:0.001254 37:-0.011086 38:-0.0036849999 39:0.14903399 40:-0.054923002 41:-0.116256 42:0.019958001 43:-0.103638 44:-0.146795 45:0.091595002 46:0.12546 47:-0.031622998 48:0.048372 49:-0.023435 50:-0.14279801 51:-0.100984 52:0.025559001 53:-0.085233003 54:-0.091767997 55:-0.054273002 56:0.033496998 57:0.073266998 58:-0.032311998 59:-0.043545999 60:0.015318 61:0.032451 62:0.025141001 63:0.19191 64:0.074799001 65:-0.0094130002 66:0.117521 67:-0.0148 68:-0.071834996 69:0.032127 70:0.099982001 71:0.012471 72:-0.050292 73:-0.045416001 74:0.066652998 75:0.078814998 76:-0.22818799 77:0.126886 78:0.044238999 79:-0.026730999 80:0.099744998 81:0.049917001 82:-0.138037 83:0.088574 84:0.101081 85:0.089993998 86:0.211997 87:-0.077229999 88:-0.054969002 89:-0.113659 90:-0.013766 91:0.159817 92:-0.050581999 93:-0.0064449999 94:0.045136999 95:-0.073590003 96:0.094975002 97:0.048071001 98:-0.049322002 99:-0.028093999 100:0.051128 #
0.26476015436042893425039324029058 1:-0.114971 2:0.13482399 3:0.0083969999 4:-0.042962998 5:0.056111999 6:0.091505997 7:0.048299 8:0.107306 9:-0.018774001 10:0.037514001 11:-0.154052 12:0.0057549998 13:-0.0081559997 14:-0.097769 15:-0.011252 16:0.176998 17:0.196344 18:0.16050699 19:0.076113001 20:-0.115715 21:0.105522 22:-0.014038 23:0.0027910001 24:-0.0241 25:0.037758999 26:0.0037710001 27:0.004468 28:-0.088914998 29:-0.019587999 30:0.142481 31:0.098096997 32:0.051704999 33:0.036017999 34:0.089644998 35:0.038516998 36:-0.010288 37:0.033080999 38:-0.016023999 39:-0.085708 40:-0.069351003 41:-0.11858 42:-0.01202 43:-0.081389003 44:0.020963 45:-0.11209 46:0.115078 47:0.064783998 48:0.060718998 49:0.061317999 50:0.011394 51:0.065383002 52:0.12671199 53:0.029518999 54:-0.048595998 55:-0.072509997 56:-0.019828999 57:0.053738002 58:-0.13326199 59:0.048218001 60:-0.0061019999 61:0.016798001 62:0.065805003 63:-0.115981 64:0.13234501 65:0.084158003 66:0.011931 67:-0.158971 68:-0.094715998 69:-0.030785 70:-0.096430004 71:-0.080146998 72:-0.0086580003 73:-0.14352401 74:0.018913999 75:-0.042842001 76:0.001327 77:0.015628001 78:-0.051293001 79:-0.054338001 80:-0.062574998 81:-0.075383 82:-0.123923 83:0.037439 84:-0.03317 85:0.148697 86:0.043604001 87:-0.053642999 88:0.072981998 89:0.054761 90:0.164359 91:-0.021702001 92:0.085253 93:-0.024855001 94:0.07846 95:-0.046875 96:0.061709002 97:0.054813001 98:0.035983 99:-0.086110003 100:-0.001563 #
0.26476015436042893425039324029058 1:-0.14009801 2:0.057840001 3:0.22681101 4:0.0061519998 5:0.038098 6:-0.096408002 7:0.055036999 8:0.078607 9:0.093225002 10:0.083912998 11:-0.027101001 12:-0.052306 13:0.056541 14:-0.082884997 15:-0.015456 16:0.117746 17:-0.014139 18:0.02076 19:0.038716 20:0.039145999 21:0.032605998 22:0.000176 23:0.133369 24:-0.044094998 25:0.111735 26:0.042633001 27:-0.100777 28:0.051474001 29:0.064557001 30:0.075929001 31:0.059930999 32:0.067569003 33:-0.090458997 34:0.074119002 35:0.063196003 36:0.036908999 37:-0.043232001 38:-0.021485001 39:-0.031606 40:-0.021527 41:-0.073862001 42:-0.017036 43:-0.074761003 44:-0.028960999 45:0.0076609999 46:0.053721 47:-0.045224 48:0.023512 49:0.018433999 50:0.087026998 51:0.072572999 52:0.01564 53:0.170095 54:-0.111598 55:0.062942997 56:-0.061967999 57:0.102423 58:-0.103455 59:-0.011001 60:-0.098890997 61:-0.036111001 62:0.015087 63:-0.22210699 64:-0.062510997 65:-0.058623999 66:0.050113998 67:-0.138914 68:-0.031337999 69:0.016991001 70:-0.117014 71:-0.025488 72:0.027349001 73:-0.072117999 74:-0.221352 75:0.032896999 76:0.129527 77:0.004652 78:-0.042535 79:0.010074 80:-0.085699998 81:0.073302001 82:-0.008289 83:-0.14696001 84:0.049764998 85:0.043271001 86:-0.03559 87:0.050857998 88:0.104447 89:0.084036 90:0.068485998 91:-0.118071 92:0.076621003 93:0.029275 94:0.043834999 95:0.084769003 96:-0.043081 97:0.019990999 98:0.0064420002 99:-0.073945001 100:-0.003146 #
-0.099082021221076121975102068972774 1:-0.15926801 2:0.098017998 3:0.040677998 4:0.042107001 5:0.096300997 6:0.120673 7:0.13088199 8:0.134396 9:0.025139 10:0.041815002 11:-0.147321 12:0.029890999 13:0.182073 14:-0.154607 15:0.034132998 16:0.20323101 17:0.199321 18:0.25476101 19:-0.025471 20:-0.009997 21:0.0032909999 22:-0.011121 23:0.080730997 24:0.029539 25:0.14115 26:0.011811 27:0.099437997 28:-0.1246 29:-0.018228 30:0.26644 31:0.069964997 32:0.12491 33:-0.020733999 34:0.098650999 35:0.001196 36:-0.040858001 37:0.120225 38:-0.040782999 39:-0.123831 40:-0.029154999 41:-0.031619001 42:0.032609999 43:-0.078639001 44:0.040373001 45:-0.050126001 46:0.23657601 47:0.100622 48:0.11605 49:0.041391999 50:-0.023364 51:-0.00023799999 52:0.107374 53:0.084074996 54:-0.089775003 55:-0.022980999 56:0.02813 57:0.172295 58:-0.221443 59:0.171524 60:-0.090778999 61:-0.019257 62:0.049862001 63:-0.187391 64:0.099720001 65:-0.027999001 66:0.053911 67:-0.15504301 68:-0.019414 69:0.02376 70:-0.125168 71:-0.15381099 72:0.138947 73:-0.174118 74:-0.105099 75:0.082640998 76:0.055670999 77:0.120366 78:0.088358998 79:0.024978001 80:-0.074231997 81:-0.068237998 82:-0.121177 83:-0.078832 84:-0.028643999 85:0.15682399 86:0.080715999 87:-0.089507997 88:0.133615 89:0.090138003 90:0.241813 91:-0.015396 92:0.187062 93:-0.033718001 94:0.026385 95:-0.088537 96:-0.00090099999 97:0.010961 98:0.141754 99:-0.036525998 100:0.010376 #
-0.062450451648383475955483845609706 1:-0.20568199 2:0.17011499 3:0.18610001 4:0.088985004 5:0.054368 6:-0.046066999 7:0.070430003 8:0.047386002 9:0.090892002 10:0.19273201 11:0.0060160002 12:-0.088722996 13:0.081572004 14:-0.35281 15:-0.162586 16:0.169622 17:0.081973001 18:0.17182 19:0.089328997 20:-0.17448001 21:0.090200998 22:0.183045 23:0.064622 24:-0.075395003 25:-0.121757 26:0.019895 27:0.037636999 28:-0.15380301 29:-0.080544002 30:0.061117001 31:-0.076398998 32:-0.0098879999 33:-0.104201 34:0.236212 35:-0.194433 36:-0.05009 37:-0.111573 38:-0.160633 39:-0.21885601 40:0.01408 41:-0.21515 42:-0.031257998 43:0.039675999 44:0.28340501 45:-0.212025 46:0.056648999 47:0.11156 48:0.025822001 49:-0.012127 50:0.25836101 51:-0.0062529999 52:0.222837 53:0.077434003 54:0.042851001 55:-0.028036 56:0.104533 57:0.096171997 58:0.018712001 59:-0.063522004 60:-0.015049 61:0.217558 62:0.177302 63:-0.37246999 64:-0.152492 65:0.065572001 66:0.28004399 67:-0.025992 68:0.048912998 69:-0.106177 70:0.092275001 71:-0.19100299 72:-0.010273 73:-0.085245997 74:-0.058529999 75:-0.117552 76:0.290746 77:-0.14010701 78:0.065999001 79:-0.140384 80:0.150885 81:-0.19677401 82:-0.35670301 83:0.082088001 84:-0.155663 85:0.233053 86:0.038780998 87:0.099715002 88:0.088156 89:-0.079931997 90:0.116795 91:-0.13246199 92:0.117016 93:0.010525 94:0.171701 95:-0.008932 96:-0.063284002 97:0.068983003 98:0.066834003 99:-0.106667 100:-0.096455999 #
-0.17950848777842359771383939914813 1:0.010383 2:0.082799003 3:0.052150998 4:-0.044558998 5:-0.0031940001 6:0.069386996 7:-0.036752999 8:0.13548499 9:0.004677 10:0.096299 11:-0.123309 12:0.14612199 13:-0.023360999 14:0.14731599 15:-0.103618 16:0.221535 17:0.157298 18:0.14997099 19:0.001795 20:-0.086424999 21:0.12785099 22:-0.050430998 23:0.078628004 24:-0.0065290001 25:0.059953999 26:-0.018216001 27:-0.070129998 28:0.034765001 29:0.048912 30:0.233215 31:0.049325999 32:0.059564002 33:-0.028434001 34:-0.025420999 35:0.017537 36:-0.10967 37:-0.078961 38:-0.0042719999 39:-0.010199 40:-0.113275 41:-0.164731 42:0.023854 43:-0.148136 44:-0.073095001 45:-0.034894999 46:0.163442 47:0.065204002 48:-0.105815 49:0.103893 50:0.078437001 51:0.133922 52:0.130238 53:0.053164002 54:-0.081618004 55:-0.098990999 56:0.020182 57:0.230323 58:-0.045988999 59:0.0035319999 60:-0.035048001 61:0.072314002 62:-0.030224999 63:0.00061500003 64:0.136856 65:-0.037032001 66:0.102675 67:-0.15124001 68:-0.086759001 69:0.111738 70:-0.035381 71:-0.039331999 72:0.095068 73:-0.081699997 74:-0.032338001 75:0.080797002 76:0.087274 77:0.025323 78:0.028372001 79:-0.118119 80:0.075048 81:0.058263 82:-0.15974399 83:0.015985999 84:0.114276 85:0.11474 86:0.068605997 87:-0.12869801 88:0.107772 89:0.117299 90:0.178462 91:-0.133222 92:0.142141 93:0.0096239997 94:0.029674999 95:0.025667001 96:0.047410998 97:-0.059253 98:-0.057957001 99:-0.122709 100:-0.059367001 #
0.26476015436042893425039324029058 1:-0.089391999 2:-0.107042 3:0.058235001 4:-0.10173 5:-0.146277 6:0.091944002 7:0.037335001 8:-0.056407999 9:0.079562999 10:0.021947 11:0.054214001 12:-0.242045 13:0.059583999 14:-0.0074479999 15:0.049079999 16:-0.082353003 17:-0.26611 18:-0.029235 19:-0.103695 20:0.082690001 21:-0.0062310002 22:-0.031831 23:0.102719 24:0.093001001 25:0.083223 26:-0.184045 27:0.26902601 28:-0.221467 29:0.087678 30:0.0032949999 31:0.062746003 32:0.030273 33:-0.088866003 34:0.123965 35:0.052558001 36:0.024863999 37:-0.14609499 38:-0.17379899 39:-0.077269003 40:0.202709 41:-0.020749999 42:-0.037067998 43:-0.01016 44:-0.054111999 45:-0.074804001 46:-0.160478 47:-0.032258 48:0.122159 49:-0.120565 50:-0.13894799 51:0.059572 52:-0.043635 53:0.116685 54:0.165998 55:-0.140683 56:-0.088371001 57:-0.098564997 58:-0.112416 59:0.030129001 60:-0.001114 61:0.0078260005 62:-0.03001 63:-0.076278001 64:-0.139947 65:-0.32227001 66:-0.229771 67:0.024870001 68:0.068495996 69:0.034389 70:-0.119706 71:-0.055052001 72:-0.138254 73:0.20393801 74:-0.026943 75:-0.066641003 76:0.13520201 77:-0.168235 78:0.086401001 79:0.139523 80:0.13404401 81:0.020022999 82:0.093713 83:0.037813 84:0.040422998 85:0.033417001 86:-0.21109 87:-0.124843 88:-0.040739 89:0.037875 90:-0.153989 91:-0.105338 92:-0.145487 93:-0.030895 94:-0.095661998 95:-0.088551998 96:-0.011218 97:-0.012976 98:-0.051436 99:0.022593999 100:-0.214973 #
0.26476015436042893425039324029058 1:-0.18079001 2:0.058642 3:-0.043584999 4:-0.114738 5:-0.139195 6:0.12988199 7:0.0063780001 8:0.0623 9:-0.011985 10:-0.039914001 11:0.0097930003 12:-0.180574 13:0.29212499 14:-0.116482 15:-0.110439 16:-0.098731004 17:-0.093154997 18:-0.021602999 19:-0.044496998 20:0.037912998 21:0.062383 22:-0.162919 23:-0.25847501 24:0.011869 25:0.0066249999 26:-0.15274499 27:0.231125 28:-0.186921 29:0.12808 30:0.175165 31:0.079253003 32:-0.032442 33:-0.003633 34:0.100709 35:-0.042440999 36:-0.085749999 37:-0.029808 38:-0.126205 39:-0.23026501 40:0.17270701 41:0.059131999 42:-0.007952 43:-0.041995998 44:0.048119001 45:-0.119481 46:-0.221193 47:-0.049938999 48:0.116024 49:0.013063 50:-0.213833 51:-0.09031 52:-0.079620004 53:0.0071660001 54:0.077551998 55:-0.19103201 56:-0.088482 57:-0.16636699 58:-0.101825 59:0.026447 60:0.153547 61:-0.0041899998 62:0.059011001 63:0.03063 64:-0.072759002 65:-0.19992401 66:-0.16463999 67:-0.116049 68:0.11192 69:-0.105306 70:-0.046278 71:-0.084941 72:0.019019 73:0.151841 74:0.180264 75:0.021225 76:0.141725 77:-0.015923999 78:0.129077 79:0.232823 80:0.170002 81:-0.066892996 82:0.079658002 83:0.25559601 84:0.113796 85:0.19336399 86:-0.25331199 87:-0.013733 88:0.182805 89:0.147028 90:-0.064478002 91:0.067606002 92:-0.26936501 93:0.034295999 94:0.001533 95:0.003456 96:-0.072034001 97:0.059555002 98:0.130853 99:0.076122999 100:-0.142593 #
0.26476015436042893425039324029058 1:-0.083116002 2:-0.052809 3:0.119626 4:-0.0010930001 5:-0.175318 6:-0.043889001 7:0.014186 8:-0.00074699998 9:0.094310999 10:-0.020941 11:0.093776003 12:-0.114815 13:0.15264399 14:-0.058701999 15:0.053686999 16:-0.049300998 17:-0.158014 18:-0.066798002 19:0.022949001 20:0.064934999 21:0.00061699998 22:-0.065606996 23:0.0074029998 24:0.035144001 25:-0.0080359997 26:-0.075521 27:0.087811001 28:-0.165369 29:0.163156 30:-0.05669 31:0.095459998 32:-0.0028039999 33:-0.064525001 34:0.17926501 35:-0.010789 36:0.041827999 37:-0.089275002 38:-0.124707 39:-0.036334999 40:-0.027299 41:-0.051073998 42:0.026935 43:-0.091302998 44:-0.122207 45:-0.066520996 46:-0.15816 47:-0.055805001 48:0.065320998 49:-0.107992 50:0.046898998 51:0.10329 52:0.062936001 53:0.110653 54:0.13518199 55:-0.072008997 56:-0.16066401 57:-0.046760999 58:-0.112995 59:-0.041761 60:-0.070584998 61:-0.089293003 62:-0.018394001 63:-0.138668 64:-0.112182 65:-0.13903099 66:-0.117767 67:-0.053716999 68:0.017555 69:-0.031461999 70:-0.15455 71:0.068296999 72:-0.031509999 73:0.193996 74:-0.049077 75:-0.059528001 76:0.170055 77:-0.218197 78:0.023813 79:0.013485 80:0.126388 81:0.004561 82:0.045221001 83:0.037372999 84:0.056793999 85:-0.047656 86:-0.127478 87:0.029477 88:0.015795 89:0.073576003 90:-0.093557 91:-0.106843 92:-0.232539 93:0.034485001 94:-0.116336 95:-0.148293 96:-0.064361997 97:0.042916 98:-0.065582998 99:-0.017828999 100:-0.097494997 #
-0.11918286207636867579662265370644 1:-0.240906 2:0.001426 3:0.20957799 4:-0.050592002 5:-0.061663002 6:-0.071202002 7:0.079834998 8:-0.091779001 9:0.092937998 10:-0.017772 11:-0.16458 12:-0.149533 13:0.127399 14:-0.190193 15:0.010892 16:0.070639998 17:-0.067158997 18:0.001936 19:-0.084037997 20:0.034625001 21:-0.0036589999 22:0.033709999 23:0.154911 24:0.017891999 25:0.147499 26:-0.0085890004 27:0.155387 28:-0.097456001 29:0.065080002 30:0.098056003 31:0.0047360002 32:0.079060003 33:-0.190266 34:0.164184 35:0.082424 36:0.121912 37:-0.207133 38:0.015976001 39:-0.119281 40:0.038899999 41:-0.122046 42:-0.036139999 43:0.089112997 44:0.067157 45:0.046266001 46:-0.026464 47:-0.038497001 48:0.146265 49:-0.076655999 50:-0.025525 51:0.089160003 52:0.087925002 53:0.30808899 54:0.021106999 55:-0.174044 56:-0.053289 57:-0.022670999 58:-0.153163 59:0.030060001 60:-0.057689998 61:-0.118968 62:0.053792998 63:-0.31106699 64:-0.190529 65:-0.113242 66:-0.13955 67:-0.071938001 68:-0.059610002 69:0.009877 70:-0.049525999 71:-0.082194 72:-0.02538 73:0.002601 74:-0.22792099 75:0.101775 76:0.23220199 77:-0.115494 78:0.088010997 79:0.00868 80:-0.073003002 81:-0.128631 82:0.033883002 83:-0.068143003 84:-0.043921001 85:0.173868 86:-0.204327 87:-0.054189999 88:0.0065430002 89:0.065719999 90:0.0061289999 91:-0.25652501 92:-0.080041997 93:-0.063332997 94:0.061976001 95:-0.15079901 96:-0.118161 97:0.19655199 98:-0.001125 99:-0.17694899 100:-0.116692 #
-0.20254680907033384418269861271256 1:-0.15298299 2:-0.056308001 3:0.25677699 4:-0.111382 5:-0.107547 6:-0.073537 7:0.039524 8:-0.019274 9:0.050519999 10:-0.0073179998 11:-0.012639 12:-0.063840002 13:0.056012999 14:-0.138937 15:0.181325 16:0.064436004 17:-0.240263 18:-0.074922003 19:0.150644 20:0.065591 21:0.028893 22:-0.031649999 23:-0.011474 24:0.115698 25:0.120283 26:-0.083288997 27:0.075731002 28:0.012326 29:0.098720998 30:0.077174999 31:-0.035367999 32:0.086981997 33:-0.089529999 34:0.069816999 35:-0.031218 36:0.100228 37:-0.16587 38:-0.01038 39:-0.061381001 40:0.17256001 41:-0.045384001 42:0.069366999 43:0.017140999 44:-0.057241 45:0.034975 46:-0.060600001 47:-0.045015 48:0.069078997 49:0.021346999 50:0.156653 51:0.089759 52:0.098876998 53:0.143572 54:-0.024027999 55:-0.130548 56:-0.136785 57:-0.046813 58:-0.125809 59:0.029359 60:-0.015097 61:-0.040288001 62:0.061944 63:-0.200459 64:-0.056283999 65:-0.062785 66:-0.242089 67:-0.035436999 68:-0.061041001 69:-0.028189 70:-0.102618 71:0.050852999 72:0.062830999 73:0.064933002 74:-0.042601999 75:0.042840999 76:0.041630998 77:-0.055025999 78:0.036026001 79:0.048477001 80:0.055105999 81:0.032028001 82:0.090140998 83:0.068418004 84:0.025179001 85:0.090558998 86:-0.087435998 87:0.024351999 88:0.056579001 89:0.069045 90:0.105153 91:-0.108104 92:-0.058235999 93:-0.031166 94:-0.1121 95:-0.22237299 96:-0.104683 97:0.031459 98:0.039767999 99:-0.186533 100:-0.076844998 #
-0.064369029308237318831587003842287 1:-0.025178 2:-0.045292001 3:-0.152713 4:-0.073634997 5:-0.14690299 6:-0.041237999 7:0.132608 8:0.0029730001 9:0.138496 10:-0.15454 11:0.121179 12:-0.11032 13:0.203521 14:-0.091553003 15:-0.077976003 16:-0.112419 17:-0.130705 18:0.013375 19:-0.129003 20:0.086352997 21:0.097880997 22:-0.099634998 23:-0.017137 24:0.051550001 25:-0.164579 26:-0.207674 27:0.153089 28:-0.201013 29:0.20935801 30:0.0054649999 31:0.027247 32:0.098871 33:0.197881 34:0.136948 35:-0.042052001 36:0.117705 37:-0.102485 38:-0.154734 39:-0.197396 40:0.137251 41:0.0053929999 42:0.026924999 43:0.070141003 44:0.0096739996 45:-0.16722 46:-0.261857 47:-0.070863001 48:0.108715 49:-0.039452001 50:-0.125274 51:0.116716 52:-0.067942999 53:0.069715001 54:0.111044 55:-0.21687099 56:-0.24360999 57:-0.234559 58:-0.11265 59:-0.10395 60:0.0017209999 61:0.087658003 62:-0.038587 63:0.077872999 64:-0.26591599 65:-0.18163 66:-0.243909 67:0.068434998 68:0.046094999 69:-0.103845 70:0.046952002 71:0.096217997 72:-0.093229003 73:0.32556799 74:0.132944 75:-0.058417998 76:-0.101176 77:-0.153602 78:0.135566 79:0.077573001 80:0.056632001 81:-0.0071999999 82:-0.056572001 83:0.229178 84:0.178295 85:0.21777201 86:-0.059785001 87:-0.030273 88:0.006877 89:-0.016527999 90:-0.029626001 91:-0.046684999 92:-0.196647 93:-0.025041999 94:0.011012 95:-0.093493998 96:-0.027765 97:-0.057964999 98:0.16146 99:0.012261 100:-0.070748001 #
0.26476015436042893425039324029058 1:-0.014762 2:0.106016 3:-0.024821 4:-0.041657999 5:-0.001494 6:0.159825 7:0.023716999 8:0.080594003 9:-0.033349 10:-0.011109 11:-0.067031004 12:0.003518 13:-0.060205001 14:0.034837998 15:-0.104263 16:0.12631699 17:0.16562501 18:0.173649 19:0.051592998 20:-0.125848 21:0.107665 22:-0.054138999 23:0.010799 24:-0.015294 25:-0.071670003 26:-0.113827 27:-0.045878001 28:-0.049977001 29:-0.01963 30:0.108628 31:0.018784 32:0.042151 33:0.012909 34:0.030408001 35:-0.010644 36:-0.066340998 37:0.041701999 38:-0.02744 39:-0.065695003 40:-0.092441 41:-0.045628 42:0.03246 43:-0.06182 44:-0.032685 45:-0.15714 46:0.14347 47:0.090127997 48:-0.0068819998 49:0.129848 50:0.048572 51:0.095328003 52:0.060426001 53:-0.0081420001 54:0.0038129999 55:-0.091144003 56:-0.080577999 57:0.062125001 58:-0.088037997 59:0.052549999 60:-0.056428999 61:0.045745999 62:0.0037740001 63:-0.046038002 64:0.175578 65:-0.020221001 66:-0.001396 67:-0.110294 68:-0.102352 69:0.076632999 70:-0.073097996 71:-0.017127 72:-0.049210001 73:-0.124273 74:0.058309 75:0.034965001 76:0.04417 77:-0.020102 78:-0.049601998 79:-0.079173997 80:0.059452999 81:-0.056113999 82:-0.12518699 83:0.0086740004 84:0.089483999 85:0.095893003 86:-0.0043959999 87:-0.086335003 88:0.019469 89:0.016362 90:0.17096899 91:-0.031098001 92:0.072522998 93:-0.0092799999 94:-0.014787 95:-0.029785 96:0.018835999 97:-0.075695999 98:-0.081364997 99:-0.163397 100:-0.029216999 #
0.26476015436042893425039324029058 1:-0.024058999 2:0.021159001 3:0.050445002 4:0.0052470001 5:-0.040883999 6:-0.040865999 7:-0.0073460001 8:0.013354 9:0.035137001 10:0.079985999 11:-0.116865 12:-0.031219 13:0.02454 14:0.013543 15:0.058019999 16:0.047244001 17:-0.021353001 18:0.049738999 19:-0.037542 20:0.075018004 21:0.090026997 22:0.018433001 23:-0.024354 24:0.132733 25:0.033897001 26:0.015851 27:-0.057663001 28:0.049327999 29:0.050377 30:0.188135 31:0.0097519998 32:0.018235 33:-0.069509 34:0.032164998 35:-0.011771 36:0.020614 37:0.009687 38:-0.027449001 39:0.077748999 40:0.028023999 41:-0.186214 42:-0.076614998 43:-0.151683 44:-0.049396999 45:0.018875999 46:0.13779201 47:-0.0071800002 48:0.038134001 49:0.077081002 50:0.063917004 51:-0.014761 52:0.15444399 53:0.1024 54:-0.065695003 55:-0.19852801 56:-0.052170001 57:0.17508601 58:-0.072402999 59:-0.048036002 60:-0.044636998 61:0.039053001 62:0.022017 63:-0.050337002 64:0.14467999 65:-0.094774999 66:-0.120365 67:0.0064909998 68:-0.164648 69:0.109689 70:0.067521997 71:0.022725999 72:-0.035246 73:-0.036256999 74:-0.083819002 75:0.006296 76:-0.080458999 77:-0.0025530001 78:0.045740001 79:-0.05387 80:0.106302 81:0.051630002 82:-0.070009999 83:-0.011166 84:0.040343001 85:0.104158 86:0.145308 87:-0.031002 88:-0.053491 89:0.021664999 90:0.091383003 91:0.060362998 92:0.072896004 93:-0.052372001 94:0.043942001 95:-0.147691 96:0.093666002 97:-0.048234001 98:0.056074001 99:-0.084871002 100:0.002965 #
0.26476015436042893425039324029058 1:-0.042344999 2:0.14063901 3:-0.0057109999 4:-0.041444998 5:-0.097796001 6:0.0033740001 7:0.022341 8:-0.010331 9:0.060931001 10:0.063403003 11:-0.061981 12:-0.169607 13:0.055943001 14:-0.131972 15:0.151198 16:-0.165865 17:-0.067139 18:0.120849 19:-0.016085999 20:0.0096509997 21:-0.031239999 22:0.089837 23:-0.045705002 24:0.026827 25:-0.019409001 26:0.057677999 27:-0.064568996 28:-0.209765 29:0.15158699 30:0.039168 31:0.074483 32:-0.058111999 33:0.015791001 34:0.239526 35:0.146244 36:-0.050308999 37:0.12712499 38:-0.104613 39:-0.031151 40:0.13248999 41:-0.150509 42:-0.160111 43:-0.15713701 44:0.17393 45:-0.084233001 46:-0.066019997 47:-0.110287 48:0.159279 49:-0.0055550002 50:0.163662 51:-0.087690003 52:0.182579 53:0.148872 54:0.058986001 55:0.047791999 56:-0.142276 57:0.059739001 58:-0.166192 59:0.022404 60:0.067578003 61:0.046661999 62:0.032905001 63:-0.10503 64:0.216948 65:-0.150746 66:-0.070419997 67:-0.020295 68:-0.145904 69:0.073756002 70:-0.048326001 71:0.002327 72:-0.23619799 73:-0.233592 74:-0.13815901 75:-0.038063001 76:0.089187004 77:-0.29769799 78:0.073158003 79:-0.01205 80:0.133168 81:-0.076559998 82:0.036695998 83:-0.151134 84:-0.13390701 85:0.046811 86:0.077147 87:0.10862 88:-0.111674 89:-0.015173 90:-0.086604998 91:0.032921001 92:-0.060897999 93:0.112364 94:0.0099280002 95:-0.080379002 96:0.17715301 97:-0.133405 98:0.010264 99:-0.0087409997 100:-0.090481997 #
-0.047229845740677602050627825747142 1:0.18123101 2:0.019909 3:-0.156067 4:0.119012 5:-0.041074999 6:-0.096235 7:0.046057001 8:0.11026 9:0.055810001 10:-0.029733 11:-0.015830001 12:0.196825 13:-0.030703001 14:0.176231 15:-0.026779 16:0.064956002 17:0.0081669996 18:0.18486901 19:-0.039131001 20:0.0077050002 21:0.061611 22:0.006848 23:-0.230506 24:0.043655999 25:-0.201968 26:-0.015411 27:-0.156994 28:0.157426 29:0.027572 30:0.115702 31:0.045263998 32:0.141651 33:0.11637 34:-0.112277 35:-0.108826 36:0.088230997 37:0.077697001 38:0.1121 39:0.100027 40:-0.155645 41:0.105181 42:0.133825 43:-0.13089301 44:-0.20776001 45:-0.086972997 46:0.18376601 47:0.135221 48:-0.010046 49:0.083342999 50:-0.141947 51:0.0185 52:-0.083273001 53:-0.182715 54:-0.087076999 55:-0.082258999 56:-0.014139 57:0.072246 58:-0.038410999 59:-0.044286001 60:-0.056621 61:0.165865 62:-0.052439 63:0.128132 64:0.148654 65:-0.032125998 66:-0.18517999 67:0.0099529997 68:-0.124844 69:0.106696 70:0.145514 71:0.061154 72:-0.145946 73:-0.15342 74:0.091044001 75:0.166751 76:-0.043604001 77:0.19122601 78:0.063059002 79:-0.150552 80:0.077019997 81:0.125919 82:-0.006453 83:0.056118999 84:0.207298 85:0.14590999 86:0.202133 87:-0.15761299 88:0.051701002 89:-0.012007 90:0.18720999 91:0.29185501 92:0.185776 93:-0.0055550002 94:0.092482999 95:0.027663 96:0.24295799 97:-0.061163999 98:0.164353 99:-0.040123001 100:0.053587999 #
